// HNB model in the BIF format
// Produced by the HNB package

network "HLCM2406131" {}

variable "class" { 
      type discrete[2] { "s0" "s1" }
}

variable "a3" { 
      type discrete[2] { "s0" "s1" }
}

variable "a4" { 
      type discrete[3] { "s0" "s1" "s2" }
}

variable "v362" { 
      type discrete[8] { "s0" "s1" "s2" "s3" "s4" "s5" "s6" "s7" }
}

variable "a1" { 
      type discrete[3] { "s0" "s1" "s2" }
}

variable "a2" { 
      type discrete[3] { "s0" "s1" "s2" }
}

variable "a5" { 
      type discrete[4] { "s0" "s1" "s2" "s3" }
}

variable "a6" { 
      type discrete[2] { "s0" "s1" }
}

probability( "class" ) {
      table  0.4949 0.5051;
}

probability( "a3" | "class" ) {
        ("s0") 0.5000 0.5000;
        ("s1") 0.5221 0.4779;
}

probability( "a4" | "class" ) {
        ("s0") 0.3279 0.3484 0.3238;
        ("s1") 0.3574 0.3173 0.3253;
}

probability( "v362" | "class" ) {
        ("s0") 0.0000 0.3566 0.0000 0.3320 0.0000 0.0000 0.0000 0.3115;
        ("s1") 0.1425 0.0000 0.4961 0.0000 0.1697 0.0422 0.1495 0.0000;
}

probability( "a1" | "v362" ) {
        ("s0") 0.0000 0.0000 1.0000;
        ("s1") 1.0000 0.0000 0.0000;
        ("s2") 0.3058 0.3380 0.3562;
        ("s3") 0.0000 1.0000 0.0000;
        ("s4") 0.0000 1.0000 0.0000;
        ("s5") 0.0000 0.0000 1.0000;
        ("s6") 1.0000 0.0000 0.0000;
        ("s7") 0.0000 0.0000 1.0000;
}

probability( "a2" | "v362" ) {
        ("s0") 0.0000 0.0000 1.0000;
        ("s1") 0.0000 0.5057 0.4943;
        ("s2") 0.3139 0.3299 0.3562;
        ("s3") 0.5185 0.0000 0.4815;
        ("s4") 0.0000 1.0000 0.0000;
        ("s5") 0.0000 0.0000 1.0000;
        ("s6") 1.0000 0.0000 0.0000;
        ("s7") 0.5000 0.5000 0.0000;
}

probability( "a5" | "v362" ) {
        ("s0") 0.0000 0.2228 0.3803 0.3969;
        ("s1") 0.0000 0.3333 0.3448 0.3218;
        ("s2") 1.0000 0.0000 0.0000 0.0000;
        ("s3") 0.0000 0.2840 0.3333 0.3827;
        ("s4") 0.0059 0.3077 0.3314 0.3550;
        ("s5") 0.0000 0.6743 0.0483 0.2774;
        ("s6") 0.0059 0.3493 0.3224 0.3224;
        ("s7") 0.0000 0.3553 0.3026 0.3421;
}

probability( "a6" | "v362" ) {
        ("s0") 0.3425 0.6575;
        ("s1") 0.4943 0.5057;
        ("s2") 0.4837 0.5163;
        ("s3") 0.5062 0.4938;
        ("s4") 0.4763 0.5237;
        ("s5") 0.7460 0.2540;
        ("s6") 0.5677 0.4323;
        ("s7") 0.4737 0.5263;
}

//Loglikelihood:  0.0
//Score        :  1.0
//LoglikelihoodOfPreviousModel:  -55337.151805539346
