// HNB model in the BIF format
// Produced by the HNB package

network "HLCM4972748" {}

variable "class" { 
      type discrete[2] { "s0" "s1" }
}

variable "v726" { 
      type discrete[12] { "s0" "s1" "s2" "s3" "s4" "s5" "s6" "s7" "s8" "s9" "s10" "s11" }
}

variable "a1" { 
      type discrete[3] { "s0" "s1" "s2" }
}

variable "a2" { 
      type discrete[3] { "s0" "s1" "s2" }
}

variable "a5" { 
      type discrete[4] { "s0" "s1" "s2" "s3" }
}

variable "v799" { 
      type discrete[6] { "s0" "s1" "s2" "s3" "s4" "s5" }
}

variable "a3" { 
      type discrete[2] { "s0" "s1" }
}

variable "a4" { 
      type discrete[3] { "s0" "s1" "s2" }
}

variable "a6" { 
      type discrete[2] { "s0" "s1" }
}

probability( "class" ) {
      table  0.5000 0.5000;
}

probability( "v726" | "class" ) {
        ("s0") 0.0000 0.1623 0.0599 0.0000 0.0000 0.0000 0.1085 0.1112 0.2181 0.0000 0.3401 0.0000;
        ("s1") 0.0777 0.0000 0.0000 0.2688 0.1223 0.1705 0.0000 0.0000 0.0000 0.2021 0.0000 0.1586;
}

probability( "a1" | "v726" ) {
        ("s0") 0.1049 0.3086 0.5865;
        ("s1") 0.0000 1.0000 0.0000;
        ("s2") 0.0000 0.2720 0.7280;
        ("s3") 0.5118 0.4606 0.0275;
        ("s4") 0.0274 0.1119 0.8608;
        ("s5") 0.0000 1.0000 0.0000;
        ("s6") 0.0000 0.0211 0.9789;
        ("s7") 0.0000 1.0000 0.0000;
        ("s8") 0.8355 0.1645 0.0000;
        ("s9") 0.0000 0.0000 1.0000;
        ("s10") 0.5714 0.0000 0.4286;
        ("s11") 1.0000 0.0000 0.0000;
}

probability( "a2" | "v726" ) {
        ("s0") 0.8919 0.0009 0.1072;
        ("s1") 0.5147 0.0000 0.4853;
        ("s2") 1.0000 0.0000 0.0000;
        ("s3") 0.2320 0.3674 0.4006;
        ("s4") 0.1753 0.5123 0.3124;
        ("s5") 0.0000 1.0000 0.0000;
        ("s6") 1.0000 0.0000 0.0000;
        ("s7") 0.6837 0.0000 0.3163;
        ("s8") 0.0000 0.0000 1.0000;
        ("s9") 0.0000 0.0000 1.0000;
        ("s10") 0.0000 1.0000 0.0000;
        ("s11") 1.0000 0.0000 0.0000;
}

probability( "a5" | "v726" ) {
        ("s0") 1.0000 0.0000 0.0000 0.0000;
        ("s1") 0.0000 0.4049 0.5169 0.0782;
        ("s2") 0.0000 0.0000 0.9276 0.0724;
        ("s3") 1.0000 0.0000 0.0000 0.0000;
        ("s4") 1.0000 0.0000 0.0000 0.0000;
        ("s5") 0.0029 0.3086 0.3561 0.3324;
        ("s6") 0.0000 0.6106 0.0000 0.3894;
        ("s7") 0.0000 0.2022 0.1077 0.6900;
        ("s8") 0.0000 0.3315 0.2896 0.3790;
        ("s9") 0.0784 0.3005 0.3005 0.3205;
        ("s10") 0.0000 0.3095 0.3452 0.3452;
        ("s11") 0.0302 0.3318 0.3573 0.2807;
}

probability( "v799" | "v726" ) {
        ("s0") 0.0002 0.2720 0.0360 0.2624 0.1139 0.3155;
        ("s1") 0.0492 0.4326 0.0976 0.1768 0.1143 0.1295;
        ("s2") 0.0011 0.0000 0.1421 0.0000 0.4662 0.3906;
        ("s3") 0.3365 0.0206 0.1526 0.1515 0.1174 0.2214;
        ("s4") 0.1564 0.1205 0.2591 0.3258 0.1374 0.0009;
        ("s5") 0.3569 0.0257 0.1728 0.2399 0.0981 0.1066;
        ("s6") 0.3807 0.1239 0.0000 0.1439 0.1698 0.1818;
        ("s7") 0.2426 0.0685 0.2457 0.0002 0.0949 0.3482;
        ("s8") 0.2253 0.0329 0.2065 0.1533 0.1524 0.2296;
        ("s9") 0.2912 0.1677 0.1122 0.1768 0.1027 0.1494;
        ("s10") 0.2504 0.1522 0.1797 0.1440 0.1525 0.1212;
        ("s11") 0.0023 0.3583 0.0979 0.1940 0.2283 0.1192;
}

probability( "a3" | "v799" ) {
        ("s0") 0.6039 0.3961;
        ("s1") 0.4502 0.5498;
        ("s2") 0.2519 0.7481;
        ("s3") 0.6198 0.3802;
        ("s4") 0.0054 0.9946;
        ("s5") 0.9379 0.0621;
}

probability( "a4" | "v799" ) {
        ("s0") 0.2752 0.2988 0.4260;
        ("s1") 0.5732 0.0498 0.3770;
        ("s2") 0.1235 0.1466 0.7299;
        ("s3") 0.8357 0.0922 0.0721;
        ("s4") 0.2764 0.7224 0.0012;
        ("s5") 0.0029 0.6261 0.3709;
}

probability( "a6" | "v799" ) {
        ("s0") 0.0272 0.9728;
        ("s1") 0.1389 0.8611;
        ("s2") 0.8490 0.1510;
        ("s3") 0.8850 0.1150;
        ("s4") 0.5143 0.4857;
        ("s5") 0.6777 0.3223;
}

//Loglikelihood:  0.0
//Score        :  1.0
//LoglikelihoodOfPreviousModel:  -241222.30304257525
