// HNB model in the BIF format
// Produced by the HNB package

network "HLCM2690553" {}

variable "class" { 
      type discrete[2] { "s0" "s1" }
}

variable "a1" { 
      type discrete[3] { "s0" "s1" "s2" }
}

variable "a6" { 
      type discrete[2] { "s0" "s1" }
}

variable "v1029" { 
      type discrete[5] { "s0" "s1" "s2" "s3" "s4" }
}

variable "a2" { 
      type discrete[3] { "s0" "s1" "s2" }
}

variable "a5" { 
      type discrete[4] { "s0" "s1" "s2" "s3" }
}

variable "a4" { 
      type discrete[3] { "s0" "s1" "s2" }
}

variable "a3" { 
      type discrete[2] { "s0" "s1" }
}

probability( "class" ) {
      table  0.4802 0.5198;
}

probability( "a1" | "class" ) {
        ("s0") 0.3306 0.3512 0.3182;
        ("s1") 0.3473 0.3359 0.3168;
}

probability( "a6" | "class" ) {
        ("s0") 0.5083 0.4917;
        ("s1") 0.4809 0.5191;
}

probability( "v1029" | "class" ) {
        ("s0") 0.4639 0.0000 0.5361 0.0000 0.0000;
        ("s1") 0.0000 0.7165 0.0000 0.2102 0.0734;
}

probability( "a2" | "v1029" ) {
        ("s0") 0.3919 0.3676 0.2405;
        ("s1") 0.5439 0.4561 0.0000;
        ("s2") 0.0000 0.0133 0.9867;
        ("s3") 0.3220 0.6780 0.0000;
        ("s4") 0.0089 0.2628 0.7283;
}

probability( "a5" | "v1029" ) {
        ("s0") 0.0000 0.0000 0.0394 0.9606;
        ("s1") 0.3722 0.3714 0.2564 0.0000;
        ("s2") 0.3469 0.3392 0.2048 0.1091;
        ("s3") 0.2566 0.3139 0.4295 0.0000;
        ("s4") 0.0000 0.0000 1.0000 0.0000;
}

probability( "a4" | "v1029" ) {
        ("s0") 0.3238 0.3262 0.3500;
        ("s1") 0.3602 0.2776 0.3622;
        ("s2") 0.2593 0.3652 0.3754;
        ("s3") 0.1845 0.5429 0.2726;
        ("s4") 1.0000 0.0000 0.0000;
}

probability( "a3" | "v1029" ) {
        ("s0") 0.5219 0.4781;
        ("s1") 0.5560 0.4440;
        ("s2") 0.4887 0.5113;
        ("s3") 0.4151 0.5849;
        ("s4") 0.5604 0.4396;
}

//Loglikelihood:  0.0
//Score        :  0.98
//LoglikelihoodOfPreviousModel:  -24361.028338556218
