// HNB model in the BIF format
// Produced by the HNB package

network "HLCM95933" {}

variable "v0" { 
      type discrete[3] { "s0" "s1" "s2" }
}

variable "v4" { 
      type discrete[3] { "s0" "s1" "s2" }
}

variable "v6" { 
      type discrete[3] { "s0" "s1" "s2" }
}

variable "v7" { 
      type discrete[3] { "s0" "s1" "s2" }
}

variable "v231" { 
      type discrete[3] { "s0" "s1" "s2" }
}

variable "v2" { 
      type discrete[3] { "s0" "s1" "s2" }
}

variable "v221" { 
      type discrete[3] { "s0" "s1" "s2" }
}

variable "v8" { 
      type discrete[3] { "s0" "s1" "s2" }
}

variable "v9" { 
      type discrete[3] { "s0" "s1" "s2" }
}

probability( "v0" ) {
      table  0.2767 0.3503 0.3730;
}

probability( "v4" | "v0" ) {
        ("s0") 0.1142 0.8720 0.0138;
        ("s1") 0.1763 0.8063 0.0174;
        ("s2") 0.1526 0.0950 0.7524;
}

probability( "v6" | "v0" ) {
        ("s0") 0.2354 0.7272 0.0374;
        ("s1") 0.2761 0.6826 0.0413;
        ("s2") 0.2219 0.7376 0.0405;
}

probability( "v7" | "v0" ) {
        ("s0") 0.6959 0.0283 0.2757;
        ("s1") 0.6582 0.0271 0.3147;
        ("s2") 0.7310 0.0264 0.2426;
}

probability( "v231" | "v0" ) {
        ("s0") 0.0002 0.9998 0.0000;
        ("s1") 0.9986 0.0012 0.0002;
        ("s2") 0.0001 0.0004 0.9995;
}

probability( "v2" | "v231" ) {
        ("s0") 0.8168 0.1379 0.0452;
        ("s1") 0.0629 0.1043 0.8328;
        ("s2") 0.0062 0.8703 0.1235;
}

probability( "v221" | "v231" ) {
        ("s0") 0.8160 0.1668 0.0172;
        ("s1") 0.0715 0.9152 0.0134;
        ("s2") 0.1026 0.0004 0.8969;
}

probability( "v8" | "v221" ) {
        ("s0") 0.8122 0.0623 0.1256;
        ("s1") 0.0537 0.0011 0.9451;
        ("s2") 0.0093 0.9573 0.0334;
}

probability( "v9" | "v221" ) {
        ("s0") 0.0406 0.0614 0.8980;
        ("s1") 0.1244 0.8673 0.0083;
        ("s2") 0.1362 0.8317 0.0321;
}

//Loglikelihood:  -236869.64247783367
//Score        :  -237140.13693494393
//LoglikelihoodOfPreviousModel:  -83587.56238311804
