// HNB model in the BIF format
// Produced by the HNB package

network "HLCM74503" {}

variable "v0" { 
      type discrete[3] { "s0" "s1" "s2" }
}

variable "v6" { 
      type discrete[3] { "s0" "s1" "s2" }
}

variable "v7" { 
      type discrete[3] { "s0" "s1" "s2" }
}

variable "v2" { 
      type discrete[3] { "s0" "s1" "s2" }
}

variable "v225" { 
      type discrete[3] { "s0" "s1" "s2" }
}

variable "v4" { 
      type discrete[3] { "s0" "s1" "s2" }
}

variable "v221" { 
      type discrete[3] { "s0" "s1" "s2" }
}

variable "v8" { 
      type discrete[3] { "s0" "s1" "s2" }
}

variable "v9" { 
      type discrete[3] { "s0" "s1" "s2" }
}

probability( "v0" ) {
      table  0.2700 0.3576 0.3724;
}

probability( "v6" | "v0" ) {
        ("s0") 0.2374 0.7241 0.0385;
        ("s1") 0.2746 0.6860 0.0394;
        ("s2") 0.2182 0.7420 0.0398;
}

probability( "v7" | "v0" ) {
        ("s0") 0.7032 0.0281 0.2687;
        ("s1") 0.6644 0.0289 0.3067;
        ("s2") 0.7273 0.0280 0.2448;
}

probability( "v2" | "v0" ) {
        ("s0") 0.0704 0.1081 0.8214;
        ("s1") 0.8166 0.1339 0.0496;
        ("s2") 0.0070 0.8680 0.1250;
}

probability( "v225" | "v0" ) {
        ("s0") 0.0000 0.9856 0.0144;
        ("s1") 0.0000 0.0404 0.9596;
        ("s2") 0.9993 0.0002 0.0005;
}

probability( "v4" | "v225" ) {
        ("s0") 0.1545 0.0963 0.7492;
        ("s1") 0.1091 0.8768 0.0142;
        ("s2") 0.1725 0.8108 0.0167;
}

probability( "v221" | "v225" ) {
        ("s0") 0.8762 0.0151 0.1086;
        ("s1") 0.0055 0.9413 0.0532;
        ("s2") 0.0145 0.1320 0.8535;
}

probability( "v8" | "v221" ) {
        ("s0") 0.0062 0.9751 0.0186;
        ("s1") 0.0531 0.0106 0.9363;
        ("s2") 0.8110 0.0636 0.1254;
}

probability( "v9" | "v221" ) {
        ("s0") 0.1418 0.8250 0.0332;
        ("s1") 0.1303 0.8584 0.0113;
        ("s2") 0.0421 0.0637 0.8942;
}

//Loglikelihood:  -475364.3663985733
//Score        :  -475652.1895351975
//LoglikelihoodOfPreviousModel:  -179722.10044309928
