// HNB model in the BIF format
// Produced by the HNB package

network "HLCM90906" {}

variable "v0" { 
      type discrete[3] { "s0" "s1" "s2" }
}

variable "v4" { 
      type discrete[3] { "s0" "s1" "s2" }
}

variable "v6" { 
      type discrete[3] { "s0" "s1" "s2" }
}

variable "v221" { 
      type discrete[3] { "s0" "s1" "s2" }
}

variable "v8" { 
      type discrete[3] { "s0" "s1" "s2" }
}

variable "v9" { 
      type discrete[3] { "s0" "s1" "s2" }
}

variable "v229" { 
      type discrete[3] { "s0" "s1" "s2" }
}

variable "v7" { 
      type discrete[3] { "s0" "s1" "s2" }
}

variable "v2" { 
      type discrete[3] { "s0" "s1" "s2" }
}

probability( "v0" ) {
      table  0.2700 0.3576 0.3724;
}

probability( "v4" | "v0" ) {
        ("s0") 0.1097 0.8762 0.0142;
        ("s1") 0.1702 0.8132 0.0166;
        ("s2") 0.1545 0.0968 0.7487;
}

probability( "v6" | "v0" ) {
        ("s0") 0.2374 0.7241 0.0385;
        ("s1") 0.2746 0.6860 0.0394;
        ("s2") 0.2182 0.7420 0.0398;
}

probability( "v221" | "v0" ) {
        ("s0") 0.0646 0.0070 0.9284;
        ("s1") 0.8211 0.0145 0.1644;
        ("s2") 0.1088 0.8827 0.0086;
}

probability( "v8" | "v221" ) {
        ("s0") 0.8112 0.0636 0.1252;
        ("s1") 0.0066 0.9675 0.0259;
        ("s2") 0.0532 0.0094 0.9375;
}

probability( "v9" | "v221" ) {
        ("s0") 0.0421 0.0637 0.8943;
        ("s1") 0.1417 0.8250 0.0332;
        ("s2") 0.1302 0.8585 0.0113;
}

probability( "v229" | "v0" ) {
        ("s0") 0.8799 0.0897 0.0304;
        ("s1") 0.0230 0.0058 0.9712;
        ("s2") 0.0177 0.9773 0.0050;
}

probability( "v7" | "v229" ) {
        ("s0") 0.7038 0.0281 0.2681;
        ("s1") 0.7261 0.0280 0.2458;
        ("s2") 0.6640 0.0288 0.3073;
}

probability( "v2" | "v229" ) {
        ("s0") 0.0509 0.0279 0.9212;
        ("s1") 0.0019 0.8870 0.1111;
        ("s2") 0.8395 0.1319 0.0286;
}

//Loglikelihood:  -475372.22673764074
//Score        :  -475660.049874265
//LoglikelihoodOfPreviousModel:  -166669.079020657
