// HNB model in the BIF format
// Produced by the HNB package

network "HLCM673" {}

variable "Class" { 
      type discrete[2] { "s2" "s4" }
}

variable "ClumpThickness" { 
      type discrete[10] { "s1" "s2" "s3" "s4" "s5" "s6" "s7" "s8" "s9" "s10" }
}

variable "UniformityofCellSize" { 
      type discrete[10] { "s1" "s2" "s3" "s4" "s5" "s6" "s7" "s8" "s9" "s10" }
}

variable "UniformityofCellShape" { 
      type discrete[10] { "s1" "s2" "s3" "s4" "s5" "s6" "s7" "s8" "s9" "s10" }
}

variable "MarginalAdhesion" { 
      type discrete[10] { "s1" "s2" "s3" "s4" "s5" "s6" "s7" "s8" "s9" "s10" }
}

variable "SingleEpithelialCellSize" { 
      type discrete[10] { "s1" "s2" "s3" "s4" "s5" "s6" "s7" "s8" "s9" "s10" }
}

variable "BareNuclei" { 
      type discrete[10] { "s1" "s2" "s3" "s4" "s5" "s6" "s7" "s8" "s9" "s10" }
}

variable "BlandChromatin" { 
      type discrete[10] { "s1" "s2" "s3" "s4" "s5" "s6" "s7" "s8" "s9" "s10" }
}

variable "NormalNucleoli" { 
      type discrete[10] { "s1" "s2" "s3" "s4" "s5" "s6" "s7" "s8" "s9" "s10" }
}

variable "Mitoses" { 
      type discrete[10] { "s1" "s2" "s3" "s4" "s5" "s6" "s7" "s8" "s9" "s10" }
}

probability( "Class" ) {
      table  0.6396 0.3604;
}

probability( "ClumpThickness" | "Class" ) {
        ("s2") 0.3071 0.1041 0.2030 0.1497 0.1878 0.0355 0.0025 0.0102 0.0000 0.0000;
        ("s4") 0.0135 0.0180 0.0541 0.0495 0.1937 0.0811 0.0901 0.1532 0.0631 0.2838;
}

probability( "UniformityofCellSize" | "Class" ) {
        ("s2") 0.8325 0.0812 0.0635 0.0178 0.0000 0.0000 0.0000 0.0025 0.0025 0.0000;
        ("s4") 0.0180 0.0360 0.1081 0.1171 0.1261 0.1081 0.0766 0.1081 0.0225 0.2793;
}

probability( "UniformityofCellShape" | "Class" ) {
        ("s2") 0.7792 0.1091 0.0685 0.0279 0.0051 0.0051 0.0025 0.0025 0.0000 0.0000;
        ("s4") 0.0090 0.0315 0.0991 0.1261 0.1261 0.1171 0.1171 0.1126 0.0270 0.2342;
}

probability( "MarginalAdhesion" | "Class" ) {
        ("s2") 0.8223 0.0787 0.0711 0.0127 0.0102 0.0025 0.0000 0.0000 0.0000 0.0025;
        ("s4") 0.1306 0.0811 0.1171 0.1126 0.0721 0.0766 0.0541 0.1126 0.0180 0.2252;
}

probability( "SingleEpithelialCellSize" | "Class" ) {
        ("s2") 0.0914 0.8046 0.0635 0.0152 0.0102 0.0025 0.0051 0.0051 0.0000 0.0025;
        ("s4") 0.0045 0.0766 0.1847 0.1667 0.1351 0.1712 0.0405 0.0766 0.0090 0.1351;
}

probability( "BareNuclei" | "Class" ) {
        ("s2") 0.8883 0.0431 0.0178 0.0127 0.0254 0.0000 0.0025 0.0025 0.0000 0.0076;
        ("s4") 0.0631 0.0360 0.0631 0.0586 0.0901 0.0180 0.0315 0.0721 0.0360 0.5315;
}

probability( "BlandChromatin" | "Class" ) {
        ("s2") 0.3452 0.3528 0.2589 0.0152 0.0102 0.0025 0.0152 0.0000 0.0000 0.0000;
        ("s4") 0.0090 0.0315 0.1486 0.1306 0.1306 0.0270 0.2793 0.1171 0.0405 0.0856;
}

probability( "NormalNucleoli" | "Class" ) {
        ("s2") 0.8909 0.0609 0.0228 0.0000 0.0025 0.0102 0.0051 0.0076 0.0000 0.0000;
        ("s4") 0.1757 0.0270 0.1216 0.0766 0.0721 0.0811 0.0586 0.0766 0.0676 0.2432;
}

probability( "Mitoses" | "Class" ) {
        ("s2") 0.9721 0.0178 0.0051 0.0000 0.0025 0.0000 0.0000 0.0025 0.0000 0.0000;
        ("s4") 0.5541 0.1081 0.1261 0.0495 0.0225 0.0090 0.0360 0.0315 0.0000 0.0631;
}

//Loglikelihood:  -7098.640893566619
//Score        :  0.9552238805970149
//LoglikelihoodOfPreviousModel:  -1515.473149453031
