// HNB model in the BIF format
// Produced by the HNB package

network "HLCM153325" {}

variable "v0" { 
      type discrete[3] { "s0" "s1" "s2" }
}

variable "v234" { 
      type discrete[2] { "s0" "s1" }
}

variable "v4" { 
      type discrete[3] { "s0" "s1" "s2" }
}

variable "v212" { 
      type discrete[2] { "s0" "s1" }
}

variable "v6" { 
      type discrete[3] { "s0" "s1" "s2" }
}

variable "v7" { 
      type discrete[3] { "s0" "s1" "s2" }
}

variable "v241" { 
      type discrete[2] { "s0" "s1" }
}

variable "v2" { 
      type discrete[3] { "s0" "s1" "s2" }
}

variable "v229" { 
      type discrete[2] { "s0" "s1" }
}

variable "v8" { 
      type discrete[3] { "s0" "s1" "s2" }
}

variable "v9" { 
      type discrete[3] { "s0" "s1" "s2" }
}

probability( "v0" ) {
      table  0.3160 0.4340 0.2500;
}

probability( "v234" | "v0" ) {
        ("s0") 0.4697 0.5303;
        ("s1") 0.4367 0.5633;
        ("s2") 0.9091 0.0909;
}

probability( "v4" | "v234" ) {
        ("s0") 0.4195 0.0721 0.5084;
        ("s1") 0.3861 0.5779 0.0360;
}

probability( "v212" | "v234" ) {
        ("s0") 0.6140 0.3860;
        ("s1") 0.8368 0.1632;
}

probability( "v6" | "v212" ) {
        ("s0") 0.3487 0.2720 0.3793;
        ("s1") 0.0039 0.5349 0.4612;
}

probability( "v7" | "v212" ) {
        ("s0") 0.2765 0.0241 0.6994;
        ("s1") 0.0086 0.7984 0.1931;
}

probability( "v241" | "v0" ) {
        ("s0") 0.9887 0.0113;
        ("s1") 0.5747 0.4253;
        ("s2") 0.1602 0.8398;
}

probability( "v2" | "v241" ) {
        ("s0") 0.5596 0.3899 0.0505;
        ("s1") 0.0180 0.1490 0.8330;
}

probability( "v229" | "v241" ) {
        ("s0") 0.6645 0.3355;
        ("s1") 0.7367 0.2633;
}

probability( "v8" | "v229" ) {
        ("s0") 0.1471 0.2525 0.6005;
        ("s1") 0.3913 0.4107 0.1980;
}

probability( "v9" | "v229" ) {
        ("s0") 0.5437 0.3638 0.0925;
        ("s1") 0.0655 0.6936 0.2409;
}

//Loglikelihood:  -7101.456610396389
//Score        :  -7225.796205418067
//LoglikelihoodOfPreviousModel:  -4128.8614535832685
