// HNB model in the BIF format
// Produced by the HNB package

network "HLCM4438961" {}

variable "class" { 
      type discrete[2] { "s0" "s1" }
}

variable "v879" { 
      type discrete[11] { "s0" "s1" "s2" "s3" "s4" "s5" "s6" "s7" "s8" "s9" "s10" }
}

variable "a2" { 
      type discrete[3] { "s0" "s1" "s2" }
}

variable "a5" { 
      type discrete[4] { "s0" "s1" "s2" "s3" }
}

variable "a4" { 
      type discrete[3] { "s0" "s1" "s2" }
}

variable "a3" { 
      type discrete[2] { "s0" "s1" }
}

variable "a1" { 
      type discrete[3] { "s0" "s1" "s2" }
}

variable "a6" { 
      type discrete[2] { "s0" "s1" }
}

probability( "class" ) {
      table  0.4877 0.5123;
}

probability( "v879" | "class" ) {
        ("s0") 0.0000 0.3232 0.0000 0.0000 0.4767 0.1575 0.0000 0.0000 0.0426 0.0000 0.0000;
        ("s1") 0.0673 0.0000 0.1191 0.0924 0.0000 0.0000 0.3242 0.1869 0.0000 0.0396 0.1704;
}

probability( "a2" | "v879" ) {
        ("s0") 0.0000 0.2868 0.7132;
        ("s1") 0.0000 0.0000 1.0000;
        ("s2") 0.6017 0.3983 0.0000;
        ("s3") 0.6624 0.3376 0.0000;
        ("s4") 0.4142 0.3260 0.2597;
        ("s5") 0.0000 0.0000 1.0000;
        ("s6") 0.4648 0.5352 0.0000;
        ("s7") 0.2987 0.7013 0.0000;
        ("s8") 0.0000 0.2968 0.7032;
        ("s9") 0.9851 0.0149 0.0000;
        ("s10") 0.4788 0.5212 0.0000;
}

probability( "a5" | "v879" ) {
        ("s0") 0.0000 0.0000 0.9406 0.0594;
        ("s1") 0.4826 0.4252 0.0000 0.0922;
        ("s2") 0.3394 0.3005 0.3601 0.0000;
        ("s3") 0.0018 0.9982 0.0000 0.0000;
        ("s4") 0.0000 0.0000 0.0000 1.0000;
        ("s5") 0.0016 0.1915 0.5822 0.2247;
        ("s6") 0.3856 0.3198 0.2946 0.0000;
        ("s7") 0.3244 0.4088 0.2668 0.0000;
        ("s8") 0.1787 0.3074 0.5115 0.0023;
        ("s9") 0.5657 0.1166 0.3177 0.0000;
        ("s10") 0.4656 0.1128 0.4215 0.0000;
}

probability( "a4" | "v879" ) {
        ("s0") 1.0000 0.0000 0.0000;
        ("s1") 0.4294 0.2713 0.2993;
        ("s2") 0.6032 0.0000 0.3968;
        ("s3") 0.6579 0.3421 0.0000;
        ("s4") 0.3346 0.3231 0.3423;
        ("s5") 0.0000 0.5244 0.4756;
        ("s6") 0.2640 0.3297 0.4062;
        ("s7") 0.0758 0.4364 0.4878;
        ("s8") 0.0000 0.5743 0.4257;
        ("s9") 0.3443 0.4993 0.1565;
        ("s10") 0.2972 0.3293 0.3736;
}

probability( "a3" | "v879" ) {
        ("s0") 0.7427 0.2573;
        ("s1") 0.4436 0.5564;
        ("s2") 0.8245 0.1755;
        ("s3") 0.3817 0.6183;
        ("s4") 0.5244 0.4756;
        ("s5") 0.4334 0.5666;
        ("s6") 0.5258 0.4742;
        ("s7") 0.5691 0.4309;
        ("s8") 1.0000 0.0000;
        ("s9") 0.9997 0.0003;
        ("s10") 0.0006 0.9994;
}

probability( "a1" | "v879" ) {
        ("s0") 0.1944 0.4292 0.3764;
        ("s1") 0.3364 0.3043 0.3593;
        ("s2") 0.2363 0.1314 0.6324;
        ("s3") 0.4198 0.2621 0.3181;
        ("s4") 0.3786 0.3320 0.2894;
        ("s5") 0.2926 0.2399 0.4675;
        ("s6") 0.2988 0.3725 0.3287;
        ("s7") 0.5460 0.3972 0.0569;
        ("s8") 0.3157 0.6843 0.0000;
        ("s9") 0.1405 0.8595 0.0000;
        ("s10") 0.3491 0.2005 0.4504;
}

probability( "a6" | "v879" ) {
        ("s0") 0.4927 0.5073;
        ("s1") 0.4763 0.5237;
        ("s2") 0.8477 0.1523;
        ("s3") 0.3980 0.6020;
        ("s4") 0.4951 0.5049;
        ("s5") 0.4016 0.5984;
        ("s6") 0.0055 0.9945;
        ("s7") 0.8914 0.1086;
        ("s8") 1.0000 0.0000;
        ("s9") 0.7008 0.2992;
        ("s10") 0.6626 0.3374;
}

//Loglikelihood:  0.0
//Score        :  0.9696969696969697
//LoglikelihoodOfPreviousModel:  -239041.86393013265
