// HNB model in the BIF format
// Produced by the HNB package

network "HLCM2078901" {}

variable "class" { 
      type discrete[2] { "s0" "s1" }
}

variable "v337" { 
      type discrete[13] { "s0" "s1" "s2" "s3" "s4" "s5" "s6" "s7" "s8" "s9" "s10" "s11" "s12" }
}

variable "a2" { 
      type discrete[3] { "s0" "s1" "s2" }
}

variable "a5" { 
      type discrete[4] { "s0" "s1" "s2" "s3" }
}

variable "a4" { 
      type discrete[3] { "s0" "s1" "s2" }
}

variable "a6" { 
      type discrete[2] { "s0" "s1" }
}

variable "a1" { 
      type discrete[3] { "s0" "s1" "s2" }
}

variable "a3" { 
      type discrete[2] { "s0" "s1" }
}

probability( "class" ) {
      table  0.4820 0.5180;
}

probability( "v337" | "class" ) {
        ("s0") 0.1425 0.0000 0.0000 0.0000 0.0000 0.0000 0.1946 0.2579 0.0000 0.0083 0.0083 0.0000 0.3884;
        ("s1") 0.0000 0.1417 0.0425 0.2818 0.1796 0.0383 0.0000 0.0000 0.2000 0.0000 0.0000 0.1160 0.0000;
}

probability( "a2" | "v337" ) {
        ("s0") 0.0000 0.0000 1.0000;
        ("s1") 0.4127 0.5873 0.0000;
        ("s2") 0.0000 0.0000 1.0000;
        ("s3") 0.5976 0.4024 0.0000;
        ("s4") 0.4487 0.5513 0.0000;
        ("s5") 0.0001 0.9999 0.0000;
        ("s6") 0.0000 0.0000 1.0000;
        ("s7") 0.0000 0.0000 1.0000;
        ("s8") 0.4976 0.5024 0.0000;
        ("s9") 0.5001 0.4999 0.0000;
        ("s10") 0.0000 1.0000 0.0000;
        ("s11") 0.4852 0.5148 0.0000;
        ("s12") 0.4700 0.4273 0.1027;
}

probability( "a5" | "v337" ) {
        ("s0") 0.3382 0.2930 0.2611 0.1078;
        ("s1") 0.0965 0.0697 0.8338 0.0000;
        ("s2") 0.0000 0.0000 0.9091 0.0909;
        ("s3") 0.6142 0.2315 0.1543 0.0000;
        ("s4") 0.3943 0.3587 0.2470 0.0000;
        ("s5") 0.2715 0.4737 0.2548 0.0000;
        ("s6") 0.4140 0.3215 0.0000 0.2645;
        ("s7") 0.2087 0.2231 0.3063 0.2620;
        ("s8") 0.3115 0.6336 0.0549 0.0000;
        ("s9") 0.0000 0.0000 0.9990 0.0010;
        ("s10") 0.0000 0.0000 1.0000 0.0000;
        ("s11") 0.0152 0.4435 0.5414 0.0000;
        ("s12") 0.0000 0.0000 0.0000 1.0000;
}

probability( "a4" | "v337" ) {
        ("s0") 0.0000 0.4759 0.5241;
        ("s1") 0.2492 0.3890 0.3618;
        ("s2") 1.0000 0.0000 0.0000;
        ("s3") 0.3767 0.3260 0.2973;
        ("s4") 0.0296 0.3606 0.6097;
        ("s5") 0.0000 0.1928 0.8072;
        ("s6") 0.8452 0.0006 0.1542;
        ("s7") 0.0000 0.5989 0.4011;
        ("s8") 0.4462 0.3347 0.2191;
        ("s9") 0.5001 0.4999 0.0000;
        ("s10") 0.0000 0.0000 1.0000;
        ("s11") 0.6942 0.2959 0.0099;
        ("s12") 0.3351 0.3461 0.3188;
}

probability( "a6" | "v337" ) {
        ("s0") 0.9937 0.0063;
        ("s1") 0.2675 0.7325;
        ("s2") 0.6364 0.3636;
        ("s3") 0.6275 0.3725;
        ("s4") 0.6964 0.3036;
        ("s5") 0.3945 0.6055;
        ("s6") 0.5315 0.4685;
        ("s7") 0.2066 0.7934;
        ("s8") 0.0740 0.9260;
        ("s9") 1.0000 0.0000;
        ("s10") 0.5000 0.5000;
        ("s11") 0.8065 0.1935;
        ("s12") 0.5247 0.4753;
}

probability( "a1" | "v337" ) {
        ("s0") 0.2941 0.4081 0.2978;
        ("s1") 0.1732 0.4708 0.3560;
        ("s2") 0.1818 0.4545 0.3636;
        ("s3") 0.1766 0.4335 0.3899;
        ("s4") 0.6564 0.0592 0.2844;
        ("s5") 0.6266 0.2605 0.1129;
        ("s6") 0.3913 0.3021 0.3066;
        ("s7") 0.2964 0.3460 0.3577;
        ("s8") 0.4059 0.3037 0.2904;
        ("s9") 1.0000 0.0000 0.0000;
        ("s10") 0.0000 1.0000 0.0000;
        ("s11") 0.4981 0.2664 0.2355;
        ("s12") 0.3539 0.3239 0.3222;
}

probability( "a3" | "v337" ) {
        ("s0") 0.6157 0.3843;
        ("s1") 0.3882 0.6118;
        ("s2") 0.4545 0.5455;
        ("s3") 0.5991 0.4009;
        ("s4") 0.3487 0.6513;
        ("s5") 0.9908 0.0092;
        ("s6") 0.4031 0.5969;
        ("s7") 0.4776 0.5224;
        ("s8") 0.4710 0.5290;
        ("s9") 1.0000 0.0000;
        ("s10") 1.0000 0.0000;
        ("s11") 0.5514 0.4486;
        ("s12") 0.5049 0.4951;
}

//Loglikelihood:  0.0
//Score        :  0.9814814814814815
//LoglikelihoodOfPreviousModel:  -245322.0409187266
