// HNB model in the BIF format
// Produced by the HNB package

network "HLCM350739" {}

variable "v0" { 
      type discrete[3] { "s0" "s1" "s2" }
}

variable "v2" { 
      type discrete[3] { "s0" "s1" "s2" }
}

variable "v229" { 
      type discrete[3] { "s0" "s1" "s2" }
}

variable "v8" { 
      type discrete[3] { "s0" "s1" "s2" }
}

variable "v9" { 
      type discrete[3] { "s0" "s1" "s2" }
}

variable "v234" { 
      type discrete[2] { "s0" "s1" }
}

variable "v245" { 
      type discrete[2] { "s0" "s1" }
}

variable "v4" { 
      type discrete[3] { "s0" "s1" "s2" }
}

variable "v212" { 
      type discrete[3] { "s0" "s1" "s2" }
}

variable "v6" { 
      type discrete[3] { "s0" "s1" "s2" }
}

variable "v7" { 
      type discrete[3] { "s0" "s1" "s2" }
}

probability( "v0" ) {
      table  0.3240 0.4044 0.2716;
}

probability( "v2" | "v0" ) {
        ("s0") 0.5812 0.3592 0.0597;
        ("s1") 0.3126 0.3313 0.3561;
        ("s2") 0.0863 0.1967 0.7170;
}

probability( "v229" | "v0" ) {
        ("s0") 0.0309 0.6058 0.3633;
        ("s1") 0.3825 0.1386 0.4790;
        ("s2") 0.2023 0.3677 0.4299;
}

probability( "v8" | "v229" ) {
        ("s0") 0.0946 0.2306 0.6748;
        ("s1") 0.4244 0.3647 0.2109;
        ("s2") 0.1599 0.2416 0.5984;
}

probability( "v9" | "v229" ) {
        ("s0") 0.1822 0.7332 0.0846;
        ("s1") 0.1002 0.7472 0.1526;
        ("s2") 0.7655 0.0926 0.1419;
}

probability( "v234" | "v0" ) {
        ("s0") 0.2248 0.7752;
        ("s1") 0.2921 0.7079;
        ("s2") 0.9227 0.0773;
}

probability( "v245" | "v234" ) {
        ("s0") 0.9023 0.0977;
        ("s1") 0.1809 0.8191;
}

probability( "v4" | "v245" ) {
        ("s0") 0.4618 0.0172 0.5210;
        ("s1") 0.3616 0.5501 0.0883;
}

probability( "v212" | "v245" ) {
        ("s0") 0.0465 0.3129 0.6405;
        ("s1") 0.3815 0.3713 0.2473;
}

probability( "v6" | "v212" ) {
        ("s0") 0.1661 0.4463 0.3875;
        ("s1") 0.6140 0.0347 0.3513;
        ("s2") 0.0133 0.5626 0.4242;
}

probability( "v7" | "v212" ) {
        ("s0") 0.0211 0.1324 0.8465;
        ("s1") 0.3630 0.0187 0.6184;
        ("s2") 0.1631 0.4668 0.3701;
}

//Loglikelihood:  -707188.8232234294
//Score        :  -707482.4028227861
//LoglikelihoodOfPreviousModel:  -201390.77286651343
