// HNB model in the BIF format
// Produced by the HNB package

network "HLCM78397" {}

variable "v0" { 
      type discrete[3] { "s0" "s1" "s2" }
}

variable "v2" { 
      type discrete[3] { "s0" "s1" "s2" }
}

variable "v8" { 
      type discrete[3] { "s0" "s1" "s2" }
}

variable "v212" { 
      type discrete[3] { "s0" "s1" "s2" }
}

variable "v6" { 
      type discrete[3] { "s0" "s1" "s2" }
}

variable "v7" { 
      type discrete[3] { "s0" "s1" "s2" }
}

variable "v224" { 
      type discrete[3] { "s0" "s1" "s2" }
}

variable "v4" { 
      type discrete[3] { "s0" "s1" "s2" }
}

variable "v9" { 
      type discrete[3] { "s0" "s1" "s2" }
}

probability( "v0" ) {
      table  0.3240 0.4044 0.2716;
}

probability( "v2" | "v0" ) {
        ("s0") 0.5812 0.3592 0.0597;
        ("s1") 0.3126 0.3313 0.3561;
        ("s2") 0.0863 0.1967 0.7170;
}

probability( "v8" | "v0" ) {
        ("s0") 0.3219 0.3101 0.3680;
        ("s1") 0.1701 0.2586 0.5713;
        ("s2") 0.2417 0.2853 0.4730;
}

probability( "v212" | "v0" ) {
        ("s0") 0.4719 0.1707 0.3574;
        ("s1") 0.4638 0.1752 0.3610;
        ("s2") 0.4080 0.4605 0.1316;
}

probability( "v6" | "v212" ) {
        ("s0") 0.5199 0.1219 0.3581;
        ("s1") 0.0105 0.5647 0.4248;
        ("s2") 0.0479 0.5384 0.4136;
}

probability( "v7" | "v212" ) {
        ("s0") 0.3288 0.0220 0.6492;
        ("s1") 0.1497 0.5121 0.3382;
        ("s2") 0.0508 0.3470 0.6022;
}

probability( "v224" | "v0" ) {
        ("s0") 0.2022 0.4938 0.3040;
        ("s1") 0.3349 0.0143 0.6508;
        ("s2") 0.9115 0.0400 0.0485;
}

probability( "v4" | "v224" ) {
        ("s0") 0.4503 0.0652 0.4845;
        ("s1") 0.3864 0.4219 0.1917;
        ("s2") 0.3773 0.4806 0.1421;
}

probability( "v9" | "v224" ) {
        ("s0") 0.4117 0.4581 0.1302;
        ("s1") 0.2390 0.5870 0.1740;
        ("s2") 0.4700 0.4127 0.1172;
}

//Loglikelihood:  -709497.8371502586
//Score        :  -709785.6602868829
//LoglikelihoodOfPreviousModel:  -201390.77286651343
