// HNB model in the BIF format
// Produced by the HNB package

network "HLCM176717" {}

variable "v0" { 
      type discrete[3] { "s0" "s1" "s2" }
}

variable "v212" { 
      type discrete[3] { "s0" "s1" "s2" }
}

variable "v6" { 
      type discrete[3] { "s0" "s1" "s2" }
}

variable "v7" { 
      type discrete[3] { "s0" "s1" "s2" }
}

variable "v229" { 
      type discrete[3] { "s0" "s1" "s2" }
}

variable "v8" { 
      type discrete[3] { "s0" "s1" "s2" }
}

variable "v9" { 
      type discrete[3] { "s0" "s1" "s2" }
}

variable "v233" { 
      type discrete[3] { "s0" "s1" "s2" }
}

variable "v4" { 
      type discrete[3] { "s0" "s1" "s2" }
}

variable "v2" { 
      type discrete[3] { "s0" "s1" "s2" }
}

probability( "v0" ) {
      table  0.3240 0.4044 0.2716;
}

probability( "v212" | "v0" ) {
        ("s0") 0.3963 0.3170 0.2866;
        ("s1") 0.3906 0.3263 0.2830;
        ("s2") 0.2315 0.4555 0.3129;
}

probability( "v6" | "v212" ) {
        ("s0") 0.3062 0.3169 0.3769;
        ("s1") 0.0029 0.5723 0.4248;
        ("s2") 0.4910 0.1412 0.3678;
}

probability( "v7" | "v212" ) {
        ("s0") 0.0872 0.0636 0.8492;
        ("s1") 0.0881 0.5901 0.3218;
        ("s2") 0.4756 0.0279 0.4965;
}

probability( "v229" | "v0" ) {
        ("s0") 0.2407 0.4037 0.3556;
        ("s1") 0.1129 0.0490 0.8382;
        ("s2") 0.1863 0.2224 0.5912;
}

probability( "v8" | "v229" ) {
        ("s0") 0.1989 0.1950 0.6061;
        ("s1") 0.5492 0.4295 0.0213;
        ("s2") 0.1435 0.2569 0.5996;
}

probability( "v9" | "v229" ) {
        ("s0") 0.6051 0.2047 0.1902;
        ("s1") 0.0961 0.7479 0.1559;
        ("s2") 0.4512 0.4398 0.1090;
}

probability( "v233" | "v0" ) {
        ("s0") 0.0016 0.8972 0.1012;
        ("s1") 0.0392 0.3830 0.5779;
        ("s2") 0.9630 0.0001 0.0369;
}

probability( "v4" | "v233" ) {
        ("s0") 0.4457 0.0898 0.4645;
        ("s1") 0.3969 0.3605 0.2427;
        ("s2") 0.4012 0.3557 0.2431;
}

probability( "v2" | "v233" ) {
        ("s0") 0.0854 0.1923 0.7223;
        ("s1") 0.6347 0.3641 0.0012;
        ("s2") 0.1144 0.3185 0.5671;
}

//Loglikelihood:  -707949.9243314376
//Score        :  -708272.2862444568
//LoglikelihoodOfPreviousModel:  -310195.65633410786
