// HNB model in the BIF format
// Produced by the HNB package

network "HLCM332928" {}

variable "v0" { 
      type discrete[3] { "s0" "s1" "s2" }
}

variable "v2" { 
      type discrete[3] { "s0" "s1" "s2" }
}

variable "v243" { 
      type discrete[3] { "s0" "s1" "s2" }
}

variable "v229" { 
      type discrete[2] { "s0" "s1" }
}

variable "v8" { 
      type discrete[3] { "s0" "s1" "s2" }
}

variable "v9" { 
      type discrete[3] { "s0" "s1" "s2" }
}

variable "v234" { 
      type discrete[2] { "s0" "s1" }
}

variable "v4" { 
      type discrete[3] { "s0" "s1" "s2" }
}

variable "v212" { 
      type discrete[3] { "s0" "s1" "s2" }
}

variable "v6" { 
      type discrete[3] { "s0" "s1" "s2" }
}

variable "v7" { 
      type discrete[3] { "s0" "s1" "s2" }
}

probability( "v0" ) {
      table  0.3240 0.4044 0.2716;
}

probability( "v2" | "v0" ) {
        ("s0") 0.5812 0.3592 0.0597;
        ("s1") 0.3126 0.3313 0.3561;
        ("s2") 0.0863 0.1967 0.7170;
}

probability( "v243" | "v0" ) {
        ("s0") 0.6922 0.2129 0.0949;
        ("s1") 0.0401 0.8650 0.0949;
        ("s2") 0.0396 0.0606 0.8999;
}

probability( "v229" | "v243" ) {
        ("s0") 0.5717 0.4283;
        ("s1") 0.0378 0.9622;
        ("s2") 0.2496 0.7504;
}

probability( "v8" | "v229" ) {
        ("s0") 0.5557 0.4222 0.0221;
        ("s1") 0.1396 0.2389 0.6216;
}

probability( "v9" | "v229" ) {
        ("s0") 0.1398 0.6998 0.1604;
        ("s1") 0.4854 0.3900 0.1245;
}

probability( "v234" | "v243" ) {
        ("s0") 0.2409 0.7591;
        ("s1") 0.3098 0.6902;
        ("s2") 0.8898 0.1102;
}

probability( "v4" | "v234" ) {
        ("s0") 0.4630 0.0103 0.5267;
        ("s1") 0.3653 0.5308 0.1038;
}

probability( "v212" | "v234" ) {
        ("s0") 0.3374 0.6576 0.0050;
        ("s1") 0.4105 0.2338 0.3557;
}

probability( "v6" | "v212" ) {
        ("s0") 0.5673 0.0768 0.3560;
        ("s1") 0.0207 0.5560 0.4233;
        ("s2") 0.1550 0.4567 0.3884;
}

probability( "v7" | "v212" ) {
        ("s0") 0.3590 0.0096 0.6314;
        ("s1") 0.1505 0.4729 0.3766;
        ("s2") 0.0038 0.1722 0.8240;
}

//Loglikelihood:  -707295.8586700141
//Score        :  -707572.1688811734
//LoglikelihoodOfPreviousModel:  -201390.77286651343
