// HNB model in the BIF format
// Produced by the HNB package

network "HLCM418922" {}

variable "v0" { 
      type discrete[3] { "s0" "s1" "s2" }
}

variable "v2" { 
      type discrete[3] { "s0" "s1" "s2" }
}

variable "v229" { 
      type discrete[2] { "s0" "s1" }
}

variable "v9" { 
      type discrete[3] { "s0" "s1" "s2" }
}

variable "v234" { 
      type discrete[2] { "s0" "s1" }
}

variable "v245" { 
      type discrete[2] { "s0" "s1" }
}

variable "v4" { 
      type discrete[3] { "s0" "s1" "s2" }
}

variable "v212" { 
      type discrete[3] { "s0" "s1" "s2" }
}

variable "v6" { 
      type discrete[3] { "s0" "s1" "s2" }
}

variable "v7" { 
      type discrete[3] { "s0" "s1" "s2" }
}

variable "v8" { 
      type discrete[3] { "s0" "s1" "s2" }
}

probability( "v0" ) {
      table  0.3240 0.4044 0.2716;
}

probability( "v2" | "v0" ) {
        ("s0") 0.5812 0.3592 0.0597;
        ("s1") 0.3126 0.3313 0.3561;
        ("s2") 0.0863 0.1967 0.7170;
}

probability( "v229" | "v0" ) {
        ("s0") 0.5259 0.4741;
        ("s1") 0.7564 0.2436;
        ("s2") 0.6548 0.3452;
}

probability( "v9" | "v229" ) {
        ("s0") 0.5625 0.3470 0.0905;
        ("s1") 0.1016 0.6848 0.2136;
}

probability( "v234" | "v0" ) {
        ("s0") 0.7031 0.2969;
        ("s1") 0.6448 0.3552;
        ("s2") 0.0946 0.9054;
}

probability( "v245" | "v234" ) {
        ("s0") 0.0768 0.9232;
        ("s1") 0.8974 0.1026;
}

probability( "v4" | "v245" ) {
        ("s0") 0.4644 0.0023 0.5334;
        ("s1") 0.3639 0.5392 0.0969;
}

probability( "v212" | "v245" ) {
        ("s0") 0.3334 0.2598 0.4068;
        ("s1") 0.4494 0.4575 0.0932;
}

probability( "v6" | "v212" ) {
        ("s0") 0.5599 0.0854 0.3547;
        ("s1") 0.0845 0.5080 0.4075;
        ("s2") 0.0003 0.5726 0.4270;
}

probability( "v7" | "v212" ) {
        ("s0") 0.3502 0.0175 0.6323;
        ("s1") 0.0247 0.2454 0.7298;
        ("s2") 0.2230 0.6015 0.1755;
}

probability( "v8" | "v0" ) {
        ("s0") 0.3219 0.3101 0.3680;
        ("s1") 0.1701 0.2586 0.5713;
        ("s2") 0.2417 0.2853 0.4730;
}

//Loglikelihood:  -708786.2620511351
//Score        :  -709051.0593368293
//LoglikelihoodOfPreviousModel:  -201390.77286651343
