// HNB model in the BIF format
// Produced by the HNB package

network "HLCM150066" {}

variable "class" { 
      type discrete[2] { "s0" "s1" }
}

variable "a1" { 
      type discrete[3] { "s0" "s1" "s2" }
}

variable "a3" { 
      type discrete[2] { "s0" "s1" }
}

variable "a6" { 
      type discrete[2] { "s0" "s1" }
}

variable "v77" { 
      type discrete[5] { "s0" "s1" "s2" "s3" "s4" }
}

variable "a2" { 
      type discrete[3] { "s0" "s1" "s2" }
}

variable "a5" { 
      type discrete[4] { "s0" "s1" "s2" "s3" }
}

variable "a4" { 
      type discrete[3] { "s0" "s1" "s2" }
}

probability( "class" ) {
      table  0.4609 0.5391;
}

probability( "a1" | "class" ) {
        ("s0") 0.3277 0.3390 0.3333;
        ("s1") 0.3478 0.3092 0.3430;
}

probability( "a3" | "class" ) {
        ("s0") 0.5028 0.4972;
        ("s1") 0.4879 0.5121;
}

probability( "a6" | "class" ) {
        ("s0") 0.5141 0.4859;
        ("s1") 0.5024 0.4976;
}

probability( "v77" | "class" ) {
        ("s0") 0.0000 0.0000 0.3778 0.1005 0.5217;
        ("s1") 0.0689 0.9311 0.0000 0.0000 0.0000;
}

probability( "a2" | "v77" ) {
        ("s0") 0.0697 0.0891 0.8412;
        ("s1") 0.4826 0.5174 0.0000;
        ("s2") 0.3881 0.3989 0.2129;
        ("s3") 0.2836 0.1867 0.5297;
        ("s4") 0.0000 0.0000 1.0000;
}

probability( "a5" | "v77" ) {
        ("s0") 0.0000 0.0000 1.0000 0.0000;
        ("s1") 0.3321 0.3321 0.3359 0.0000;
        ("s2") 0.0000 0.0000 0.0000 1.0000;
        ("s3") 0.0000 0.0000 0.0000 1.0000;
        ("s4") 0.3465 0.3249 0.2491 0.0795;
}

probability( "a4" | "v77" ) {
        ("s0") 1.0000 0.0000 0.0000;
        ("s1") 0.3203 0.3269 0.3528;
        ("s2") 0.2004 0.3640 0.4356;
        ("s3") 0.7747 0.2111 0.0142;
        ("s4") 0.2471 0.3997 0.3532;
}

//Loglikelihood:  0.0
//Score        :  1.0
//LoglikelihoodOfPreviousModel:  -18537.306664071322
