// HNB model in the BIF format
// Produced by the HNB package

network "HLCM1548962" {}

variable "class" { 
      type discrete[2] { "s0" "s1" }
}

variable "a3" { 
      type discrete[2] { "s0" "s1" }
}

variable "a6" { 
      type discrete[2] { "s0" "s1" }
}

variable "a1" { 
      type discrete[3] { "s0" "s1" "s2" }
}

variable "v737" { 
      type discrete[5] { "s0" "s1" "s2" "s3" "s4" }
}

variable "a2" { 
      type discrete[3] { "s0" "s1" "s2" }
}

variable "a5" { 
      type discrete[4] { "s0" "s1" "s2" "s3" }
}

variable "a4" { 
      type discrete[3] { "s0" "s1" "s2" }
}

probability( "class" ) {
      table  0.4680 0.5320;
}

probability( "a3" | "class" ) {
        ("s0") 0.5027 0.4973;
        ("s1") 0.5000 0.5000;
}

probability( "a6" | "class" ) {
        ("s0") 0.5027 0.4973;
        ("s1") 0.5000 0.5000;
}

probability( "a1" | "class" ) {
        ("s0") 0.3279 0.3552 0.3169;
        ("s1") 0.3365 0.3510 0.3125;
}

probability( "v737" | "class" ) {
        ("s0") 0.3829 0.0000 0.0000 0.2468 0.3703;
        ("s1") 0.0000 0.0733 0.9267 0.0000 0.0000;
}

probability( "a2" | "v737" ) {
        ("s0") 0.4710 0.4852 0.0438;
        ("s1") 0.0984 0.1143 0.7873;
        ("s2") 0.5058 0.4942 0.0000;
        ("s3") 0.0000 0.0000 1.0000;
        ("s4") 0.0000 0.0000 1.0000;
}

probability( "a5" | "v737" ) {
        ("s0") 0.0000 0.0000 0.0000 1.0000;
        ("s1") 0.0000 0.0000 1.0000 0.0000;
        ("s2") 0.3424 0.3268 0.3308 0.0000;
        ("s3") 0.3441 0.3427 0.0000 0.3133;
        ("s4") 0.2724 0.2438 0.2804 0.2034;
}

probability( "a4" | "v737" ) {
        ("s0") 0.3433 0.3305 0.3262;
        ("s1") 1.0000 0.0000 0.0000;
        ("s2") 0.3256 0.3476 0.3268;
        ("s3") 0.7073 0.1674 0.1252;
        ("s4") 0.0000 0.5206 0.4794;
}

//Loglikelihood:  0.0
//Score        :  1.0
//LoglikelihoodOfPreviousModel:  -4871.147262761946
