// HNB model in the BIF format
// Produced by the HNB package

network "HLCM1805930" {}

variable "class" { 
      type discrete[2] { "s0" "s1" }
}

variable "a3" { 
      type discrete[2] { "s0" "s1" }
}

variable "v867" { 
      type discrete[5] { "s0" "s1" "s2" "s3" "s4" }
}

variable "a2" { 
      type discrete[3] { "s0" "s1" "s2" }
}

variable "a5" { 
      type discrete[4] { "s0" "s1" "s2" "s3" }
}

variable "a4" { 
      type discrete[3] { "s0" "s1" "s2" }
}

variable "a1" { 
      type discrete[3] { "s0" "s1" "s2" }
}

variable "a6" { 
      type discrete[2] { "s0" "s1" }
}

probability( "class" ) {
      table  0.4805 0.5195;
}

probability( "a3" | "class" ) {
        ("s0") 0.5081 0.4919;
        ("s1") 0.5000 0.5000;
}

probability( "v867" | "class" ) {
        ("s0") 0.2129 0.3974 0.0000 0.0000 0.3897;
        ("s1") 0.0000 0.0000 0.0619 0.9381 0.0000;
}

probability( "a2" | "v867" ) {
        ("s0") 0.0000 0.0000 1.0000;
        ("s1") 0.4489 0.4489 0.1022;
        ("s2") 0.1594 0.0323 0.8083;
        ("s3") 0.5118 0.4882 0.0000;
        ("s4") 0.0000 0.0000 1.0000;
}

probability( "a5" | "v867" ) {
        ("s0") 0.1016 0.1154 0.5584 0.2246;
        ("s1") 0.0000 0.0000 0.0000 1.0000;
        ("s2") 0.0000 0.0000 1.0000 0.0000;
        ("s3") 0.3464 0.3358 0.3178 0.0000;
        ("s4") 0.4161 0.3808 0.0000 0.2031;
}

probability( "a4" | "v867" ) {
        ("s0") 0.0000 0.4525 0.5475;
        ("s1") 0.3486 0.3478 0.3036;
        ("s2") 1.0000 0.0000 0.0000;
        ("s3") 0.3285 0.3358 0.3358;
        ("s4") 0.3658 0.3136 0.3206;
}

probability( "a1" | "class" ) {
        ("s0") 0.3459 0.3189 0.3351;
        ("s1") 0.3300 0.3400 0.3300;
}

probability( "a6" | "class" ) {
        ("s0") 0.5027 0.4973;
        ("s1") 0.4850 0.5150;
}

//Loglikelihood:  0.0
//Score        :  1.0
//LoglikelihoodOfPreviousModel:  -4800.660496890884
