// HNB model in the BIF format
// Produced by the HNB package

network "HLCM656167" {}

variable "class" { 
      type discrete[2] { "s0" "s1" }
}

variable "a1" { 
      type discrete[3] { "s0" "s1" "s2" }
}

variable "a3" { 
      type discrete[2] { "s0" "s1" }
}

variable "a6" { 
      type discrete[2] { "s0" "s1" }
}

variable "v319" { 
      type discrete[5] { "s0" "s1" "s2" "s3" "s4" }
}

variable "a4" { 
      type discrete[3] { "s0" "s1" "s2" }
}

variable "v303" { 
      type discrete[2] { "s0" "s1" }
}

variable "a2" { 
      type discrete[3] { "s0" "s1" "s2" }
}

variable "a5" { 
      type discrete[4] { "s0" "s1" "s2" "s3" }
}

probability( "class" ) {
      table  0.4675 0.5325;
}

probability( "a1" | "class" ) {
        ("s0") 0.3333 0.3222 0.3444;
        ("s1") 0.3366 0.3171 0.3463;
}

probability( "a3" | "class" ) {
        ("s0") 0.4833 0.5167;
        ("s1") 0.5220 0.4780;
}

probability( "a6" | "class" ) {
        ("s0") 0.4944 0.5056;
        ("s1") 0.4878 0.5122;
}

probability( "v319" | "class" ) {
        ("s0") 0.0000 0.6312 0.0000 0.3688 0.0000;
        ("s1") 0.0590 0.0000 0.1258 0.0000 0.8151;
}

probability( "a4" | "v319" ) {
        ("s0") 1.0000 0.0000 0.0000;
        ("s1") 0.2801 0.3567 0.3632;
        ("s2") 0.0310 0.6285 0.3405;
        ("s3") 0.3341 0.3386 0.3273;
        ("s4") 0.3896 0.2680 0.3424;
}

probability( "v303" | "v319" ) {
        ("s0") 0.0913 0.9087;
        ("s1") 0.0000 1.0000;
        ("s2") 1.0000 0.0000;
        ("s3") 0.9190 0.0810;
        ("s4") 1.0000 0.0000;
}

probability( "a2" | "v303" ) {
        ("s0") 0.5020 0.4980 0.0000;
        ("s1") 0.0000 0.0000 1.0000;
}

probability( "a5" | "v319" ) {
        ("s0") 0.0000 0.0000 1.0000 0.0000;
        ("s1") 0.2904 0.2904 0.1936 0.2255;
        ("s2") 0.5989 0.0159 0.3852 0.0000;
        ("s3") 0.0000 0.0000 0.0000 1.0000;
        ("s4") 0.3085 0.3686 0.3229 0.0000;
}

//Loglikelihood:  0.0
//Score        :  1.0
//LoglikelihoodOfPreviousModel:  -6199.3007176736
