// HNB model in the BIF format
// Produced by the HNB package

network "HLCM2551514" {}

variable "class" { 
      type discrete[2] { "s0" "s1" }
}

variable "a6" { 
      type discrete[2] { "s0" "s1" }
}

variable "v493" { 
      type discrete[9] { "s0" "s1" "s2" "s3" "s4" "s5" "s6" "s7" "s8" }
}

variable "a2" { 
      type discrete[3] { "s0" "s1" "s2" }
}

variable "a5" { 
      type discrete[4] { "s0" "s1" "s2" "s3" }
}

variable "a4" { 
      type discrete[3] { "s0" "s1" "s2" }
}

variable "a1" { 
      type discrete[3] { "s0" "s1" "s2" }
}

variable "a3" { 
      type discrete[2] { "s0" "s1" }
}

probability( "class" ) {
      table  0.4822 0.5178;
}

probability( "a6" | "class" ) {
        ("s0") 0.5123 0.4877;
        ("s1") 0.4962 0.5038;
}

probability( "v493" | "class" ) {
        ("s0") 0.0056 0.3784 0.0000 0.0000 0.0000 0.0220 0.0000 0.4168 0.1773;
        ("s1") 0.0000 0.0000 0.5739 0.0573 0.1850 0.0000 0.1839 0.0000 0.0000;
}

probability( "a2" | "v493" ) {
        ("s0") 1.0000 0.0000 0.0000;
        ("s1") 0.0000 0.0000 1.0000;
        ("s2") 0.4883 0.5117 0.0000;
        ("s3") 0.0000 0.0000 1.0000;
        ("s4") 0.2796 0.7204 0.0000;
        ("s5") 0.0000 0.7468 0.2532;
        ("s6") 0.8101 0.1899 0.0000;
        ("s7") 0.4095 0.3737 0.2168;
        ("s8") 0.0000 0.0000 1.0000;
}

probability( "a5" | "v493" ) {
        ("s0") 0.0000 0.0000 0.7374 0.2626;
        ("s1") 0.2705 0.2680 0.3357 0.1258;
        ("s2") 0.3807 0.3396 0.2797 0.0000;
        ("s3") 0.0000 0.0000 0.9333 0.0667;
        ("s4") 0.2324 0.3528 0.4148 0.0000;
        ("s5") 0.0000 0.2532 0.7468 0.0000;
        ("s6") 0.4045 0.3497 0.2458 0.0000;
        ("s7") 0.0000 0.0000 0.0000 1.0000;
        ("s8") 0.4629 0.3675 0.0000 0.1696;
}

probability( "a4" | "v493" ) {
        ("s0") 1.0000 0.0000 0.0000;
        ("s1") 0.0000 0.5335 0.4665;
        ("s2") 0.0749 0.3428 0.5823;
        ("s3") 1.0000 0.0000 0.0000;
        ("s4") 0.5730 0.3988 0.0282;
        ("s5") 0.0000 0.5073 0.4927;
        ("s6") 0.7675 0.2309 0.0016;
        ("s7") 0.3328 0.3137 0.3535;
        ("s8") 0.8045 0.0028 0.1928;
}

probability( "a1" | "v493" ) {
        ("s0") 1.0000 0.0000 0.0000;
        ("s1") 0.2940 0.3589 0.3472;
        ("s2") 0.3779 0.3293 0.2929;
        ("s3") 0.2667 0.3333 0.4000;
        ("s4") 0.1295 0.3957 0.4749;
        ("s5") 0.2563 0.7437 0.0000;
        ("s6") 0.3925 0.3178 0.2896;
        ("s7") 0.3554 0.3223 0.3223;
        ("s8") 0.3695 0.2798 0.3507;
}

probability( "a3" | "v493" ) {
        ("s0") 1.0000 0.0000;
        ("s1") 0.5224 0.4776;
        ("s2") 0.5049 0.4951;
        ("s3") 0.6000 0.4000;
        ("s4") 0.3475 0.6525;
        ("s5") 1.0000 0.0000;
        ("s6") 0.6900 0.3100;
        ("s7") 0.5367 0.4633;
        ("s8") 0.3808 0.6192;
}

//Loglikelihood:  0.0
//Score        :  1.0
//LoglikelihoodOfPreviousModel:  -56786.128067537466
