// HNB model in the BIF format
// Produced by the HNB package

network "HLCM5066781" {}

variable "class" { 
      type discrete[2] { "s0" "s1" }
}

variable "v1019" { 
      type discrete[13] { "s0" "s1" "s2" "s3" "s4" "s5" "s6" "s7" "s8" "s9" "s10" "s11" "s12" }
}

variable "a2" { 
      type discrete[3] { "s0" "s1" "s2" }
}

variable "a5" { 
      type discrete[4] { "s0" "s1" "s2" "s3" }
}

variable "a4" { 
      type discrete[3] { "s0" "s1" "s2" }
}

variable "a1" { 
      type discrete[3] { "s0" "s1" "s2" }
}

variable "a3" { 
      type discrete[2] { "s0" "s1" }
}

variable "a6" { 
      type discrete[2] { "s0" "s1" }
}

probability( "class" ) {
      table  0.4612 0.5388;
}

probability( "v1019" | "class" ) {
        ("s0") 0.0123 0.2493 0.0129 0.2697 0.0000 0.0000 0.0000 0.0000 0.0791 0.1030 0.0000 0.0000 0.2736;
        ("s1") 0.0000 0.0000 0.0000 0.0000 0.2938 0.0410 0.3449 0.0582 0.0000 0.0000 0.0711 0.1910 0.0000;
}

probability( "a2" | "v1019" ) {
        ("s0") 0.0000 1.0000 0.0000;
        ("s1") 0.0000 0.0000 1.0000;
        ("s2") 0.3333 0.6667 0.0000;
        ("s3") 0.5397 0.4589 0.0014;
        ("s4") 0.6173 0.3827 0.0000;
        ("s5") 1.0000 0.0000 0.0000;
        ("s6") 0.4775 0.5225 0.0000;
        ("s7") 0.0000 0.0484 0.9516;
        ("s8") 0.5031 0.3501 0.1467;
        ("s9") 0.0000 0.0000 1.0000;
        ("s10") 0.0000 1.0000 0.0000;
        ("s11") 0.4465 0.5535 0.0000;
        ("s12") 0.0000 0.0000 1.0000;
}

probability( "a5" | "v1019" ) {
        ("s0") 0.0000 0.0000 0.6983 0.3017;
        ("s1") 0.3736 0.3424 0.0000 0.2841;
        ("s2") 0.0000 0.3333 0.6667 0.0000;
        ("s3") 0.0000 0.0000 0.0000 1.0000;
        ("s4") 0.5062 0.1811 0.3127 0.0000;
        ("s5") 0.1577 0.5691 0.2732 0.0000;
        ("s6") 0.2702 0.4015 0.3283 0.0000;
        ("s7") 0.0000 0.0000 0.9366 0.0634;
        ("s8") 0.0000 0.0000 0.0000 1.0000;
        ("s9") 0.2117 0.7625 0.0014 0.0245;
        ("s10") 0.2004 0.4999 0.2998 0.0000;
        ("s11") 0.3638 0.2724 0.3639 0.0000;
        ("s12") 0.1943 0.0311 0.4405 0.3341;
}

probability( "a4" | "v1019" ) {
        ("s0") 0.0000 0.0000 1.0000;
        ("s1") 0.6522 0.1613 0.1865;
        ("s2") 0.3333 0.6667 0.0000;
        ("s3") 0.3052 0.3102 0.3845;
        ("s4") 0.3002 0.3410 0.3588;
        ("s5") 0.8024 0.1006 0.0970;
        ("s6") 0.3462 0.3199 0.3339;
        ("s7") 1.0000 0.0000 0.0000;
        ("s8") 0.4460 0.5469 0.0071;
        ("s9") 0.0000 0.5263 0.4737;
        ("s10") 0.2309 0.3471 0.4221;
        ("s11") 0.2823 0.3118 0.4059;
        ("s12") 0.0000 0.4985 0.5015;
}

probability( "a1" | "v1019" ) {
        ("s0") 0.0000 1.0000 0.0000;
        ("s1") 0.3921 0.2904 0.3175;
        ("s2") 0.6667 0.3333 0.0000;
        ("s3") 0.2866 0.3903 0.3232;
        ("s4") 0.2750 0.4315 0.2935;
        ("s5") 0.3105 0.0000 0.6895;
        ("s6") 0.3595 0.3191 0.3214;
        ("s7") 0.2698 0.3359 0.3943;
        ("s8") 0.6515 0.1128 0.2357;
        ("s9") 0.2043 0.4039 0.3918;
        ("s10") 0.6029 0.1091 0.2880;
        ("s11") 0.3898 0.3173 0.2930;
        ("s12") 0.3395 0.3497 0.3108;
}

probability( "a3" | "v1019" ) {
        ("s0") 1.0000 0.0000;
        ("s1") 0.4629 0.5371;
        ("s2") 1.0000 0.0000;
        ("s3") 0.5375 0.4625;
        ("s4") 0.8022 0.1978;
        ("s5") 0.6984 0.3016;
        ("s6") 0.3751 0.6249;
        ("s7") 0.5989 0.4011;
        ("s8") 0.2942 0.7058;
        ("s9") 0.6490 0.3510;
        ("s10") 0.9826 0.0174;
        ("s11") 0.0181 0.9819;
        ("s12") 0.4383 0.5617;
}

probability( "a6" | "v1019" ) {
        ("s0") 0.4281 0.5719;
        ("s1") 0.5741 0.4259;
        ("s2") 1.0000 0.0000;
        ("s3") 0.5458 0.4542;
        ("s4") 0.5856 0.4144;
        ("s5") 0.9405 0.0595;
        ("s6") 0.0219 0.9781;
        ("s7") 0.5324 0.4676;
        ("s8") 0.2936 0.7064;
        ("s9") 0.5224 0.4776;
        ("s10") 0.7642 0.2358;
        ("s11") 0.9033 0.0967;
        ("s12") 0.4339 0.5661;
}

//Loglikelihood:  0.0
//Score        :  1.0
//LoglikelihoodOfPreviousModel:  -247350.01848418912
