// HNB model in the BIF format
// Produced by the HNB package

network "HLCM3220158" {}

variable "class" { 
      type discrete[2] { "s0" "s1" }
}

variable "v618" { 
      type discrete[12] { "s0" "s1" "s2" "s3" "s4" "s5" "s6" "s7" "s8" "s9" "s10" "s11" }
}

variable "a2" { 
      type discrete[3] { "s0" "s1" "s2" }
}

variable "a5" { 
      type discrete[4] { "s0" "s1" "s2" "s3" }
}

variable "a4" { 
      type discrete[3] { "s0" "s1" "s2" }
}

variable "a3" { 
      type discrete[2] { "s0" "s1" }
}

variable "a1" { 
      type discrete[3] { "s0" "s1" "s2" }
}

variable "a6" { 
      type discrete[2] { "s0" "s1" }
}

probability( "class" ) {
      table  0.4820 0.5180;
}

probability( "v618" | "class" ) {
        ("s0") 0.2211 0.0075 0.0000 0.0472 0.0248 0.1297 0.0000 0.1822 0.0000 0.0000 0.1135 0.2741;
        ("s1") 0.0000 0.0071 0.7746 0.0000 0.0000 0.0000 0.0542 0.0000 0.0916 0.0725 0.0000 0.0000;
}

probability( "a2" | "v618" ) {
        ("s0") 0.4297 0.5657 0.0046;
        ("s1") 0.5976 0.0000 0.4024;
        ("s2") 0.5015 0.4985 0.0000;
        ("s3") 0.4385 0.2432 0.3183;
        ("s4") 0.0000 0.6695 0.3305;
        ("s5") 0.4323 0.2588 0.3089;
        ("s6") 0.1641 0.8359 0.0000;
        ("s7") 0.0000 0.0000 1.0000;
        ("s8") 0.8220 0.1780 0.0000;
        ("s9") 0.0000 0.2682 0.7318;
        ("s10") 0.0000 0.0000 1.0000;
        ("s11") 0.0000 0.0000 1.0000;
}

probability( "a5" | "v618" ) {
        ("s0") 0.0000 0.0000 0.0000 1.0000;
        ("s1") 0.0000 0.0000 0.5052 0.4948;
        ("s2") 0.3023 0.3681 0.3296 0.0000;
        ("s3") 0.0000 0.0000 0.0000 1.0000;
        ("s4") 0.0000 0.2361 0.7639 0.0000;
        ("s5") 0.0000 0.0000 0.0000 1.0000;
        ("s6") 0.3626 0.4074 0.2300 0.0000;
        ("s7") 0.0005 0.1119 0.6705 0.2171;
        ("s8") 0.5168 0.2707 0.2125 0.0000;
        ("s9") 0.0000 0.0000 1.0000 0.0000;
        ("s10") 0.1172 0.8759 0.0000 0.0069;
        ("s11") 0.6021 0.1472 0.0000 0.2507;
}

probability( "a4" | "v618" ) {
        ("s0") 0.3513 0.3029 0.3458;
        ("s1") 1.0000 0.0000 0.0000;
        ("s2") 0.2998 0.3597 0.3405;
        ("s3") 0.4773 0.5227 0.0000;
        ("s4") 0.0000 0.4790 0.5210;
        ("s5") 0.2947 0.4010 0.3044;
        ("s6") 0.1541 0.1700 0.6758;
        ("s7") 0.0000 0.5596 0.4404;
        ("s8") 0.6354 0.2717 0.0930;
        ("s9") 1.0000 0.0000 0.0000;
        ("s10") 0.3966 0.3988 0.2046;
        ("s11") 0.3632 0.2430 0.3939;
}

probability( "a3" | "v618" ) {
        ("s0") 0.5978 0.4022;
        ("s1") 1.0000 0.0000;
        ("s2") 0.4178 0.5822;
        ("s3") 0.1268 0.8732;
        ("s4") 1.0000 0.0000;
        ("s5") 0.4817 0.5183;
        ("s6") 1.0000 0.0000;
        ("s7") 0.4973 0.5027;
        ("s8") 0.9998 0.0002;
        ("s9") 0.5635 0.4365;
        ("s10") 0.5278 0.4722;
        ("s11") 0.4481 0.5519;
}

probability( "a1" | "v618" ) {
        ("s0") 0.3413 0.4079 0.2508;
        ("s1") 0.4643 0.0000 0.5357;
        ("s2") 0.3341 0.3270 0.3390;
        ("s3") 0.9657 0.0338 0.0006;
        ("s4") 0.2574 0.7426 0.0000;
        ("s5") 0.0000 0.4443 0.5557;
        ("s6") 0.5641 0.3591 0.0769;
        ("s7") 0.3716 0.3221 0.3063;
        ("s8") 0.3005 0.3652 0.3342;
        ("s9") 0.2993 0.3569 0.3438;
        ("s10") 0.2746 0.3829 0.3426;
        ("s11") 0.3496 0.3171 0.3333;
}

probability( "a6" | "v618" ) {
        ("s0") 0.6102 0.3898;
        ("s1") 1.0000 0.0000;
        ("s2") 0.4820 0.5180;
        ("s3") 0.1947 0.8053;
        ("s4") 0.7435 0.2565;
        ("s5") 0.2505 0.7495;
        ("s6") 0.2909 0.7091;
        ("s7") 0.4819 0.5181;
        ("s8") 0.5944 0.4056;
        ("s9") 0.4934 0.5066;
        ("s10") 0.3963 0.6037;
        ("s11") 0.6086 0.3914;
}

//Loglikelihood:  0.0
//Score        :  1.0
//LoglikelihoodOfPreviousModel:  -245978.86968658297
