// HNB model in the BIF format
// Produced by the HNB package

network "HLCM1751653" {}

variable "class" { 
      type discrete[2] { "s0" "s1" }
}

variable "v337" { 
      type discrete[13] { "s0" "s1" "s2" "s3" "s4" "s5" "s6" "s7" "s8" "s9" "s10" "s11" "s12" }
}

variable "a2" { 
      type discrete[3] { "s0" "s1" "s2" }
}

variable "a5" { 
      type discrete[4] { "s0" "s1" "s2" "s3" }
}

variable "a4" { 
      type discrete[3] { "s0" "s1" "s2" }
}

variable "a6" { 
      type discrete[2] { "s0" "s1" }
}

variable "a1" { 
      type discrete[3] { "s0" "s1" "s2" }
}

variable "a3" { 
      type discrete[2] { "s0" "s1" }
}

probability( "class" ) {
      table  0.4820 0.5180;
}

probability( "v337" | "class" ) {
        ("s0") 0.0083 0.3535 0.0000 0.0000 0.0000 0.2274 0.1519 0.0768 0.0000 0.0083 0.0000 0.1737 0.0000;
        ("s1") 0.0148 0.0000 0.1265 0.2366 0.2412 0.0000 0.0000 0.0000 0.1330 0.0000 0.0425 0.0000 0.2054;
}

probability( "a2" | "v337" ) {
        ("s0") 0.4395 0.5605 0.0000;
        ("s1") 0.3470 0.4217 0.2313;
        ("s2") 0.9919 0.0081 0.0000;
        ("s3") 0.4798 0.5202 0.0000;
        ("s4") 0.4890 0.5110 0.0000;
        ("s5") 0.0000 0.0000 1.0000;
        ("s6") 0.0000 0.0000 1.0000;
        ("s7") 0.7797 0.2199 0.0004;
        ("s8") 0.0200 0.9800 0.0000;
        ("s9") 0.0000 1.0000 0.0000;
        ("s10") 0.0000 0.0000 1.0000;
        ("s11") 0.0000 0.0000 1.0000;
        ("s12") 0.4754 0.5246 0.0000;
}

probability( "a5" | "v337" ) {
        ("s0") 0.0000 0.0000 1.0000 0.0000;
        ("s1") 0.0000 0.0000 0.0000 1.0000;
        ("s2") 0.4714 0.4169 0.1117 0.0000;
        ("s3") 0.5240 0.0011 0.4750 0.0000;
        ("s4") 0.1006 0.6977 0.2017 0.0000;
        ("s5") 0.3452 0.3133 0.2884 0.0531;
        ("s6") 0.1611 0.1883 0.3331 0.3175;
        ("s7") 0.0000 0.0000 0.0000 1.0000;
        ("s8") 0.3217 0.4366 0.2417 0.0000;
        ("s9") 0.0000 0.0000 1.0000 0.0000;
        ("s10") 0.0000 0.0000 0.9091 0.0909;
        ("s11") 0.4581 0.3568 0.0000 0.1851;
        ("s12") 0.3961 0.2753 0.3286 0.0000;
}

probability( "a4" | "v337" ) {
        ("s0") 0.5900 0.4100 0.0000;
        ("s1") 0.3529 0.2941 0.3530;
        ("s2") 0.4118 0.3066 0.2817;
        ("s3") 0.3315 0.3776 0.2909;
        ("s4") 0.4671 0.3384 0.1945;
        ("s5") 0.0000 0.5059 0.4941;
        ("s6") 0.0000 0.6289 0.3711;
        ("s7") 0.2809 0.5479 0.1712;
        ("s8") 0.1832 0.3057 0.5111;
        ("s9") 0.0000 0.0000 1.0000;
        ("s10") 1.0000 0.0000 0.0000;
        ("s11") 0.8533 0.0012 0.1455;
        ("s12") 0.1930 0.3149 0.4921;
}

probability( "a6" | "v337" ) {
        ("s0") 1.0000 0.0000;
        ("s1") 0.5847 0.4153;
        ("s2") 0.5403 0.4597;
        ("s3") 0.4953 0.5047;
        ("s4") 0.3542 0.6458;
        ("s5") 0.7201 0.2799;
        ("s6") 0.1105 0.8895;
        ("s7") 0.3096 0.6904;
        ("s8") 0.4184 0.5816;
        ("s9") 0.5000 0.5000;
        ("s10") 0.6364 0.3636;
        ("s11") 0.5239 0.4761;
        ("s12") 0.5934 0.4066;
}

probability( "a1" | "v337" ) {
        ("s0") 0.8556 0.0000 0.1444;
        ("s1") 0.3181 0.3767 0.3052;
        ("s2") 0.4464 0.2601 0.2935;
        ("s3") 0.0129 0.5916 0.3955;
        ("s4") 0.3008 0.3763 0.3230;
        ("s5") 0.2849 0.4172 0.2980;
        ("s6") 0.3203 0.2863 0.3934;
        ("s7") 0.4724 0.1360 0.3916;
        ("s8") 0.5546 0.2092 0.2362;
        ("s9") 0.0000 1.0000 0.0000;
        ("s10") 0.1818 0.4545 0.3636;
        ("s11") 0.4016 0.2876 0.3108;
        ("s12") 0.6709 0.0473 0.2818;
}

probability( "a3" | "v337" ) {
        ("s0") 1.0000 0.0000;
        ("s1") 0.5499 0.4501;
        ("s2") 0.9825 0.0175;
        ("s3") 0.4954 0.5046;
        ("s4") 0.3143 0.6857;
        ("s5") 0.5924 0.4076;
        ("s6") 0.4111 0.5889;
        ("s7") 0.3508 0.6492;
        ("s8") 0.9419 0.0581;
        ("s9") 1.0000 0.0000;
        ("s10") 0.4545 0.5455;
        ("s11") 0.3854 0.6146;
        ("s12") 0.1228 0.8772;
}

//Loglikelihood:  -245235.21379683758
//Score        :  -246126.37460609752
//LoglikelihoodOfPreviousModel:  -245235.32604714093
