// HNB model in the BIF format
// Produced by the HNB package

network "HLCM1181782" {}

variable "class" { 
      type discrete[2] { "s0" "s1" }
}

variable "a1" { 
      type discrete[3] { "s0" "s1" "s2" }
}

variable "a3" { 
      type discrete[2] { "s0" "s1" }
}

variable "a6" { 
      type discrete[2] { "s0" "s1" }
}

variable "v917" { 
      type discrete[4] { "s0" "s1" "s2" "s3" }
}

variable "a2" { 
      type discrete[3] { "s0" "s1" "s2" }
}

variable "a5" { 
      type discrete[4] { "s0" "s1" "s2" "s3" }
}

variable "a4" { 
      type discrete[3] { "s0" "s1" "s2" }
}

probability( "class" ) {
      table  0.4729 0.5271;
}

probability( "a1" | "class" ) {
        ("s0") 0.3060 0.3388 0.3552;
        ("s1") 0.3333 0.3382 0.3284;
}

probability( "a3" | "class" ) {
        ("s0") 0.5137 0.4863;
        ("s1") 0.5196 0.4804;
}

probability( "a6" | "class" ) {
        ("s0") 0.5082 0.4918;
        ("s1") 0.5000 0.5000;
}

probability( "v917" | "class" ) {
        ("s0") 0.0000 0.0000 0.4671 0.5329;
        ("s1") 0.9510 0.0490 0.0000 0.0000;
}

probability( "a2" | "v917" ) {
        ("s0") 0.5052 0.4948 0.0000;
        ("s1") 0.0000 0.0000 1.0000;
        ("s2") 0.4094 0.3744 0.2162;
        ("s3") 0.0000 0.0000 1.0000;
}

probability( "a5" | "v917" ) {
        ("s0") 0.3196 0.3299 0.3505 0.0000;
        ("s1") 0.0000 0.0000 1.0000 0.0000;
        ("s2") 0.0000 0.0000 0.0000 1.0000;
        ("s3") 0.2974 0.3281 0.2153 0.1591;
}

probability( "a4" | "v917" ) {
        ("s0") 0.3505 0.3402 0.3093;
        ("s1") 1.0000 0.0000 0.0000;
        ("s2") 0.3365 0.3375 0.3260;
        ("s3") 0.2486 0.3502 0.4013;
}

//Loglikelihood:  0.0
//Score        :  1.0
//LoglikelihoodOfPreviousModel:  -2077.4366365108926
