// HNB model in the BIF format
// Produced by the HNB package

network "HLCM220262" {}

variable "v0" { 
      type discrete[3] { "s0" "s1" "s2" }
}

variable "v235" { 
      type discrete[3] { "s0" "s1" "s2" }
}

variable "v4" { 
      type discrete[3] { "s0" "s1" "s2" }
}

variable "v226" { 
      type discrete[2] { "s0" "s1" }
}

variable "v6" { 
      type discrete[3] { "s0" "s1" "s2" }
}

variable "v7" { 
      type discrete[3] { "s0" "s1" "s2" }
}

variable "v241" { 
      type discrete[3] { "s0" "s1" "s2" }
}

variable "v2" { 
      type discrete[3] { "s0" "s1" "s2" }
}

variable "v221" { 
      type discrete[3] { "s0" "s1" "s2" }
}

variable "v8" { 
      type discrete[3] { "s0" "s1" "s2" }
}

variable "v9" { 
      type discrete[3] { "s0" "s1" "s2" }
}

probability( "v0" ) {
      table  0.2658 0.3528 0.3814;
}

probability( "v235" | "v0" ) {
        ("s0") 0.0057 0.8626 0.1317;
        ("s1") 0.0003 0.7782 0.2215;
        ("s2") 0.8425 0.0753 0.0823;
}

probability( "v4" | "v235" ) {
        ("s0") 0.0985 0.0120 0.8896;
        ("s1") 0.0079 0.9848 0.0073;
        ("s2") 0.7999 0.1571 0.0430;
}

probability( "v226" | "v235" ) {
        ("s0") 0.9055 0.0945;
        ("s1") 0.8939 0.1061;
        ("s2") 0.3021 0.6979;
}

probability( "v6" | "v226" ) {
        ("s0") 0.1286 0.8316 0.0398;
        ("s1") 0.7960 0.1353 0.0686;
}

probability( "v7" | "v226" ) {
        ("s0") 0.8265 0.0194 0.1541;
        ("s1") 0.1607 0.0534 0.7858;
}

probability( "v241" | "v0" ) {
        ("s0") 0.9997 0.0003 0.0000;
        ("s1") 0.0055 0.0000 0.9945;
        ("s2") 0.0036 0.9964 0.0000;
}

probability( "v2" | "v241" ) {
        ("s0") 0.0741 0.1050 0.8209;
        ("s1") 0.0047 0.8611 0.1342;
        ("s2") 0.8210 0.1317 0.0472;
}

probability( "v221" | "v241" ) {
        ("s0") 0.0027 0.0630 0.9343;
        ("s1") 0.8669 0.1166 0.0166;
        ("s2") 0.0120 0.8214 0.1666;
}

probability( "v8" | "v221" ) {
        ("s0") 0.0051 0.9817 0.0132;
        ("s1") 0.8198 0.0695 0.1107;
        ("s2") 0.0652 0.0119 0.9229;
}

probability( "v9" | "v221" ) {
        ("s0") 0.1186 0.8472 0.0341;
        ("s1") 0.0334 0.0648 0.9018;
        ("s2") 0.1431 0.8485 0.0084;
}

//Loglikelihood:  -23360.78934885765
//Score        :  -23595.012161621595
//LoglikelihoodOfPreviousModel:  -15022.439706075533
