// HNB model in the BIF format
// Produced by the HNB package

network "HLCM60425" {}

variable "v0" { 
      type discrete[3] { "s0" "s1" "s2" }
}

variable "v6" { 
      type discrete[3] { "s0" "s1" "s2" }
}

variable "v7" { 
      type discrete[3] { "s0" "s1" "s2" }
}

variable "v2" { 
      type discrete[3] { "s0" "s1" "s2" }
}

variable "v225" { 
      type discrete[3] { "s0" "s1" "s2" }
}

variable "v4" { 
      type discrete[3] { "s0" "s1" "s2" }
}

variable "v221" { 
      type discrete[3] { "s0" "s1" "s2" }
}

variable "v8" { 
      type discrete[3] { "s0" "s1" "s2" }
}

variable "v9" { 
      type discrete[3] { "s0" "s1" "s2" }
}

probability( "v0" ) {
      table  0.2780 0.3280 0.3940;
}

probability( "v6" | "v0" ) {
        ("s0") 0.2230 0.7194 0.0576;
        ("s1") 0.2622 0.7012 0.0366;
        ("s2") 0.2335 0.7437 0.0228;
}

probability( "v7" | "v0" ) {
        ("s0") 0.7482 0.0252 0.2266;
        ("s1") 0.6555 0.0183 0.3262;
        ("s2") 0.7183 0.0279 0.2538;
}

probability( "v2" | "v0" ) {
        ("s0") 0.0576 0.1115 0.8309;
        ("s1") 0.8689 0.1006 0.0305;
        ("s2") 0.0000 0.8807 0.1193;
}

probability( "v225" | "v0" ) {
        ("s0") 0.0000 0.0933 0.9067;
        ("s1") 0.0000 0.9663 0.0337;
        ("s2") 0.9876 0.0082 0.0042;
}

probability( "v4" | "v225" ) {
        ("s0") 0.1659 0.0993 0.7348;
        ("s1") 0.1561 0.8321 0.0117;
        ("s2") 0.0733 0.9192 0.0075;
}

probability( "v221" | "v225" ) {
        ("s0") 0.1200 0.8714 0.0086;
        ("s1") 0.8635 0.0046 0.1319;
        ("s2") 0.0058 0.0072 0.9870;
}

probability( "v8" | "v221" ) {
        ("s0") 0.8254 0.0477 0.1269;
        ("s1") 0.0169 0.9633 0.0198;
        ("s2") 0.0636 0.0014 0.9350;
}

probability( "v9" | "v221" ) {
        ("s0") 0.0466 0.0581 0.8953;
        ("s1") 0.1455 0.8079 0.0466;
        ("s2") 0.1417 0.8541 0.0041;
}

//Loglikelihood:  -4644.071695726003
//Score        :  -4816.765577700557
//LoglikelihoodOfPreviousModel:  -1784.1269211897666
