// HNB model in the BIF format
// Produced by the HNB package

network "HLCM1236388" {}

variable "class" { 
      type discrete[2] { "s0" "s1" }
}

variable "v249" { 
      type discrete[4] { "s0" "s1" "s2" "s3" }
}

variable "a5" { 
      type discrete[4] { "s0" "s1" "s2" "s3" }
}

variable "v191" { 
      type discrete[5] { "s0" "s1" "s2" "s3" "s4" }
}

variable "a3" { 
      type discrete[2] { "s0" "s1" }
}

variable "a4" { 
      type discrete[3] { "s0" "s1" "s2" }
}

variable "v234" { 
      type discrete[3] { "s0" "s1" "s2" }
}

variable "a2" { 
      type discrete[3] { "s0" "s1" "s2" }
}

variable "a1" { 
      type discrete[3] { "s0" "s1" "s2" }
}

variable "a6" { 
      type discrete[2] { "s0" "s1" }
}

probability( "class" ) {
      table  0.6744 0.3256;
}

probability( "v249" | "class" ) {
        ("s0") 0.0041 0.0882 0.2984 0.6093;
        ("s1") 0.7753 0.2247 0.0000 0.0000;
}

probability( "a5" | "v249" ) {
        ("s0") 0.0000 0.2916 0.3355 0.3729;
        ("s1") 0.8610 0.0902 0.0386 0.0102;
        ("s2") 0.0009 0.3251 0.2891 0.3848;
        ("s3") 0.3394 0.2234 0.2242 0.2131;
}

probability( "v191" | "v249" ) {
        ("s0") 0.0000 0.1727 0.3017 0.0000 0.5256;
        ("s1") 0.3882 0.2624 0.0923 0.0000 0.2571;
        ("s2") 0.7560 0.0434 0.0073 0.0001 0.1933;
        ("s3") 0.0920 0.0088 0.1693 0.7263 0.0035;
}

probability( "a3" | "v191" ) {
        ("s0") 0.0493 0.9507;
        ("s1") 0.0048 0.9952;
        ("s2") 0.0000 1.0000;
        ("s3") 0.9523 0.0477;
        ("s4") 1.0000 0.0000;
}

probability( "a4" | "v191" ) {
        ("s0") 0.1659 0.3924 0.4416;
        ("s1") 0.0000 0.5214 0.4786;
        ("s2") 0.7566 0.1309 0.1125;
        ("s3") 0.4655 0.2600 0.2745;
        ("s4") 0.1831 0.4063 0.4106;
}

probability( "v234" | "v191" ) {
        ("s0") 0.0183 0.0067 0.9750;
        ("s1") 0.8243 0.1756 0.0001;
        ("s2") 0.4337 0.5507 0.0156;
        ("s3") 0.5628 0.4261 0.0111;
        ("s4") 0.0000 0.0008 0.9992;
}

probability( "a2" | "v234" ) {
        ("s0") 0.7995 0.1180 0.0825;
        ("s1") 0.0669 0.4584 0.4747;
        ("s2") 0.1599 0.4260 0.4141;
}

probability( "a1" | "v234" ) {
        ("s0") 0.3811 0.3158 0.3031;
        ("s1") 0.5207 0.2377 0.2417;
        ("s2") 0.1740 0.4124 0.4136;
}

probability( "a6" | "v234" ) {
        ("s0") 0.5701 0.4299;
        ("s1") 0.7617 0.2383;
        ("s2") 0.3262 0.6738;
}

//Loglikelihood:  0.0
//Score        :  0.5476190476190477
//LoglikelihoodOfPreviousModel:  -23106.325990943817
