// HNB model in the BIF format
// Produced by the HNB package

network "HLCM6267394" {}

variable "class" { 
      type discrete[2] { "s0" "s1" }
}

variable "a5" { 
      type discrete[4] { "s0" "s1" "s2" "s3" }
}

variable "v1202" { 
      type discrete[5] { "s0" "s1" "s2" "s3" "s4" }
}

variable "a1" { 
      type discrete[3] { "s0" "s1" "s2" }
}

variable "v1175" { 
      type discrete[10] { "s0" "s1" "s2" "s3" "s4" "s5" "s6" "s7" "s8" "s9" }
}

variable "a3" { 
      type discrete[2] { "s0" "s1" }
}

variable "a4" { 
      type discrete[3] { "s0" "s1" "s2" }
}

variable "a6" { 
      type discrete[2] { "s0" "s1" }
}

variable "a2" { 
      type discrete[3] { "s0" "s1" "s2" }
}

probability( "class" ) {
      table  0.6667 0.3333;
}

probability( "a5" | "class" ) {
        ("s0") 0.2868 0.2287 0.2442 0.2403;
        ("s1") 0.1938 0.2713 0.2713 0.2636;
}

probability( "v1202" | "class" ) {
        ("s0") 0.2814 0.4125 0.0001 0.3061 0.0000;
        ("s1") 0.0000 0.0000 0.2946 0.0000 0.7054;
}

probability( "a1" | "v1202" ) {
        ("s0") 0.9986 0.0013 0.0002;
        ("s1") 0.0785 0.7642 0.1572;
        ("s2") 1.0000 0.0000 0.0000;
        ("s3") 0.1029 0.0707 0.8264;
        ("s4") 0.0000 0.5165 0.4835;
}

probability( "v1175" | "v1202" ) {
        ("s0") 0.0650 0.0314 0.0955 0.0000 0.1229 0.0000 0.1037 0.2784 0.1364 0.1667;
        ("s1") 0.0089 0.0000 0.0000 0.1287 0.3004 0.1064 0.0185 0.3130 0.1061 0.0179;
        ("s2") 0.0000 0.0000 0.0000 0.3158 0.3947 0.2895 0.0000 0.0000 0.0000 0.0000;
        ("s3") 0.0001 0.0000 0.0000 0.1068 0.2733 0.1480 0.0202 0.3540 0.0975 0.0000;
        ("s4") 0.2088 0.1538 0.1330 0.0760 0.0000 0.0602 0.1250 0.0000 0.0000 0.2432;
}

probability( "a3" | "v1175" ) {
        ("s0") 0.5468 0.4532;
        ("s1") 0.8016 0.1984;
        ("s2") 0.0000 1.0000;
        ("s3") 1.0000 0.0000;
        ("s4") 0.0000 1.0000;
        ("s5") 0.0000 1.0000;
        ("s6") 0.0000 1.0000;
        ("s7") 0.7185 0.2815;
        ("s8") 0.9964 0.0036;
        ("s9") 0.9980 0.0020;
}

probability( "a4" | "v1175" ) {
        ("s0") 1.0000 0.0000 0.0000;
        ("s1") 0.0000 0.4473 0.5527;
        ("s2") 0.0000 0.5017 0.4983;
        ("s3") 0.0000 0.4922 0.5078;
        ("s4") 0.2467 0.3646 0.3888;
        ("s5") 0.0000 0.4531 0.5469;
        ("s6") 0.9679 0.0315 0.0006;
        ("s7") 0.4573 0.2678 0.2750;
        ("s8") 0.8031 0.1350 0.0618;
        ("s9") 0.0000 0.5088 0.4912;
}

probability( "a6" | "v1175" ) {
        ("s0") 0.0000 1.0000;
        ("s1") 0.0000 1.0000;
        ("s2") 1.0000 0.0000;
        ("s3") 0.0000 1.0000;
        ("s4") 0.0000 1.0000;
        ("s5") 1.0000 0.0000;
        ("s6") 1.0000 0.0000;
        ("s7") 0.6932 0.3068;
        ("s8") 0.7794 0.2206;
        ("s9") 0.9962 0.0038;
}

probability( "a2" | "v1175" ) {
        ("s0") 0.2896 0.3847 0.3257;
        ("s1") 1.0000 0.0000 0.0000;
        ("s2") 0.8262 0.0786 0.0952;
        ("s3") 0.0000 0.4714 0.5286;
        ("s4") 0.2410 0.3563 0.4026;
        ("s5") 0.0000 0.5102 0.4898;
        ("s6") 0.0000 0.4653 0.5347;
        ("s7") 0.8367 0.1175 0.0459;
        ("s8") 0.0000 0.4714 0.5286;
        ("s9") 0.0000 0.5051 0.4949;
}

//Loglikelihood:  0.0
//Score        :  0.8222222222222222
//LoglikelihoodOfPreviousModel:  -7026.232434449435
