// HNB model in the BIF format
// Produced by the HNB package

network "HLCM759738" {}

variable "class" { 
      type discrete[2] { "s0" "s1" }
}

variable "a3" { 
      type discrete[2] { "s0" "s1" }
}

variable "a4" { 
      type discrete[3] { "s0" "s1" "s2" }
}

variable "a6" { 
      type discrete[2] { "s0" "s1" }
}

variable "v285" { 
      type discrete[3] { "s0" "s1" "s2" }
}

variable "a5" { 
      type discrete[4] { "s0" "s1" "s2" "s3" }
}

variable "v317" { 
      type discrete[6] { "s0" "s1" "s2" "s3" "s4" "s5" }
}

variable "a1" { 
      type discrete[3] { "s0" "s1" "s2" }
}

variable "a2" { 
      type discrete[3] { "s0" "s1" "s2" }
}

probability( "class" ) {
      table  0.4949 0.5051;
}

probability( "a3" | "class" ) {
        ("s0") 0.5000 0.5000;
        ("s1") 0.5221 0.4779;
}

probability( "a4" | "class" ) {
        ("s0") 0.3279 0.3484 0.3238;
        ("s1") 0.3574 0.3173 0.3253;
}

probability( "a6" | "class" ) {
        ("s0") 0.4918 0.5082;
        ("s1") 0.4859 0.5141;
}

probability( "v285" | "class" ) {
        ("s0") 0.0000 0.0000 1.0000;
        ("s1") 0.5665 0.4335 0.0000;
}

probability( "a5" | "v285" ) {
        ("s0") 0.1138 0.2907 0.2836 0.3119;
        ("s1") 1.0000 0.0000 0.0000 0.0000;
        ("s2") 0.0000 0.3238 0.3279 0.3484;
}

probability( "v317" | "v285" ) {
        ("s0") 0.0000 0.0000 0.0000 0.2960 0.3680 0.3360;
        ("s1") 0.2872 0.2501 0.2501 0.0671 0.0657 0.0797;
        ("s2") 0.3361 0.3279 0.3361 0.0000 0.0000 0.0000;
}

probability( "a1" | "v317" ) {
        ("s0") 0.5044 0.4956 0.0000;
        ("s1") 0.0000 0.4953 0.5047;
        ("s2") 0.5138 0.0000 0.4862;
        ("s3") 1.0000 0.0000 0.0000;
        ("s4") 0.0000 0.0000 1.0000;
        ("s5") 0.0000 1.0000 0.0000;
}

probability( "a2" | "v317" ) {
        ("s0") 0.0000 0.0000 1.0000;
        ("s1") 1.0000 0.0000 0.0000;
        ("s2") 0.0000 1.0000 0.0000;
        ("s3") 1.0000 0.0000 0.0000;
        ("s4") 0.0000 0.0000 1.0000;
        ("s5") 0.0000 1.0000 0.0000;
}

//Loglikelihood:  0.0
//Score        :  1.0
//LoglikelihoodOfPreviousModel:  -2049.5241409459018
