// HNB model in the BIF format
// Produced by the HNB package

network "HLCM977765" {}

variable "class" { 
      type discrete[2] { "s0" "s1" }
}

variable "a3" { 
      type discrete[2] { "s0" "s1" }
}

variable "a4" { 
      type discrete[3] { "s0" "s1" "s2" }
}

variable "a6" { 
      type discrete[2] { "s0" "s1" }
}

variable "v420" { 
      type discrete[3] { "s0" "s1" "s2" }
}

variable "a5" { 
      type discrete[4] { "s0" "s1" "s2" "s3" }
}

variable "v397" { 
      type discrete[6] { "s0" "s1" "s2" "s3" "s4" "s5" }
}

variable "a1" { 
      type discrete[3] { "s0" "s1" "s2" }
}

variable "a2" { 
      type discrete[3] { "s0" "s1" "s2" }
}

probability( "class" ) {
      table  0.5010 0.4990;
}

probability( "a3" | "class" ) {
        ("s0") 0.4981 0.5019;
        ("s1") 0.5076 0.4924;
}

probability( "a4" | "class" ) {
        ("s0") 0.3156 0.3536 0.3308;
        ("s1") 0.3511 0.3168 0.3321;
}

probability( "a6" | "class" ) {
        ("s0") 0.4905 0.5095;
        ("s1") 0.5000 0.5000;
}

probability( "v420" | "class" ) {
        ("s0") 0.0000 1.0000 0.0000;
        ("s1") 0.5468 0.0000 0.4532;
}

probability( "a5" | "v420" ) {
        ("s0") 0.0717 0.3141 0.3141 0.3001;
        ("s1") 0.0000 0.3232 0.3270 0.3498;
        ("s2") 1.0000 0.0000 0.0000 0.0000;
}

probability( "v397" | "v420" ) {
        ("s0") 0.3459 0.0000 0.0000 0.3233 0.3308 0.0000;
        ("s1") 0.0000 0.3650 0.3346 0.0000 0.0000 0.3004;
        ("s2") 0.1048 0.2190 0.2527 0.0731 0.0977 0.2527;
}

probability( "a1" | "v397" ) {
        ("s0") 0.0000 0.0000 1.0000;
        ("s1") 1.0000 0.0000 0.0000;
        ("s2") 0.0000 1.0000 0.0000;
        ("s3") 1.0000 0.0000 0.0000;
        ("s4") 0.0000 1.0000 0.0000;
        ("s5") 0.0000 0.0000 1.0000;
}

probability( "a2" | "v397" ) {
        ("s0") 0.0000 0.0000 1.0000;
        ("s1") 0.0000 0.4836 0.5164;
        ("s2") 0.5254 0.0000 0.4746;
        ("s3") 1.0000 0.0000 0.0000;
        ("s4") 0.0000 1.0000 0.0000;
        ("s5") 0.4954 0.5046 0.0000;
}

//Loglikelihood:  0.0
//Score        :  1.0
//LoglikelihoodOfPreviousModel:  -2183.313451571105
