// HNB model in the BIF format
// Produced by the HNB package

network "HLCM1189108" {}

variable "class" { 
      type discrete[2] { "s0" "s1" }
}

variable "a3" { 
      type discrete[2] { "s0" "s1" }
}

variable "a4" { 
      type discrete[3] { "s0" "s1" "s2" }
}

variable "a6" { 
      type discrete[2] { "s0" "s1" }
}

variable "v523" { 
      type discrete[3] { "s0" "s1" "s2" }
}

variable "a5" { 
      type discrete[4] { "s0" "s1" "s2" "s3" }
}

variable "v500" { 
      type discrete[6] { "s0" "s1" "s2" "s3" "s4" "s5" }
}

variable "a1" { 
      type discrete[3] { "s0" "s1" "s2" }
}

variable "a2" { 
      type discrete[3] { "s0" "s1" "s2" }
}

probability( "class" ) {
      table  0.5112 0.4888;
}

probability( "a3" | "class" ) {
        ("s0") 0.4940 0.5060;
        ("s1") 0.4750 0.5250;
}

probability( "a4" | "class" ) {
        ("s0") 0.3307 0.3347 0.3347;
        ("s1") 0.3417 0.3083 0.3500;
}

probability( "a6" | "class" ) {
        ("s0") 0.4900 0.5100;
        ("s1") 0.4833 0.5167;
}

probability( "v523" | "class" ) {
        ("s0") 1.0000 0.0000 0.0000;
        ("s1") 0.0000 0.4406 0.5594;
}

probability( "a5" | "v523" ) {
        ("s0") 0.0000 0.3267 0.3307 0.3426;
        ("s1") 1.0000 0.0000 0.0000 0.0000;
        ("s2") 0.0838 0.2979 0.3054 0.3128;
}

probability( "v500" | "v523" ) {
        ("s0") 0.0000 0.3705 0.2948 0.0000 0.3347 0.0000;
        ("s1") 0.0797 0.2364 0.2553 0.1055 0.2553 0.0677;
        ("s2") 0.3171 0.0000 0.0000 0.3415 0.0000 0.3415;
}

probability( "a1" | "v500" ) {
        ("s0") 1.0000 0.0000 0.0000;
        ("s1") 1.0000 0.0000 0.0000;
        ("s2") 0.0000 0.0000 1.0000;
        ("s3") 0.0000 0.0000 1.0000;
        ("s4") 0.0000 1.0000 0.0000;
        ("s5") 0.0000 1.0000 0.0000;
}

probability( "a2" | "v500" ) {
        ("s0") 1.0000 0.0000 0.0000;
        ("s1") 0.0000 0.5085 0.4915;
        ("s2") 0.4653 0.5347 0.0000;
        ("s3") 0.0000 0.0000 1.0000;
        ("s4") 0.5135 0.0000 0.4865;
        ("s5") 0.0000 1.0000 0.0000;
}

//Loglikelihood:  0.0
//Score        :  1.0
//LoglikelihoodOfPreviousModel:  -2040.6877477169555
