// HNB model in the BIF format
// Produced by the HNB package

network "HLCM1617595" {}

variable "class" { 
      type discrete[2] { "s0" "s1" }
}

variable "a3" { 
      type discrete[2] { "s0" "s1" }
}

variable "a4" { 
      type discrete[3] { "s0" "s1" "s2" }
}

variable "a6" { 
      type discrete[2] { "s0" "s1" }
}

variable "v729" { 
      type discrete[3] { "s0" "s1" "s2" }
}

variable "a5" { 
      type discrete[4] { "s0" "s1" "s2" "s3" }
}

variable "v706" { 
      type discrete[6] { "s0" "s1" "s2" "s3" "s4" "s5" }
}

variable "a1" { 
      type discrete[3] { "s0" "s1" "s2" }
}

variable "a2" { 
      type discrete[3] { "s0" "s1" "s2" }
}

probability( "class" ) {
      table  0.5051 0.4949;
}

probability( "a3" | "class" ) {
        ("s0") 0.5000 0.5000;
        ("s1") 0.5226 0.4774;
}

probability( "a4" | "class" ) {
        ("s0") 0.3226 0.3306 0.3468;
        ("s1") 0.3374 0.3251 0.3374;
}

probability( "a6" | "class" ) {
        ("s0") 0.4839 0.5161;
        ("s1") 0.4733 0.5267;
}

probability( "v729" | "class" ) {
        ("s0") 1.0000 0.0000 0.0000;
        ("s1") 0.0000 0.6212 0.3788;
}

probability( "a5" | "v729" ) {
        ("s0") 0.0000 0.3347 0.3427 0.3226;
        ("s1") 0.1653 0.2782 0.2849 0.2716;
        ("s2") 1.0000 0.0000 0.0000 0.0000;
}

probability( "v706" | "v729" ) {
        ("s0") 0.0000 0.3468 0.0000 0.3266 0.0000 0.3266;
        ("s1") 0.3095 0.0000 0.3651 0.0000 0.3254 0.0000;
        ("s2") 0.0356 0.2933 0.0423 0.2607 0.0747 0.2933;
}

probability( "a1" | "v706" ) {
        ("s0") 1.0000 0.0000 0.0000;
        ("s1") 0.5487 0.4513 0.0000;
        ("s2") 0.0000 1.0000 0.0000;
        ("s3") 0.0000 0.5524 0.4476;
        ("s4") 0.0000 0.0000 1.0000;
        ("s5") 0.5278 0.0000 0.4722;
}

probability( "a2" | "v706" ) {
        ("s0") 1.0000 0.0000 0.0000;
        ("s1") 0.0000 0.0000 1.0000;
        ("s2") 0.0000 1.0000 0.0000;
        ("s3") 1.0000 0.0000 0.0000;
        ("s4") 0.0000 0.0000 1.0000;
        ("s5") 0.0000 1.0000 0.0000;
}

//Loglikelihood:  0.0
//Score        :  1.0
//LoglikelihoodOfPreviousModel:  -2041.1880489854436
