// HNB model in the BIF format
// Produced by the HNB package

network "HLCM308" {}

variable "Class" { 
      type discrete[2] { "s2" "s4" }
}

variable "ClumpThickness" { 
      type discrete[10] { "s1" "s2" "s3" "s4" "s5" "s6" "s7" "s8" "s9" "s10" }
}

variable "UniformityofCellSize" { 
      type discrete[10] { "s1" "s2" "s3" "s4" "s5" "s6" "s7" "s8" "s9" "s10" }
}

variable "UniformityofCellShape" { 
      type discrete[10] { "s1" "s2" "s3" "s4" "s5" "s6" "s7" "s8" "s9" "s10" }
}

variable "MarginalAdhesion" { 
      type discrete[10] { "s1" "s2" "s3" "s4" "s5" "s6" "s7" "s8" "s9" "s10" }
}

variable "SingleEpithelialCellSize" { 
      type discrete[10] { "s1" "s2" "s3" "s4" "s5" "s6" "s7" "s8" "s9" "s10" }
}

variable "BareNuclei" { 
      type discrete[10] { "s1" "s2" "s3" "s4" "s5" "s6" "s7" "s8" "s9" "s10" }
}

variable "BlandChromatin" { 
      type discrete[10] { "s1" "s2" "s3" "s4" "s5" "s6" "s7" "s8" "s9" "s10" }
}

variable "NormalNucleoli" { 
      type discrete[10] { "s1" "s2" "s3" "s4" "s5" "s6" "s7" "s8" "s9" "s10" }
}

variable "Mitoses" { 
      type discrete[10] { "s1" "s2" "s3" "s4" "s5" "s6" "s7" "s8" "s9" "s10" }
}

probability( "Class" ) {
      table  0.6603 0.3397;
}

probability( "ClumpThickness" | "Class" ) {
        ("s2") 0.3034 0.1019 0.2136 0.1505 0.1869 0.0316 0.0024 0.0097 0.0000 0.0000;
        ("s4") 0.0142 0.0142 0.0566 0.0519 0.1934 0.0708 0.0849 0.1792 0.0613 0.2736;
}

probability( "UniformityofCellSize" | "Class" ) {
        ("s2") 0.8252 0.0874 0.0631 0.0194 0.0000 0.0000 0.0024 0.0000 0.0024 0.0000;
        ("s4") 0.0189 0.0377 0.1132 0.1321 0.1274 0.0802 0.0755 0.1038 0.0236 0.2877;
}

probability( "UniformityofCellShape" | "Class" ) {
        ("s2") 0.7816 0.1092 0.0680 0.0267 0.0049 0.0049 0.0049 0.0000 0.0000 0.0000;
        ("s4") 0.0094 0.0330 0.0896 0.1321 0.1274 0.0943 0.1274 0.1085 0.0283 0.2500;
}

probability( "MarginalAdhesion" | "Class" ) {
        ("s2") 0.8180 0.0801 0.0728 0.0097 0.0097 0.0073 0.0000 0.0000 0.0000 0.0024;
        ("s4") 0.1321 0.0896 0.1038 0.1132 0.0708 0.0708 0.0566 0.1085 0.0189 0.2358;
}

probability( "SingleEpithelialCellSize" | "Class" ) {
        ("s2") 0.0995 0.7937 0.0631 0.0170 0.0121 0.0024 0.0049 0.0049 0.0000 0.0024;
        ("s4") 0.0047 0.0896 0.1981 0.1698 0.1462 0.1557 0.0283 0.0802 0.0047 0.1226;
}

probability( "BareNuclei" | "Class" ) {
        ("s2") 0.8714 0.0485 0.0316 0.0121 0.0218 0.0000 0.0024 0.0049 0.0000 0.0073;
        ("s4") 0.0472 0.0377 0.0613 0.0613 0.0896 0.0142 0.0283 0.0849 0.0425 0.5330;
}

probability( "BlandChromatin" | "Class" ) {
        ("s2") 0.3277 0.3519 0.2767 0.0170 0.0097 0.0024 0.0146 0.0000 0.0000 0.0000;
        ("s4") 0.0094 0.0330 0.1557 0.1321 0.1368 0.0377 0.2500 0.1038 0.0472 0.0943;
}

probability( "NormalNucleoli" | "Class" ) {
        ("s2") 0.8786 0.0704 0.0243 0.0024 0.0049 0.0097 0.0024 0.0073 0.0000 0.0000;
        ("s4") 0.1698 0.0236 0.1415 0.0755 0.0708 0.0708 0.0613 0.0849 0.0566 0.2453;
}

probability( "Mitoses" | "Class" ) {
        ("s2") 0.9709 0.0194 0.0049 0.0000 0.0024 0.0000 0.0024 0.0000 0.0000 0.0000;
        ("s4") 0.5613 0.1085 0.1368 0.0425 0.0236 0.0094 0.0377 0.0330 0.0000 0.0472;
}

//Loglikelihood:  -7094.425751144449
//Score        :  0.9661016949152542
//LoglikelihoodOfPreviousModel:  -1517.61636935866
