// HNB model in the BIF format
// Produced by the HNB package

network "HLCM307407" {}

variable "v0" { 
      type discrete[3] { "s0" "s1" "s2" }
}

variable "v2" { 
      type discrete[3] { "s0" "s1" "s2" }
}

variable "v243" { 
      type discrete[3] { "s0" "s1" "s2" }
}

variable "v229" { 
      type discrete[2] { "s0" "s1" }
}

variable "v8" { 
      type discrete[3] { "s0" "s1" "s2" }
}

variable "v9" { 
      type discrete[3] { "s0" "s1" "s2" }
}

variable "v234" { 
      type discrete[2] { "s0" "s1" }
}

variable "v4" { 
      type discrete[3] { "s0" "s1" "s2" }
}

variable "v212" { 
      type discrete[3] { "s0" "s1" "s2" }
}

variable "v6" { 
      type discrete[3] { "s0" "s1" "s2" }
}

variable "v7" { 
      type discrete[3] { "s0" "s1" "s2" }
}

probability( "v0" ) {
      table  0.3226 0.4073 0.2700;
}

probability( "v2" | "v0" ) {
        ("s0") 0.5831 0.3579 0.0590;
        ("s1") 0.3091 0.3298 0.3611;
        ("s2") 0.0861 0.1943 0.7197;
}

probability( "v243" | "v0" ) {
        ("s0") 0.6780 0.0282 0.2937;
        ("s1") 0.0415 0.0526 0.9058;
        ("s2") 0.0811 0.7967 0.1221;
}

probability( "v229" | "v243" ) {
        ("s0") 0.3770 0.6230;
        ("s1") 0.7499 0.2501;
        ("s2") 0.9321 0.0679;
}

probability( "v8" | "v229" ) {
        ("s0") 0.1262 0.2344 0.6394;
        ("s1") 0.5476 0.4278 0.0246;
}

probability( "v9" | "v229" ) {
        ("s0") 0.4897 0.3869 0.1234;
        ("s1") 0.1575 0.6897 0.1528;
}

probability( "v234" | "v243" ) {
        ("s0") 0.3258 0.6742;
        ("s1") 0.9832 0.0168;
        ("s2") 0.3761 0.6239;
}

probability( "v4" | "v234" ) {
        ("s0") 0.4573 0.0253 0.5173;
        ("s1") 0.3599 0.5570 0.0831;
}

probability( "v212" | "v234" ) {
        ("s0") 0.4510 0.3193 0.2297;
        ("s1") 0.1783 0.5495 0.2721;
}

probability( "v6" | "v212" ) {
        ("s0") 0.0000 0.5720 0.4280;
        ("s1") 0.2453 0.3661 0.3886;
        ("s2") 0.5784 0.0661 0.3555;
}

probability( "v7" | "v212" ) {
        ("s0") 0.1812 0.6251 0.1937;
        ("s1") 0.0240 0.1060 0.8699;
        ("s2") 0.5176 0.0044 0.4779;
}

//Loglikelihood:  -353278.7385555552
//Score        :  -353538.413234381
//LoglikelihoodOfPreviousModel:  -100593.13984068825
