// HNB model in the BIF format
// Produced by the HNB package

network "HLCM82624" {}

variable "v0" { 
      type discrete[3] { "s0" "s1" "s2" }
}

variable "v4" { 
      type discrete[3] { "s0" "s1" "s2" }
}

variable "v9" { 
      type discrete[3] { "s0" "s1" "s2" }
}

variable "v212" { 
      type discrete[3] { "s0" "s1" "s2" }
}

variable "v6" { 
      type discrete[3] { "s0" "s1" "s2" }
}

variable "v7" { 
      type discrete[3] { "s0" "s1" "s2" }
}

variable "v226" { 
      type discrete[3] { "s0" "s1" "s2" }
}

variable "v2" { 
      type discrete[3] { "s0" "s1" "s2" }
}

variable "v8" { 
      type discrete[3] { "s0" "s1" "s2" }
}

probability( "v0" ) {
      table  0.3226 0.4073 0.2700;
}

probability( "v4" | "v0" ) {
        ("s0") 0.3979 0.3661 0.2360;
        ("s1") 0.4002 0.3406 0.2592;
        ("s2") 0.4387 0.1027 0.4586;
}

probability( "v9" | "v0" ) {
        ("s0") 0.3475 0.5077 0.1448;
        ("s1") 0.4547 0.4265 0.1188;
        ("s2") 0.3980 0.4694 0.1326;
}

probability( "v212" | "v0" ) {
        ("s0") 0.4545 0.2774 0.2681;
        ("s1") 0.4518 0.2399 0.3083;
        ("s2") 0.4179 0.0038 0.5783;
}

probability( "v6" | "v212" ) {
        ("s0") 0.5283 0.1150 0.3567;
        ("s1") 0.0721 0.5075 0.4204;
        ("s2") 0.0076 0.5702 0.4223;
}

probability( "v7" | "v212" ) {
        ("s0") 0.3295 0.0280 0.6426;
        ("s1") 0.0390 0.2886 0.6723;
        ("s2") 0.1199 0.4860 0.3942;
}

probability( "v226" | "v0" ) {
        ("s0") 0.0000 0.0055 0.9945;
        ("s1") 0.5517 0.2513 0.1970;
        ("s2") 0.0324 0.9148 0.0527;
}

probability( "v2" | "v226" ) {
        ("s0") 0.3356 0.3792 0.2852;
        ("s1") 0.0480 0.1802 0.7718;
        ("s2") 0.5828 0.3623 0.0549;
}

probability( "v8" | "v226" ) {
        ("s0") 0.0808 0.2334 0.6858;
        ("s1") 0.2352 0.2805 0.4843;
        ("s2") 0.3190 0.3150 0.3659;
}

//Loglikelihood:  -354376.1678035077
//Score        :  -354646.66226061794
//LoglikelihoodOfPreviousModel:  -106490.85466865265
