// HNB model in the BIF format
// Produced by the HNB package

network "HLCM1895792" {}

variable "class" { 
      type discrete[2] { "s0" "s1" }
}

variable "v235" { 
      type discrete[7] { "s0" "s1" "s2" "s3" "s4" "s5" "s6" }
}

variable "a1" { 
      type discrete[3] { "s0" "s1" "s2" }
}

variable "v215" { 
      type discrete[8] { "s0" "s1" "s2" "s3" "s4" "s5" "s6" "s7" }
}

variable "a2" { 
      type discrete[3] { "s0" "s1" "s2" }
}

variable "a3" { 
      type discrete[2] { "s0" "s1" }
}

variable "v272" { 
      type discrete[4] { "s0" "s1" "s2" "s3" }
}

variable "a6" { 
      type discrete[2] { "s0" "s1" }
}

variable "a4" { 
      type discrete[3] { "s0" "s1" "s2" }
}

variable "a5" { 
      type discrete[4] { "s0" "s1" "s2" "s3" }
}

probability( "class" ) {
      table  0.6636 0.3364;
}

probability( "v235" | "class" ) {
        ("s0") 0.0000 0.2424 0.0000 0.0000 0.1320 0.2795 0.3461;
        ("s1") 0.5380 0.0000 0.1576 0.3043 0.0000 0.0000 0.0000;
}

probability( "a1" | "v235" ) {
        ("s0") 0.0000 0.4848 0.5152;
        ("s1") 1.0000 0.0000 0.0000;
        ("s2") 0.0000 0.4828 0.5172;
        ("s3") 1.0000 0.0000 0.0000;
        ("s4") 0.0000 0.4241 0.5759;
        ("s5") 0.3942 0.3084 0.2974;
        ("s6") 0.0000 0.5205 0.4795;
}

probability( "v215" | "v235" ) {
        ("s0") 0.0000 0.0000 0.0000 0.0000 0.3737 0.1919 0.4343 0.0000;
        ("s1") 0.1705 0.0000 0.0000 0.4231 0.1724 0.0455 0.1886 0.0000;
        ("s2") 0.0000 0.2069 0.2759 0.0000 0.0000 0.0000 0.0000 0.5172;
        ("s3") 0.1071 0.1429 0.3393 0.0000 0.0000 0.0000 0.0000 0.4107;
        ("s4") 0.3560 0.1325 0.0061 0.5039 0.0000 0.0000 0.0000 0.0015;
        ("s5") 0.0613 0.0296 0.0493 0.3100 0.2580 0.0986 0.1933 0.0000;
        ("s6") 0.1332 0.0689 0.2126 0.2187 0.0000 0.0000 0.0000 0.3667;
}

probability( "a2" | "v215" ) {
        ("s0") 0.0000 0.5082 0.4918;
        ("s1") 1.0000 0.0000 0.0000;
        ("s2") 0.0000 0.5085 0.4915;
        ("s3") 0.5885 0.1922 0.2192;
        ("s4") 0.5897 0.2327 0.1776;
        ("s5") 1.0000 0.0000 0.0000;
        ("s6") 0.0000 0.5495 0.4505;
        ("s7") 0.0000 0.5243 0.4757;
}

probability( "a3" | "v215" ) {
        ("s0") 0.0000 1.0000;
        ("s1") 0.0000 1.0000;
        ("s2") 1.0000 0.0000;
        ("s3") 0.8212 0.1788;
        ("s4") 0.0000 1.0000;
        ("s5") 1.0000 0.0000;
        ("s6") 1.0000 0.0000;
        ("s7") 0.0000 1.0000;
}

probability( "v272" | "v215" ) {
        ("s0") 0.0000 0.0000 1.0000 0.0000;
        ("s1") 0.0000 0.0000 1.0000 0.0000;
        ("s2") 0.0000 0.0000 1.0000 0.0000;
        ("s3") 0.1362 0.8630 0.0000 0.0008;
        ("s4") 0.2119 0.7422 0.0000 0.0460;
        ("s5") 0.0000 0.0000 1.0000 0.0000;
        ("s6") 0.3478 0.0000 0.0000 0.6522;
        ("s7") 0.3264 0.0000 0.0000 0.6736;
}

probability( "a6" | "v272" ) {
        ("s0") 0.0000 1.0000;
        ("s1") 1.0000 0.0000;
        ("s2") 0.0000 1.0000;
        ("s3") 1.0000 0.0000;
}

probability( "a4" | "v272" ) {
        ("s0") 1.0000 0.0000 0.0000;
        ("s1") 0.5742 0.2172 0.2086;
        ("s2") 0.0000 0.4486 0.5514;
        ("s3") 0.0000 0.4804 0.5196;
}

probability( "a5" | "v235" ) {
        ("s0") 0.0000 0.3737 0.3232 0.3030;
        ("s1") 0.0000 0.3182 0.3750 0.3068;
        ("s2") 1.0000 0.0000 0.0000 0.0000;
        ("s3") 0.1071 0.3214 0.3214 0.2500;
        ("s4") 0.0321 0.2382 0.2861 0.4436;
        ("s5") 1.0000 0.0000 0.0000 0.0000;
        ("s6") 0.0000 0.3231 0.3844 0.2925;
}

//Loglikelihood:  0.0
//Score        :  0.9444444444444444
//LoglikelihoodOfPreviousModel:  -30647.145698929424
