// HNB model in the BIF format
// Produced by the HNB package

network "HLCM130699" {}

variable "class" { 
      type discrete[2] { "s0" "s1" }
}

variable "a1" { 
      type discrete[3] { "s0" "s1" "s2" }
}

variable "a3" { 
      type discrete[2] { "s0" "s1" }
}

variable "a6" { 
      type discrete[2] { "s0" "s1" }
}

variable "v77" { 
      type discrete[4] { "s0" "s1" "s2" "s3" }
}

variable "a2" { 
      type discrete[3] { "s0" "s1" "s2" }
}

variable "a5" { 
      type discrete[4] { "s0" "s1" "s2" "s3" }
}

variable "a4" { 
      type discrete[3] { "s0" "s1" "s2" }
}

probability( "class" ) {
      table  0.4609 0.5391;
}

probability( "a1" | "class" ) {
        ("s0") 0.3277 0.3390 0.3333;
        ("s1") 0.3478 0.3092 0.3430;
}

probability( "a3" | "class" ) {
        ("s0") 0.5028 0.4972;
        ("s1") 0.4879 0.5121;
}

probability( "a6" | "class" ) {
        ("s0") 0.5141 0.4859;
        ("s1") 0.5024 0.4976;
}

probability( "v77" | "class" ) {
        ("s0") 0.0000 0.5187 0.4813 0.0000;
        ("s1") 0.9311 0.0000 0.0000 0.0689;
}

probability( "a2" | "v77" ) {
        ("s0") 0.4826 0.5174 0.0000;
        ("s1") 0.3376 0.3267 0.3356;
        ("s2") 0.0000 0.0000 1.0000;
        ("s3") 0.0697 0.0891 0.8412;
}

probability( "a5" | "v77" ) {
        ("s0") 0.3321 0.3321 0.3359 0.0000;
        ("s1") 0.0000 0.0000 0.0000 1.0000;
        ("s2") 0.3757 0.3522 0.2700 0.0022;
        ("s3") 0.0000 0.0000 1.0000 0.0000;
}

probability( "a4" | "v77" ) {
        ("s0") 0.3203 0.3269 0.3528;
        ("s1") 0.3152 0.3368 0.3479;
        ("s2") 0.2472 0.4000 0.3528;
        ("s3") 1.0000 0.0000 0.0000;
}

//Loglikelihood:  0.0
//Score        :  1.0
//LoglikelihoodOfPreviousModel:  -2059.7007404523692
