// HNB model in the BIF format
// Produced by the HNB package

network "HLCM921939" {}

variable "class" { 
      type discrete[2] { "s0" "s1" }
}

variable "a1" { 
      type discrete[3] { "s0" "s1" "s2" }
}

variable "a3" { 
      type discrete[2] { "s0" "s1" }
}

variable "a6" { 
      type discrete[2] { "s0" "s1" }
}

variable "v707" { 
      type discrete[4] { "s0" "s1" "s2" "s3" }
}

variable "a2" { 
      type discrete[3] { "s0" "s1" "s2" }
}

variable "a5" { 
      type discrete[4] { "s0" "s1" "s2" "s3" }
}

variable "a4" { 
      type discrete[3] { "s0" "s1" "s2" }
}

probability( "class" ) {
      table  0.4680 0.5320;
}

probability( "a1" | "class" ) {
        ("s0") 0.3279 0.3552 0.3169;
        ("s1") 0.3365 0.3510 0.3125;
}

probability( "a3" | "class" ) {
        ("s0") 0.5027 0.4973;
        ("s1") 0.5000 0.5000;
}

probability( "a6" | "class" ) {
        ("s0") 0.5027 0.4973;
        ("s1") 0.5000 0.5000;
}

probability( "v707" | "class" ) {
        ("s0") 0.0000 0.0000 0.4752 0.5248;
        ("s1") 0.0733 0.9267 0.0000 0.0000;
}

probability( "a2" | "v707" ) {
        ("s0") 0.0984 0.1143 0.7873;
        ("s1") 0.5058 0.4942 0.0000;
        ("s2") 0.0000 0.0000 1.0000;
        ("s3") 0.3436 0.3540 0.3024;
}

probability( "a5" | "v707" ) {
        ("s0") 0.0000 0.0000 1.0000 0.0000;
        ("s1") 0.3424 0.3268 0.3308 0.0000;
        ("s2") 0.3910 0.3680 0.2185 0.0225;
        ("s3") 0.0000 0.0000 0.0000 1.0000;
}

probability( "a4" | "v707" ) {
        ("s0") 1.0000 0.0000 0.0000;
        ("s1") 0.3256 0.3476 0.3268;
        ("s2") 0.2591 0.3775 0.3634;
        ("s3") 0.3485 0.3454 0.3061;
}

//Loglikelihood:  0.0
//Score        :  1.0
//LoglikelihoodOfPreviousModel:  -2097.9892091266174
