// HNB model in the BIF format
// Produced by the HNB package

network "HLCM335367" {}

variable "v0" { 
      type discrete[3] { "s0" "s1" "s2" }
}

variable "v2" { 
      type discrete[3] { "s0" "s1" "s2" }
}

variable "v221" { 
      type discrete[3] { "s0" "s1" "s2" }
}

variable "v8" { 
      type discrete[3] { "s0" "s1" "s2" }
}

variable "v9" { 
      type discrete[3] { "s0" "s1" "s2" }
}

variable "v235" { 
      type discrete[3] { "s0" "s1" "s2" }
}

variable "v4" { 
      type discrete[3] { "s0" "s1" "s2" }
}

variable "v226" { 
      type discrete[3] { "s0" "s1" "s2" }
}

variable "v6" { 
      type discrete[3] { "s0" "s1" "s2" }
}

variable "v7" { 
      type discrete[3] { "s0" "s1" "s2" }
}

probability( "v0" ) {
      table  0.2700 0.3576 0.3724;
}

probability( "v2" | "v0" ) {
        ("s0") 0.0704 0.1081 0.8214;
        ("s1") 0.8166 0.1339 0.0496;
        ("s2") 0.0070 0.8680 0.1250;
}

probability( "v221" | "v0" ) {
        ("s0") 0.9219 0.0137 0.0644;
        ("s1") 0.1631 0.0158 0.8210;
        ("s2") 0.0030 0.8884 0.1086;
}

probability( "v8" | "v221" ) {
        ("s0") 0.0535 0.0026 0.9439;
        ("s1") 0.0070 0.9614 0.0316;
        ("s2") 0.8115 0.0634 0.1251;
}

probability( "v9" | "v221" ) {
        ("s0") 0.1302 0.8585 0.0113;
        ("s1") 0.1416 0.8251 0.0332;
        ("s2") 0.0420 0.0637 0.8943;
}

probability( "v235" | "v0" ) {
        ("s0") 0.0897 0.0125 0.8978;
        ("s1") 0.1645 0.0118 0.8237;
        ("s2") 0.0546 0.9400 0.0053;
}

probability( "v4" | "v235" ) {
        ("s0") 0.8497 0.1057 0.0446;
        ("s1") 0.1147 0.0914 0.7939;
        ("s2") 0.0355 0.9645 0.0000;
}

probability( "v226" | "v235" ) {
        ("s0") 0.0970 0.7873 0.1157;
        ("s1") 0.2733 0.0636 0.6631;
        ("s2") 0.2243 0.0872 0.6885;
}

probability( "v6" | "v226" ) {
        ("s0") 0.3425 0.6026 0.0549;
        ("s1") 0.8184 0.1252 0.0564;
        ("s2") 0.0670 0.9036 0.0294;
}

probability( "v7" | "v226" ) {
        ("s0") 0.6725 0.0720 0.2555;
        ("s1") 0.1442 0.0422 0.8135;
        ("s2") 0.8428 0.0088 0.1484;
}

//Loglikelihood:  0.0
//Score        :  0.0
//LoglikelihoodOfPreviousModel:  -161225.11457488535
