// HNB model in the BIF format
// Produced by the HNB package

network "HLCM424179" {}

variable "class" { 
      type discrete[2] { "s0" "s1" }
}

variable "a3" { 
      type discrete[2] { "s0" "s1" }
}

variable "a4" { 
      type discrete[3] { "s0" "s1" "s2" }
}

variable "a6" { 
      type discrete[2] { "s0" "s1" }
}

variable "v198" { 
      type discrete[3] { "s0" "s1" "s2" }
}

variable "a5" { 
      type discrete[4] { "s0" "s1" "s2" "s3" }
}

variable "v175" { 
      type discrete[6] { "s0" "s1" "s2" "s3" "s4" "s5" }
}

variable "a1" { 
      type discrete[3] { "s0" "s1" "s2" }
}

variable "a2" { 
      type discrete[3] { "s0" "s1" "s2" }
}

probability( "class" ) {
      table  0.4929 0.5071;
}

probability( "a3" | "class" ) {
        ("s0") 0.4959 0.5041;
        ("s1") 0.5020 0.4980;
}

probability( "a4" | "class" ) {
        ("s0") 0.3115 0.3607 0.3279;
        ("s1") 0.3426 0.3108 0.3466;
}

probability( "a6" | "class" ) {
        ("s0") 0.4713 0.5287;
        ("s1") 0.4781 0.5219;
}

probability( "v198" | "class" ) {
        ("s0") 0.0000 1.0000 0.0000;
        ("s1") 0.6395 0.0000 0.3605;
}

probability( "a5" | "v198" ) {
        ("s0") 0.2087 0.2617 0.2679 0.2617;
        ("s1") 0.0000 0.3402 0.3197 0.3402;
        ("s2") 1.0000 0.0000 0.0000 0.0000;
}

probability( "v175" | "v198" ) {
        ("s0") 0.0000 0.0000 0.3544 0.0000 0.3070 0.3386;
        ("s1") 0.3811 0.3033 0.0000 0.3156 0.0000 0.0000;
        ("s2") 0.2984 0.3205 0.0455 0.2873 0.0080 0.0403;
}

probability( "a1" | "v175" ) {
        ("s0") 1.0000 0.0000 0.0000;
        ("s1") 0.0000 0.0000 1.0000;
        ("s2") 0.0000 0.0000 1.0000;
        ("s3") 0.0000 1.0000 0.0000;
        ("s4") 1.0000 0.0000 0.0000;
        ("s5") 0.0000 1.0000 0.0000;
}

probability( "a2" | "v175" ) {
        ("s0") 0.0000 0.4917 0.5083;
        ("s1") 0.5243 0.4757 0.0000;
        ("s2") 0.0000 0.0000 1.0000;
        ("s3") 0.5146 0.0000 0.4854;
        ("s4") 1.0000 0.0000 0.0000;
        ("s5") 0.0000 1.0000 0.0000;
}

//Loglikelihood:  0.0
//Score        :  1.0
//LoglikelihoodOfPreviousModel:  -18526.212629229998
