// HNB model in the BIF format
// Produced by the HNB package

network "HLCM1072855" {}

variable "class" { 
      type discrete[2] { "s0" "s1" }
}

variable "a3" { 
      type discrete[2] { "s0" "s1" }
}

variable "a4" { 
      type discrete[3] { "s0" "s1" "s2" }
}

variable "v388" { 
      type discrete[7] { "s0" "s1" "s2" "s3" "s4" "s5" "s6" }
}

variable "a1" { 
      type discrete[3] { "s0" "s1" "s2" }
}

variable "a2" { 
      type discrete[3] { "s0" "s1" "s2" }
}

variable "a5" { 
      type discrete[4] { "s0" "s1" "s2" "s3" }
}

variable "a6" { 
      type discrete[2] { "s0" "s1" }
}

probability( "class" ) {
      table  0.5010 0.4990;
}

probability( "a3" | "class" ) {
        ("s0") 0.4981 0.5019;
        ("s1") 0.5076 0.4924;
}

probability( "a4" | "class" ) {
        ("s0") 0.3156 0.3536 0.3308;
        ("s1") 0.3511 0.3168 0.3321;
}

probability( "v388" | "class" ) {
        ("s0") 0.3308 0.3308 0.0000 0.0000 0.0000 0.3384 0.0000;
        ("s1") 0.0000 0.0000 0.1756 0.1642 0.1707 0.0000 0.4895;
}

probability( "a1" | "v388" ) {
        ("s0") 0.0000 0.5517 0.4483;
        ("s1") 0.5402 0.0000 0.4598;
        ("s2") 0.0000 0.0000 1.0000;
        ("s3") 1.0000 0.0000 0.0000;
        ("s4") 0.0000 1.0000 0.0000;
        ("s5") 0.5506 0.4494 0.0000;
        ("s6") 0.2961 0.3453 0.3586;
}

probability( "a2" | "v388" ) {
        ("s0") 1.0000 0.0000 0.0000;
        ("s1") 0.0000 1.0000 0.0000;
        ("s2") 0.0000 0.0000 1.0000;
        ("s3") 1.0000 0.0000 0.0000;
        ("s4") 0.0000 1.0000 0.0000;
        ("s5") 0.0000 0.0000 1.0000;
        ("s6") 0.3195 0.3219 0.3586;
}

probability( "a5" | "v388" ) {
        ("s0") 0.0000 0.3218 0.3333 0.3448;
        ("s1") 0.0000 0.3218 0.3218 0.3563;
        ("s2") 0.0003 0.3042 0.3260 0.3694;
        ("s3") 0.0005 0.3487 0.3719 0.2789;
        ("s4") 0.0161 0.3578 0.3131 0.3131;
        ("s5") 0.0000 0.3258 0.3258 0.3483;
        ("s6") 1.0000 0.0000 0.0000 0.0000;
}

probability( "a6" | "v388" ) {
        ("s0") 0.4828 0.5172;
        ("s1") 0.4943 0.5057;
        ("s2") 0.4130 0.5870;
        ("s3") 0.5349 0.4651;
        ("s4") 0.4774 0.5226;
        ("s5") 0.4944 0.5056;
        ("s6") 0.5274 0.4726;
}

//Loglikelihood:  0.0
//Score        :  1.0
//LoglikelihoodOfPreviousModel:  -19649.82106413995
