// HNB model in the BIF format
// Produced by the HNB package

network "HLCM805757" {}

variable "class" { 
      type discrete[2] { "s0" "s1" }
}

variable "a4" { 
      type discrete[3] { "s0" "s1" "s2" }
}

variable "a6" { 
      type discrete[2] { "s0" "s1" }
}

variable "v301" { 
      type discrete[3] { "s0" "s1" "s2" }
}

variable "a5" { 
      type discrete[4] { "s0" "s1" "s2" "s3" }
}

variable "v278" { 
      type discrete[6] { "s0" "s1" "s2" "s3" "s4" "s5" }
}

variable "a1" { 
      type discrete[3] { "s0" "s1" "s2" }
}

variable "a2" { 
      type discrete[3] { "s0" "s1" "s2" }
}

variable "a3" { 
      type discrete[2] { "s0" "s1" }
}

probability( "class" ) {
      table  0.4949 0.5051;
}

probability( "a4" | "class" ) {
        ("s0") 0.3279 0.3484 0.3238;
        ("s1") 0.3574 0.3173 0.3253;
}

probability( "a6" | "class" ) {
        ("s0") 0.4918 0.5082;
        ("s1") 0.4859 0.5141;
}

probability( "v301" | "class" ) {
        ("s0") 0.0000 0.0000 1.0000;
        ("s1") 0.4708 0.5292 0.0000;
}

probability( "a5" | "v301" ) {
        ("s0") 1.0000 0.0000 0.0000 0.0000;
        ("s1") 0.0514 0.3111 0.3035 0.3339;
        ("s2") 0.0000 0.3238 0.3279 0.3484;
}

probability( "v278" | "v301" ) {
        ("s0") 0.0853 0.2218 0.0895 0.1001 0.2389 0.2645;
        ("s1") 0.2960 0.0000 0.3681 0.3360 0.0000 0.0000;
        ("s2") 0.0000 0.3566 0.0000 0.0000 0.3320 0.3115;
}

probability( "a1" | "v278" ) {
        ("s0") 1.0000 0.0000 0.0000;
        ("s1") 1.0000 0.0000 0.0000;
        ("s2") 0.0000 0.0000 1.0000;
        ("s3") 0.0000 1.0000 0.0000;
        ("s4") 0.0000 1.0000 0.0000;
        ("s5") 0.0000 0.0000 1.0000;
}

probability( "a2" | "v278" ) {
        ("s0") 1.0000 0.0000 0.0000;
        ("s1") 0.0000 0.4956 0.5044;
        ("s2") 0.0000 0.0000 1.0000;
        ("s3") 0.0000 1.0000 0.0000;
        ("s4") 0.4862 0.0000 0.5138;
        ("s5") 0.5047 0.4953 0.0000;
}

probability( "a3" | "v301" ) {
        ("s0") 0.5456 0.4544;
        ("s1") 0.5012 0.4988;
        ("s2") 0.5000 0.5000;
}

//Loglikelihood:  0.0
//Score        :  1.0
//LoglikelihoodOfPreviousModel:  -23836.99741478212
