// HNB model in the BIF format
// Produced by the HNB package

network "HLCM2986585" {}

variable "class" { 
      type discrete[2] { "s0" "s1" }
}

variable "a3" { 
      type discrete[2] { "s0" "s1" }
}

variable "a4" { 
      type discrete[3] { "s0" "s1" "s2" }
}

variable "a6" { 
      type discrete[2] { "s0" "s1" }
}

variable "v858" { 
      type discrete[3] { "s0" "s1" "s2" }
}

variable "a5" { 
      type discrete[4] { "s0" "s1" "s2" "s3" }
}

variable "v890" { 
      type discrete[6] { "s0" "s1" "s2" "s3" "s4" "s5" }
}

variable "a1" { 
      type discrete[3] { "s0" "s1" "s2" }
}

variable "a2" { 
      type discrete[3] { "s0" "s1" "s2" }
}

probability( "class" ) {
      table  0.4941 0.5059;
}

probability( "a3" | "class" ) {
        ("s0") 0.4861 0.5139;
        ("s1") 0.5331 0.4669;
}

probability( "a4" | "class" ) {
        ("s0") 0.3068 0.3546 0.3386;
        ("s1") 0.3580 0.3113 0.3307;
}

probability( "a6" | "class" ) {
        ("s0") 0.4940 0.5060;
        ("s1") 0.5019 0.4981;
}

probability( "v858" | "class" ) {
        ("s0") 1.0000 0.0000 0.0000;
        ("s1") 0.0000 0.5046 0.4954;
}

probability( "a5" | "v858" ) {
        ("s0") 0.0000 0.3267 0.3267 0.3466;
        ("s1") 1.0000 0.0000 0.0000 0.0000;
        ("s2") 0.0024 0.3378 0.3221 0.3378;
}

probability( "v890" | "v858" ) {
        ("s0") 0.0000 0.3386 0.0000 0.3307 0.3307 0.0000;
        ("s1") 0.1071 0.2159 0.1149 0.2236 0.2390 0.0995;
        ("s2") 0.3465 0.0000 0.3228 0.0000 0.0000 0.3307;
}

probability( "a1" | "v890" ) {
        ("s0") 0.0000 1.0000 0.0000;
        ("s1") 0.0000 0.5221 0.4779;
        ("s2") 0.0000 0.0000 1.0000;
        ("s3") 0.5179 0.0000 0.4821;
        ("s4") 0.5351 0.4649 0.0000;
        ("s5") 1.0000 0.0000 0.0000;
}

probability( "a2" | "v890" ) {
        ("s0") 0.0000 1.0000 0.0000;
        ("s1") 1.0000 0.0000 0.0000;
        ("s2") 0.0000 0.0000 1.0000;
        ("s3") 0.0000 1.0000 0.0000;
        ("s4") 0.0000 0.0000 1.0000;
        ("s5") 1.0000 0.0000 0.0000;
}

//Loglikelihood:  0.0
//Score        :  1.0
//LoglikelihoodOfPreviousModel:  -18995.628917991344
