// HNB model in the BIF format
// Produced by the HNB package

network "HLCM3578141" {}

variable "class" { 
      type discrete[2] { "s0" "s1" }
}

variable "v350" { 
      type discrete[7] { "s0" "s1" "s2" "s3" "s4" "s5" "s6" }
}

variable "v329" { 
      type discrete[7] { "s0" "s1" "s2" "s3" "s4" "s5" "s6" }
}

variable "a3" { 
      type discrete[2] { "s0" "s1" }
}

variable "a5" { 
      type discrete[4] { "s0" "s1" "s2" "s3" }
}

variable "a6" { 
      type discrete[2] { "s0" "s1" }
}

variable "a2" { 
      type discrete[3] { "s0" "s1" "s2" }
}

variable "v370" { 
      type discrete[4] { "s0" "s1" "s2" "s3" }
}

variable "a4" { 
      type discrete[3] { "s0" "s1" "s2" }
}

variable "a1" { 
      type discrete[3] { "s0" "s1" "s2" }
}

probability( "class" ) {
      table  0.6562 0.3438;
}

probability( "v350" | "class" ) {
        ("s0") 0.0000 0.0000 0.0000 0.4118 0.0000 0.2899 0.2983;
        ("s1") 0.0376 0.2957 0.2527 0.0000 0.4140 0.0000 0.0000;
}

probability( "v329" | "v350" ) {
        ("s0") 1.0000 0.0000 0.0000 0.0000 0.0000 0.0000 0.0000;
        ("s1") 0.0000 0.2727 0.0000 0.0000 0.1636 0.5636 0.0000;
        ("s2") 0.2979 0.0000 0.1277 0.2553 0.0000 0.0000 0.3191;
        ("s3") 0.3351 0.0000 0.0655 0.2664 0.1188 0.0000 0.2142;
        ("s4") 0.0000 0.0000 0.1429 0.4026 0.0000 0.0000 0.4545;
        ("s5") 0.0000 0.1167 0.0527 0.1851 0.1819 0.3209 0.1427;
        ("s6") 0.2833 0.1227 0.0000 0.0000 0.2259 0.3681 0.0000;
}

probability( "a3" | "v329" ) {
        ("s0") 0.0000 1.0000;
        ("s1") 0.0000 1.0000;
        ("s2") 0.0000 1.0000;
        ("s3") 0.0000 1.0000;
        ("s4") 1.0000 0.0000;
        ("s5") 1.0000 0.0000;
        ("s6") 1.0000 0.0000;
}

probability( "a5" | "v329" ) {
        ("s0") 0.0000 0.2900 0.3700 0.3400;
        ("s1") 1.0000 0.0000 0.0000 0.0000;
        ("s2") 1.0000 0.0000 0.0000 0.0000;
        ("s3") 0.0000 0.3366 0.3267 0.3366;
        ("s4") 1.0000 0.0000 0.0000 0.0000;
        ("s5") 0.0000 0.2816 0.3592 0.3592;
        ("s6") 0.0000 0.3229 0.4063 0.2708;
}

probability( "a6" | "v329" ) {
        ("s0") 0.0000 1.0000;
        ("s1") 1.0000 0.0000;
        ("s2") 0.0000 1.0000;
        ("s3") 1.0000 0.0000;
        ("s4") 0.4783 0.5217;
        ("s5") 1.0000 0.0000;
        ("s6") 0.0000 1.0000;
}

probability( "a2" | "v350" ) {
        ("s0") 0.0000 0.4286 0.5714;
        ("s1") 0.0000 0.5636 0.4364;
        ("s2") 1.0000 0.0000 0.0000;
        ("s3") 0.1721 0.4276 0.4004;
        ("s4") 0.0000 0.5325 0.4675;
        ("s5") 0.9994 0.0004 0.0003;
        ("s6") 0.0000 0.5237 0.4763;
}

probability( "v370" | "v350" ) {
        ("s0") 0.0000 0.0000 1.0000 0.0000;
        ("s1") 0.0000 1.0000 0.0000 0.0000;
        ("s2") 0.1277 0.7021 0.0000 0.1702;
        ("s3") 0.0000 0.8203 0.1797 0.0000;
        ("s4") 0.5325 0.0000 0.0000 0.4675;
        ("s5") 0.3208 0.2338 0.1342 0.3111;
        ("s6") 0.4343 0.0000 0.1031 0.4626;
}

probability( "a4" | "v370" ) {
        ("s0") 0.0000 0.4841 0.5159;
        ("s1") 0.0000 0.4871 0.5129;
        ("s2") 1.0000 0.0000 0.0000;
        ("s3") 1.0000 0.0000 0.0000;
}

probability( "a1" | "v370" ) {
        ("s0") 1.0000 0.0000 0.0000;
        ("s1") 0.0000 0.5129 0.4871;
        ("s2") 1.0000 0.0000 0.0000;
        ("s3") 0.0000 0.5200 0.4800;
}

//Loglikelihood:  0.0
//Score        :  0.8833333333333333
//LoglikelihoodOfPreviousModel:  -272024.9818283174
