// HNB model in the BIF format
// Produced by the HNB package

network "HLCM912156" {}

variable "class" { 
      type discrete[2] { "s0" "s1" }
}

variable "a5" { 
      type discrete[4] { "s0" "s1" "s2" "s3" }
}

variable "v100" { 
      type discrete[6] { "s0" "s1" "s2" "s3" "s4" "s5" }
}

variable "a4" { 
      type discrete[3] { "s0" "s1" "s2" }
}

variable "v115" { 
      type discrete[6] { "s0" "s1" "s2" "s3" "s4" "s5" }
}

variable "v78" { 
      type discrete[8] { "s0" "s1" "s2" "s3" "s4" "s5" "s6" "s7" }
}

variable "a2" { 
      type discrete[3] { "s0" "s1" "s2" }
}

variable "a6" { 
      type discrete[2] { "s0" "s1" }
}

variable "a3" { 
      type discrete[2] { "s0" "s1" }
}

variable "a1" { 
      type discrete[3] { "s0" "s1" "s2" }
}

probability( "class" ) {
      table  0.6489 0.3511;
}

probability( "a5" | "class" ) {
        ("s0") 0.2833 0.2238 0.2493 0.2436;
        ("s1") 0.2147 0.2775 0.2723 0.2356;
}

probability( "v100" | "class" ) {
        ("s0") 0.1938 0.4331 0.0732 0.2999 0.0000 0.0000;
        ("s1") 0.0000 0.0000 0.0000 0.0000 0.2670 0.7330;
}

probability( "a4" | "v100" ) {
        ("s0") 0.9997 0.0000 0.0003;
        ("s1") 0.3703 0.3322 0.2975;
        ("s2") 0.0000 0.0126 0.9873;
        ("s3") 0.0000 0.5751 0.4249;
        ("s4") 1.0000 0.0000 0.0000;
        ("s5") 0.0000 0.4786 0.5214;
}

probability( "v115" | "v100" ) {
        ("s0") 0.3721 0.0000 0.6279 0.0000 0.0000 0.0000;
        ("s1") 0.0072 0.4227 0.0002 0.0000 0.0002 0.5697;
        ("s2") 0.0600 0.0103 0.0131 0.1450 0.3911 0.3806;
        ("s3") 0.0000 0.2380 0.0000 0.2245 0.5171 0.0205;
        ("s4") 0.0000 0.0000 0.0000 0.2208 0.7792 0.0000;
        ("s5") 0.3429 0.0000 0.6571 0.0000 0.0001 0.0000;
}

probability( "v78" | "v115" ) {
        ("s0") 0.0000 0.0000 0.3737 0.0000 0.1457 0.0000 0.0976 0.3829;
        ("s1") 0.1838 0.2760 0.0039 0.1871 0.0000 0.3331 0.0000 0.0161;
        ("s2") 0.2568 0.4173 0.1078 0.1964 0.0000 0.0000 0.0000 0.0216;
        ("s3") 0.0000 0.0000 0.0000 0.0000 0.0000 0.0000 1.0000 0.0000;
        ("s4") 0.0000 0.0000 0.3705 0.0000 0.2569 0.0000 0.0000 0.3726;
        ("s5") 0.0582 0.0071 0.0045 0.0067 0.0000 0.5084 0.4027 0.0124;
}

probability( "a2" | "v78" ) {
        ("s0") 1.0000 0.0000 0.0000;
        ("s1") 0.0000 0.5019 0.4981;
        ("s2") 0.0000 0.5421 0.4579;
        ("s3") 0.7786 0.1209 0.1006;
        ("s4") 0.9278 0.0105 0.0617;
        ("s5") 0.6887 0.1766 0.1347;
        ("s6") 0.0000 0.5286 0.4714;
        ("s7") 0.0000 0.5100 0.4900;
}

probability( "a6" | "v78" ) {
        ("s0") 0.0000 1.0000;
        ("s1") 0.8009 0.1991;
        ("s2") 1.0000 0.0000;
        ("s3") 1.0000 0.0000;
        ("s4") 0.0000 1.0000;
        ("s5") 0.9157 0.0843;
        ("s6") 0.0000 1.0000;
        ("s7") 0.0000 1.0000;
}

probability( "a3" | "v78" ) {
        ("s0") 0.7818 0.2182;
        ("s1") 1.0000 0.0000;
        ("s2") 0.0000 1.0000;
        ("s3") 0.0000 1.0000;
        ("s4") 0.0000 1.0000;
        ("s5") 0.9284 0.0716;
        ("s6") 0.0000 1.0000;
        ("s7") 0.9999 0.0001;
}

probability( "a1" | "v115" ) {
        ("s0") 1.0000 0.0000 0.0000;
        ("s1") 0.9675 0.0297 0.0028;
        ("s2") 0.0000 0.4957 0.5043;
        ("s3") 0.5861 0.2431 0.1708;
        ("s4") 0.0000 0.5041 0.4959;
        ("s5") 0.0001 0.4851 0.5147;
}

//Loglikelihood:  0.0
//Score        :  0.8596491228070176
//LoglikelihoodOfPreviousModel:  -89456.32488343559
