// HNB model in the BIF format
// Produced by the HNB package

network "HLCM1102830" {}

variable "class" { 
      type discrete[2] { "s0" "s1" }
}

variable "a1" { 
      type discrete[3] { "s0" "s1" "s2" }
}

variable "a3" { 
      type discrete[2] { "s0" "s1" }
}

variable "a6" { 
      type discrete[2] { "s0" "s1" }
}

variable "v525" { 
      type discrete[5] { "s0" "s1" "s2" "s3" "s4" }
}

variable "a4" { 
      type discrete[3] { "s0" "s1" "s2" }
}

variable "v509" { 
      type discrete[2] { "s0" "s1" }
}

variable "a2" { 
      type discrete[3] { "s0" "s1" "s2" }
}

variable "a5" { 
      type discrete[4] { "s0" "s1" "s2" "s3" }
}

probability( "class" ) {
      table  0.4779 0.5221;
}

probability( "a1" | "class" ) {
        ("s0") 0.3098 0.3641 0.3261;
        ("s1") 0.3284 0.3284 0.3433;
}

probability( "a3" | "class" ) {
        ("s0") 0.5054 0.4946;
        ("s1") 0.5075 0.4925;
}

probability( "a6" | "class" ) {
        ("s0") 0.5000 0.5000;
        ("s1") 0.5124 0.4876;
}

probability( "v525" | "class" ) {
        ("s0") 0.5177 0.0000 0.4823 0.0000 0.0000;
        ("s1") 0.0000 0.4025 0.0000 0.5478 0.0498;
}

probability( "a4" | "v525" ) {
        ("s0") 0.3607 0.2933 0.3460;
        ("s1") 0.3665 0.5867 0.0468;
        ("s2") 0.2326 0.3951 0.3723;
        ("s3") 0.2938 0.1774 0.5288;
        ("s4") 1.0000 0.0000 0.0000;
}

probability( "v509" | "v525" ) {
        ("s0") 0.3282 0.6718;
        ("s1") 0.0000 1.0000;
        ("s2") 1.0000 0.0000;
        ("s3") 0.0000 1.0000;
        ("s4") 1.0000 0.0000;
}

probability( "a2" | "v509" ) {
        ("s0") 0.0000 0.0000 1.0000;
        ("s1") 0.5059 0.4941 0.0000;
}

probability( "a5" | "v525" ) {
        ("s0") 0.0000 0.0000 0.0000 1.0000;
        ("s1") 0.3219 0.3661 0.3120 0.0000;
        ("s2") 0.3831 0.3381 0.2479 0.0309;
        ("s3") 0.3084 0.3577 0.3339 0.0000;
        ("s4") 0.0000 0.0000 1.0000 0.0000;
}

//Loglikelihood:  0.0
//Score        :  1.0
//LoglikelihoodOfPreviousModel:  -18602.51150079921
