// HNB model in the BIF format
// Produced by the HNB package

network "HLCM1169321" {}

variable "class" { 
      type discrete[2] { "s0" "s1" }
}

variable "a3" { 
      type discrete[2] { "s0" "s1" }
}

variable "a4" { 
      type discrete[3] { "s0" "s1" "s2" }
}

variable "a6" { 
      type discrete[2] { "s0" "s1" }
}

variable "v413" { 
      type discrete[3] { "s0" "s1" "s2" }
}

variable "a5" { 
      type discrete[4] { "s0" "s1" "s2" "s3" }
}

variable "v390" { 
      type discrete[6] { "s0" "s1" "s2" "s3" "s4" "s5" }
}

variable "a1" { 
      type discrete[3] { "s0" "s1" "s2" }
}

variable "a2" { 
      type discrete[3] { "s0" "s1" "s2" }
}

probability( "class" ) {
      table  0.5010 0.4990;
}

probability( "a3" | "class" ) {
        ("s0") 0.4981 0.5019;
        ("s1") 0.5076 0.4924;
}

probability( "a4" | "class" ) {
        ("s0") 0.3156 0.3536 0.3308;
        ("s1") 0.3511 0.3168 0.3321;
}

probability( "a6" | "class" ) {
        ("s0") 0.4905 0.5095;
        ("s1") 0.5000 0.5000;
}

probability( "v413" | "class" ) {
        ("s0") 0.0000 1.0000 0.0000;
        ("s1") 0.4784 0.0000 0.5216;
}

probability( "a5" | "v413" ) {
        ("s0") 1.0000 0.0000 0.0000 0.0000;
        ("s1") 0.0000 0.3232 0.3270 0.3498;
        ("s2") 0.0268 0.3293 0.3293 0.3146;
}

probability( "v390" | "v413" ) {
        ("s0") 0.2154 0.2314 0.1100 0.0863 0.2394 0.1175;
        ("s1") 0.3308 0.3308 0.0000 0.0000 0.3384 0.0000;
        ("s2") 0.0000 0.0000 0.3308 0.3233 0.0000 0.3459;
}

probability( "a1" | "v390" ) {
        ("s0") 0.5175 0.0000 0.4825;
        ("s1") 0.0000 0.5345 0.4655;
        ("s2") 0.0000 1.0000 0.0000;
        ("s3") 1.0000 0.0000 0.0000;
        ("s4") 0.5294 0.4706 0.0000;
        ("s5") 0.0000 0.0000 1.0000;
}

probability( "a2" | "v390" ) {
        ("s0") 0.0000 1.0000 0.0000;
        ("s1") 1.0000 0.0000 0.0000;
        ("s2") 0.0000 1.0000 0.0000;
        ("s3") 1.0000 0.0000 0.0000;
        ("s4") 0.0000 0.0000 1.0000;
        ("s5") 0.0000 0.0000 1.0000;
}

//Loglikelihood:  0.0
//Score        :  1.0
//LoglikelihoodOfPreviousModel:  -6549.940354713315
