// HNB model in the BIF format
// Produced by the HNB package

network "HLCM3158819" {}

variable "class" { 
      type discrete[2] { "s0" "s1" }
}

variable "v246" { 
      type discrete[6] { "s0" "s1" "s2" "s3" "s4" "s5" }
}

variable "a5" { 
      type discrete[4] { "s0" "s1" "s2" "s3" }
}

variable "v220" { 
      type discrete[5] { "s0" "s1" "s2" "s3" "s4" }
}

variable "a4" { 
      type discrete[3] { "s0" "s1" "s2" }
}

variable "v269" { 
      type discrete[6] { "s0" "s1" "s2" "s3" "s4" "s5" }
}

variable "a3" { 
      type discrete[2] { "s0" "s1" }
}

variable "v258" { 
      type discrete[4] { "s0" "s1" "s2" "s3" }
}

variable "a6" { 
      type discrete[2] { "s0" "s1" }
}

variable "a2" { 
      type discrete[3] { "s0" "s1" "s2" }
}

variable "a1" { 
      type discrete[3] { "s0" "s1" "s2" }
}

probability( "class" ) {
      table  0.6744 0.3256;
}

probability( "v246" | "class" ) {
        ("s0") 0.2371 0.0000 0.1316 0.2036 0.0000 0.4277;
        ("s1") 0.0000 0.7480 0.0000 0.0000 0.2520 0.0000;
}

probability( "a5" | "v246" ) {
        ("s0") 0.0000 0.3788 0.2804 0.3408;
        ("s1") 0.2316 0.2421 0.2526 0.2737;
        ("s2") 0.6390 0.0987 0.1614 0.1009;
        ("s3") 0.1588 0.2428 0.2670 0.3314;
        ("s4") 0.0938 0.2500 0.3125 0.3438;
        ("s5") 0.3856 0.2131 0.2012 0.2001;
}

probability( "v220" | "v246" ) {
        ("s0") 0.1703 0.0121 0.8175 0.0000 0.0000;
        ("s1") 0.0000 0.0000 0.0000 0.6410 0.3590;
        ("s2") 0.9414 0.0350 0.0000 0.0000 0.0237;
        ("s3") 0.1437 0.8563 0.0000 0.0000 0.0000;
        ("s4") 0.0000 0.2482 0.7518 0.0000 0.0000;
        ("s5") 0.5972 0.0076 0.0406 0.1022 0.2524;
}

probability( "a4" | "v220" ) {
        ("s0") 0.4740 0.2588 0.2672;
        ("s1") 0.2648 0.3509 0.3843;
        ("s2") 0.0000 0.5030 0.4970;
        ("s3") 0.0000 0.5040 0.4960;
        ("s4") 0.9640 0.0009 0.0352;
}

probability( "v269" | "v220" ) {
        ("s0") 0.8224 0.0000 0.0000 0.0012 0.1762 0.0002;
        ("s1") 0.0000 0.0000 1.0000 0.0000 0.0000 0.0000;
        ("s2") 0.0000 0.0159 0.0000 0.4047 0.0000 0.5794;
        ("s3") 0.5332 0.0000 0.0000 0.1036 0.2303 0.1329;
        ("s4") 0.0000 0.2376 0.0167 0.3581 0.0000 0.3875;
}

probability( "a3" | "v269" ) {
        ("s0") 0.9909 0.0091;
        ("s1") 0.0000 1.0000;
        ("s2") 0.0000 1.0000;
        ("s3") 1.0000 0.0000;
        ("s4") 0.0000 1.0000;
        ("s5") 0.0000 1.0000;
}

probability( "v258" | "v269" ) {
        ("s0") 0.0031 0.2601 0.4809 0.2560;
        ("s1") 0.2625 0.2380 0.4995 0.0000;
        ("s2") 1.0000 0.0000 0.0000 0.0000;
        ("s3") 1.0000 0.0000 0.0000 0.0000;
        ("s4") 0.0000 0.0551 0.0060 0.9389;
        ("s5") 0.0000 0.3323 0.6677 0.0000;
}

probability( "a6" | "v258" ) {
        ("s0") 0.0000 1.0000;
        ("s1") 0.0000 1.0000;
        ("s2") 0.9997 0.0003;
        ("s3") 0.9981 0.0019;
}

probability( "a2" | "v258" ) {
        ("s0") 0.0000 0.5198 0.4802;
        ("s1") 0.9992 0.0007 0.0000;
        ("s2") 0.0000 0.4830 0.5170;
        ("s3") 0.9314 0.0653 0.0033;
}

probability( "a1" | "v246" ) {
        ("s0") 0.0000 0.4905 0.5095;
        ("s1") 0.0000 0.5053 0.4947;
        ("s2") 0.0000 0.5277 0.4723;
        ("s3") 0.2386 0.3807 0.3807;
        ("s4") 1.0000 0.0000 0.0000;
        ("s5") 0.7132 0.1402 0.1467;
}

//Loglikelihood:  0.0
//Score        :  0.9047619047619048
//LoglikelihoodOfPreviousModel:  -202012.40886359106
