// HNB model in the BIF format
// Produced by the HNB package

network "HLCM1575200" {}

variable "class" { 
      type discrete[2] { "s0" "s1" }
}

variable "a3" { 
      type discrete[2] { "s0" "s1" }
}

variable "a4" { 
      type discrete[3] { "s0" "s1" "s2" }
}

variable "a6" { 
      type discrete[2] { "s0" "s1" }
}

variable "v724" { 
      type discrete[3] { "s0" "s1" "s2" }
}

variable "a5" { 
      type discrete[4] { "s0" "s1" "s2" "s3" }
}

variable "v701" { 
      type discrete[6] { "s0" "s1" "s2" "s3" "s4" "s5" }
}

variable "a1" { 
      type discrete[3] { "s0" "s1" "s2" }
}

variable "a2" { 
      type discrete[3] { "s0" "s1" "s2" }
}

probability( "class" ) {
      table  0.5051 0.4949;
}

probability( "a3" | "class" ) {
        ("s0") 0.5000 0.5000;
        ("s1") 0.5226 0.4774;
}

probability( "a4" | "class" ) {
        ("s0") 0.3226 0.3306 0.3468;
        ("s1") 0.3374 0.3251 0.3374;
}

probability( "a6" | "class" ) {
        ("s0") 0.4839 0.5161;
        ("s1") 0.4733 0.5267;
}

probability( "v724" | "class" ) {
        ("s0") 0.0000 0.0000 1.0000;
        ("s1") 0.3504 0.6496 0.0000;
}

probability( "a5" | "v724" ) {
        ("s0") 1.0000 0.0000 0.0000 0.0000;
        ("s1") 0.2018 0.2661 0.2724 0.2597;
        ("s2") 0.0000 0.3347 0.3427 0.3226;
}

probability( "v701" | "v724" ) {
        ("s0") 0.3171 0.0163 0.0132 0.2819 0.0544 0.3171;
        ("s1") 0.0000 0.3650 0.3096 0.0000 0.3254 0.0000;
        ("s2") 0.3468 0.0000 0.0000 0.3266 0.0000 0.3266;
}

probability( "a1" | "v701" ) {
        ("s0") 0.5487 0.4513 0.0000;
        ("s1") 0.0000 1.0000 0.0000;
        ("s2") 1.0000 0.0000 0.0000;
        ("s3") 0.0000 0.5524 0.4476;
        ("s4") 0.0000 0.0000 1.0000;
        ("s5") 0.5278 0.0000 0.4722;
}

probability( "a2" | "v701" ) {
        ("s0") 0.0000 0.0000 1.0000;
        ("s1") 0.0000 1.0000 0.0000;
        ("s2") 1.0000 0.0000 0.0000;
        ("s3") 1.0000 0.0000 0.0000;
        ("s4") 0.0000 0.0000 1.0000;
        ("s5") 0.0000 1.0000 0.0000;
}

//Loglikelihood:  0.0
//Score        :  1.0
//LoglikelihoodOfPreviousModel:  -680.3960163284811
