// HNB model in the BIF format
// Produced by the HNB package

network "HLCM2026752" {}

variable "class" { 
      type discrete[2] { "s0" "s1" }
}

variable "a3" { 
      type discrete[2] { "s0" "s1" }
}

variable "a4" { 
      type discrete[3] { "s0" "s1" "s2" }
}

variable "a6" { 
      type discrete[2] { "s0" "s1" }
}

variable "v907" { 
      type discrete[3] { "s0" "s1" "s2" }
}

variable "a5" { 
      type discrete[4] { "s0" "s1" "s2" "s3" }
}

variable "v939" { 
      type discrete[6] { "s0" "s1" "s2" "s3" "s4" "s5" }
}

variable "a1" { 
      type discrete[3] { "s0" "s1" "s2" }
}

variable "a2" { 
      type discrete[3] { "s0" "s1" "s2" }
}

probability( "class" ) {
      table  0.5010 0.4990;
}

probability( "a3" | "class" ) {
        ("s0") 0.4821 0.5179;
        ("s1") 0.5320 0.4680;
}

probability( "a4" | "class" ) {
        ("s0") 0.3068 0.3426 0.3506;
        ("s1") 0.3560 0.3240 0.3200;
}

probability( "a6" | "class" ) {
        ("s0") 0.4781 0.5219;
        ("s1") 0.5040 0.4960;
}

probability( "v907" | "class" ) {
        ("s0") 0.0000 0.0000 1.0000;
        ("s1") 0.5204 0.4796 0.0000;
}

probability( "a5" | "v907" ) {
        ("s0") 0.0085 0.3151 0.3459 0.3305;
        ("s1") 1.0000 0.0000 0.0000 0.0000;
        ("s2") 0.0000 0.3347 0.3307 0.3347;
}

probability( "v939" | "v907" ) {
        ("s0") 0.0000 0.0000 0.0000 0.6667 0.0000 0.3333;
        ("s1") 0.0003 0.5242 0.0346 0.2575 0.1667 0.0168;
        ("s2") 0.3466 0.0000 0.3466 0.0000 0.3068 0.0000;
}

probability( "a1" | "v939" ) {
        ("s0") 0.0000 0.5172 0.4828;
        ("s1") 0.1337 0.6173 0.2490;
        ("s2") 0.5742 0.4258 0.0000;
        ("s3") 0.4923 0.0000 0.5077;
        ("s4") 0.5398 0.0000 0.4602;
        ("s5") 0.0000 1.0000 0.0000;
}

probability( "a2" | "v939" ) {
        ("s0") 1.0000 0.0000 0.0000;
        ("s1") 0.3145 0.3284 0.3571;
        ("s2") 0.0000 0.0000 1.0000;
        ("s3") 0.4949 0.0000 0.5051;
        ("s4") 0.0000 1.0000 0.0000;
        ("s5") 0.0000 1.0000 0.0000;
}

//Loglikelihood:  0.0
//Score        :  1.0
//LoglikelihoodOfPreviousModel:  -693.8587376422552
