// HNB model in the BIF format
// Produced by the HNB package

network "HLCM277784" {}

variable "v0" { 
      type discrete[3] { "s0" "s1" "s2" }
}

variable "v2" { 
      type discrete[3] { "s0" "s1" "s2" }
}

variable "v229" { 
      type discrete[3] { "s0" "s1" "s2" }
}

variable "v8" { 
      type discrete[3] { "s0" "s1" "s2" }
}

variable "v9" { 
      type discrete[3] { "s0" "s1" "s2" }
}

variable "v234" { 
      type discrete[4] { "s0" "s1" "s2" "s3" }
}

variable "v4" { 
      type discrete[3] { "s0" "s1" "s2" }
}

variable "v212" { 
      type discrete[3] { "s0" "s1" "s2" }
}

variable "v7" { 
      type discrete[3] { "s0" "s1" "s2" }
}

variable "v6" { 
      type discrete[3] { "s0" "s1" "s2" }
}

probability( "v0" ) {
      table  0.3226 0.4073 0.2700;
}

probability( "v2" | "v0" ) {
        ("s0") 0.5831 0.3579 0.0590;
        ("s1") 0.3091 0.3298 0.3611;
        ("s2") 0.0861 0.1943 0.7197;
}

probability( "v229" | "v0" ) {
        ("s0") 0.2256 0.2789 0.4954;
        ("s1") 0.0990 0.8186 0.0824;
        ("s2") 0.1351 0.6006 0.2643;
}

probability( "v8" | "v229" ) {
        ("s0") 0.1282 0.1432 0.7286;
        ("s1") 0.1355 0.2572 0.6073;
        ("s2") 0.5114 0.4223 0.0663;
}

probability( "v9" | "v229" ) {
        ("s0") 0.6155 0.2087 0.1758;
        ("s1") 0.4626 0.4278 0.1096;
        ("s2") 0.1580 0.6894 0.1526;
}

probability( "v234" | "v0" ) {
        ("s0") 0.4631 0.3151 0.1963 0.0256;
        ("s1") 0.4318 0.2857 0.2307 0.0517;
        ("s2") 0.0915 0.0701 0.4999 0.3385;
}

probability( "v4" | "v234" ) {
        ("s0") 0.3859 0.4167 0.1974;
        ("s1") 0.3615 0.5349 0.1036;
        ("s2") 0.4693 0.0206 0.5101;
        ("s3") 0.4302 0.0495 0.5203;
}

probability( "v212" | "v234" ) {
        ("s0") 0.0436 0.0301 0.9262;
        ("s1") 0.8321 0.1344 0.0335;
        ("s2") 0.0859 0.7230 0.1911;
        ("s3") 0.0992 0.0000 0.9007;
}

probability( "v7" | "v212" ) {
        ("s0") 0.0066 0.2971 0.6963;
        ("s1") 0.0884 0.6726 0.2390;
        ("s2") 0.3494 0.0018 0.6488;
}

probability( "v6" | "v234" ) {
        ("s0") 0.5050 0.1323 0.3627;
        ("s1") 0.0457 0.5356 0.4186;
        ("s2") 0.0004 0.5734 0.4263;
        ("s3") 0.5219 0.1295 0.3486;
}

//Loglikelihood:  -353218.66839800176
//Score        :  -353570.3111922451
//LoglikelihoodOfPreviousModel:  -100593.13984068825
