// HNB model in the BIF format
// Produced by the HNB package

network "HLCM196711" {}

variable "v0" { 
      type discrete[3] { "s0" "s1" "s2" }
}

variable "v4" { 
      type discrete[3] { "s0" "s1" "s2" }
}

variable "v2" { 
      type discrete[3] { "s0" "s1" "s2" }
}

variable "v212" { 
      type discrete[3] { "s0" "s1" "s2" }
}

variable "v239" { 
      type discrete[3] { "s0" "s1" "s2" }
}

variable "v6" { 
      type discrete[3] { "s0" "s1" "s2" }
}

variable "v7" { 
      type discrete[3] { "s0" "s1" "s2" }
}

variable "v229" { 
      type discrete[3] { "s0" "s1" "s2" }
}

variable "v8" { 
      type discrete[3] { "s0" "s1" "s2" }
}

variable "v9" { 
      type discrete[3] { "s0" "s1" "s2" }
}

probability( "v0" ) {
      table  0.3226 0.4073 0.2700;
}

probability( "v4" | "v0" ) {
        ("s0") 0.3979 0.3661 0.2360;
        ("s1") 0.4002 0.3406 0.2592;
        ("s2") 0.4387 0.1027 0.4586;
}

probability( "v2" | "v0" ) {
        ("s0") 0.5831 0.3579 0.0590;
        ("s1") 0.3091 0.3298 0.3611;
        ("s2") 0.0861 0.1943 0.7197;
}

probability( "v212" | "v0" ) {
        ("s0") 0.8745 0.0819 0.0437;
        ("s1") 0.1972 0.5448 0.2580;
        ("s2") 0.3355 0.2340 0.4305;
}

probability( "v239" | "v212" ) {
        ("s0") 0.3273 0.4543 0.2183;
        ("s1") 0.3724 0.5435 0.0841;
        ("s2") 0.2042 0.2174 0.5784;
}

probability( "v6" | "v239" ) {
        ("s0") 0.6082 0.0398 0.3521;
        ("s1") 0.1421 0.4571 0.4008;
        ("s2") 0.0004 0.5710 0.4286;
}

probability( "v7" | "v239" ) {
        ("s0") 0.3945 0.0269 0.5787;
        ("s1") 0.0420 0.1095 0.8485;
        ("s2") 0.2163 0.7295 0.0543;
}

probability( "v229" | "v0" ) {
        ("s0") 0.5014 0.3304 0.1682;
        ("s1") 0.0707 0.2614 0.6678;
        ("s2") 0.2593 0.2666 0.4741;
}

probability( "v8" | "v229" ) {
        ("s0") 0.5050 0.4143 0.0807;
        ("s1") 0.1280 0.1816 0.6904;
        ("s2") 0.1450 0.2732 0.5818;
}

probability( "v9" | "v229" ) {
        ("s0") 0.1522 0.6946 0.1532;
        ("s1") 0.6003 0.2422 0.1575;
        ("s2") 0.4270 0.4716 0.1014;
}

//Loglikelihood:  -353572.5247688704
//Score        :  -353875.47856083384
//LoglikelihoodOfPreviousModel:  -106490.85466865265
