// HNB model in the BIF format
// Produced by the HNB package

network "HLCM73190" {}

variable "v0" { 
      type discrete[3] { "s0" "s1" "s2" }
}

variable "v4" { 
      type discrete[3] { "s0" "s1" "s2" }
}

variable "v6" { 
      type discrete[3] { "s0" "s1" "s2" }
}

variable "v221" { 
      type discrete[3] { "s0" "s1" "s2" }
}

variable "v8" { 
      type discrete[3] { "s0" "s1" "s2" }
}

variable "v9" { 
      type discrete[3] { "s0" "s1" "s2" }
}

variable "v229" { 
      type discrete[3] { "s0" "s1" "s2" }
}

variable "v7" { 
      type discrete[3] { "s0" "s1" "s2" }
}

variable "v2" { 
      type discrete[3] { "s0" "s1" "s2" }
}

probability( "v0" ) {
      table  0.2780 0.3280 0.3940;
}

probability( "v4" | "v0" ) {
        ("s0") 0.0863 0.9065 0.0072;
        ("s1") 0.1494 0.8384 0.0122;
        ("s2") 0.1650 0.1091 0.7259;
}

probability( "v6" | "v0" ) {
        ("s0") 0.2230 0.7194 0.0576;
        ("s1") 0.2622 0.7012 0.0366;
        ("s2") 0.2335 0.7437 0.0228;
}

probability( "v221" | "v0" ) {
        ("s0") 0.0079 0.9077 0.0844;
        ("s1") 0.0051 0.1610 0.8339;
        ("s2") 0.8708 0.0040 0.1252;
}

probability( "v8" | "v221" ) {
        ("s0") 0.0167 0.9522 0.0311;
        ("s1") 0.0646 0.0004 0.9350;
        ("s2") 0.8269 0.0476 0.1254;
}

probability( "v9" | "v221" ) {
        ("s0") 0.1458 0.8072 0.0469;
        ("s1") 0.1405 0.8541 0.0054;
        ("s2") 0.0471 0.0576 0.8953;
}

probability( "v229" | "v0" ) {
        ("s0") 0.9226 0.0656 0.0118;
        ("s1") 0.0024 0.9958 0.0018;
        ("s2") 0.1071 0.0000 0.8929;
}

probability( "v7" | "v229" ) {
        ("s0") 0.7381 0.0258 0.2360;
        ("s1") 0.6570 0.0175 0.3255;
        ("s2") 0.7265 0.0287 0.2448;
}

probability( "v2" | "v229" ) {
        ("s0") 0.0002 0.1014 0.8983;
        ("s1") 0.8726 0.0990 0.0284;
        ("s2") 0.0000 0.9741 0.0259;
}

//Loglikelihood:  -4646.767016482114
//Score        :  -4819.460898456668
//LoglikelihoodOfPreviousModel:  -1645.1427033170628
