// HNB model in the BIF format
// Produced by the HNB package

network "HLCM225952" {}

variable "v0" { 
      type discrete[3] { "s0" "s1" "s2" }
}

variable "v2" { 
      type discrete[3] { "s0" "s1" "s2" }
}

variable "v221" { 
      type discrete[3] { "s0" "s1" "s2" }
}

variable "v8" { 
      type discrete[3] { "s0" "s1" "s2" }
}

variable "v9" { 
      type discrete[3] { "s0" "s1" "s2" }
}

variable "v235" { 
      type discrete[3] { "s0" "s1" "s2" }
}

variable "v4" { 
      type discrete[3] { "s0" "s1" "s2" }
}

variable "v6" { 
      type discrete[3] { "s0" "s1" "s2" }
}

variable "v7" { 
      type discrete[3] { "s0" "s1" "s2" }
}

probability( "v0" ) {
      table  0.2780 0.3280 0.3940;
}

probability( "v2" | "v0" ) {
        ("s0") 0.0576 0.1115 0.8309;
        ("s1") 0.8689 0.1006 0.0305;
        ("s2") 0.0000 0.8807 0.1193;
}

probability( "v221" | "v0" ) {
        ("s0") 0.0084 0.0844 0.9072;
        ("s1") 0.0052 0.8339 0.1610;
        ("s2") 0.8751 0.1249 0.0001;
}

probability( "v8" | "v221" ) {
        ("s0") 0.0170 0.9476 0.0354;
        ("s1") 0.8273 0.0475 0.1252;
        ("s2") 0.0646 0.0000 0.9354;
}

probability( "v9" | "v221" ) {
        ("s0") 0.1457 0.8072 0.0471;
        ("s1") 0.0471 0.0576 0.8953;
        ("s2") 0.1405 0.8541 0.0054;
}

probability( "v235" | "v0" ) {
        ("s0") 0.0711 0.0023 0.9265;
        ("s1") 0.1502 0.0061 0.8438;
        ("s2") 0.0443 0.8596 0.0961;
}

probability( "v4" | "v235" ) {
        ("s0") 0.5972 0.3868 0.0160;
        ("s1") 0.1421 0.0158 0.8421;
        ("s2") 0.0662 0.9283 0.0055;
}

probability( "v6" | "v235" ) {
        ("s0") 0.9035 0.0938 0.0027;
        ("s1") 0.2131 0.7664 0.0205;
        ("s2") 0.1558 0.7922 0.0520;
}

probability( "v7" | "v235" ) {
        ("s0") 0.0303 0.0254 0.9442;
        ("s1") 0.7482 0.0307 0.2211;
        ("s2") 0.7829 0.0198 0.1973;
}

//Loglikelihood:  -4584.216715428849
//Score        :  -4756.910597403403
//LoglikelihoodOfPreviousModel:  -1539.6991121998942
