// HNB model in the BIF format
// Produced by the HNB package

network "HLCM1816388" {}

variable "class" { 
      type discrete[2] { "s0" "s1" }
}

variable "a1" { 
      type discrete[3] { "s0" "s1" "s2" }
}

variable "a3" { 
      type discrete[2] { "s0" "s1" }
}

variable "a6" { 
      type discrete[2] { "s0" "s1" }
}

variable "v860" { 
      type discrete[5] { "s0" "s1" "s2" "s3" "s4" }
}

variable "a2" { 
      type discrete[3] { "s0" "s1" "s2" }
}

variable "a5" { 
      type discrete[4] { "s0" "s1" "s2" "s3" }
}

variable "a4" { 
      type discrete[3] { "s0" "s1" "s2" }
}

probability( "class" ) {
      table  0.4612 0.5388;
}

probability( "a1" | "class" ) {
        ("s0") 0.3491 0.3405 0.3103;
        ("s1") 0.3506 0.3247 0.3247;
}

probability( "a3" | "class" ) {
        ("s0") 0.4957 0.5043;
        ("s1") 0.5018 0.4982;
}

probability( "a6" | "class" ) {
        ("s0") 0.5043 0.4957;
        ("s1") 0.4760 0.5240;
}

probability( "v860" | "class" ) {
        ("s0") 0.0000 0.5590 0.0000 0.4410 0.0000;
        ("s1") 0.0689 0.0000 0.4226 0.0000 0.5085;
}

probability( "a2" | "v860" ) {
        ("s0") 0.0000 0.1970 0.8030;
        ("s1") 0.0000 0.0166 0.9834;
        ("s2") 0.5755 0.4245 0.0000;
        ("s3") 0.4300 0.3700 0.2000;
        ("s4") 0.4506 0.5494 0.0000;
}

probability( "a5" | "v860" ) {
        ("s0") 0.0000 0.0000 0.9465 0.0535;
        ("s1") 0.3007 0.3162 0.2168 0.1663;
        ("s2") 0.3449 0.3581 0.2970 0.0000;
        ("s3") 0.0000 0.0000 0.0380 0.9620;
        ("s4") 0.3665 0.2975 0.3360 0.0000;
}

probability( "a4" | "v860" ) {
        ("s0") 1.0000 0.0000 0.0000;
        ("s1") 0.2508 0.3785 0.3708;
        ("s2") 0.6419 0.1720 0.1861;
        ("s3") 0.3272 0.3510 0.3217;
        ("s4") 0.0567 0.4448 0.4985;
}

//Loglikelihood:  0.0
//Score        :  1.0
//LoglikelihoodOfPreviousModel:  -8093.4349416069135
