// HNB model in the BIF format
// Produced by the HNB package

network "HLCM490986" {}

variable "v0" { 
      type discrete[3] { "s0" "s1" "s2" }
}

variable "v2" { 
      type discrete[3] { "s0" "s1" "s2" }
}

variable "v248" { 
      type discrete[3] { "s0" "s1" "s2" }
}

variable "v229" { 
      type discrete[2] { "s0" "s1" }
}

variable "v8" { 
      type discrete[3] { "s0" "s1" "s2" }
}

variable "v9" { 
      type discrete[3] { "s0" "s1" "s2" }
}

variable "v234" { 
      type discrete[2] { "s0" "s1" }
}

variable "v245" { 
      type discrete[2] { "s0" "s1" }
}

variable "v4" { 
      type discrete[3] { "s0" "s1" "s2" }
}

variable "v212" { 
      type discrete[3] { "s0" "s1" "s2" }
}

variable "v6" { 
      type discrete[3] { "s0" "s1" "s2" }
}

variable "v7" { 
      type discrete[3] { "s0" "s1" "s2" }
}

probability( "v0" ) {
      table  0.3240 0.4044 0.2716;
}

probability( "v2" | "v0" ) {
        ("s0") 0.5812 0.3592 0.0597;
        ("s1") 0.3126 0.3313 0.3561;
        ("s2") 0.0863 0.1967 0.7170;
}

probability( "v248" | "v0" ) {
        ("s0") 0.8947 0.0590 0.0463;
        ("s1") 0.0781 0.8549 0.0669;
        ("s2") 0.0540 0.0346 0.9114;
}

probability( "v229" | "v248" ) {
        ("s0") 0.5588 0.4412;
        ("s1") 0.9823 0.0177;
        ("s2") 0.7731 0.2269;
}

probability( "v8" | "v229" ) {
        ("s0") 0.1450 0.2416 0.6134;
        ("s1") 0.5700 0.4271 0.0029;
}

probability( "v9" | "v229" ) {
        ("s0") 0.4809 0.3939 0.1252;
        ("s1") 0.1280 0.7109 0.1611;
}

probability( "v234" | "v248" ) {
        ("s0") 0.8329 0.1671;
        ("s1") 0.7718 0.2282;
        ("s2") 0.0592 0.9408;
}

probability( "v245" | "v234" ) {
        ("s0") 0.7958 0.2042;
        ("s1") 0.0487 0.9513;
}

probability( "v4" | "v245" ) {
        ("s0") 0.3594 0.5602 0.0804;
        ("s1") 0.4611 0.0223 0.5166;
}

probability( "v212" | "v245" ) {
        ("s0") 0.0046 0.4390 0.5564;
        ("s1") 0.3291 0.2710 0.3999;
}

probability( "v6" | "v212" ) {
        ("s0") 0.0000 0.5735 0.4264;
        ("s1") 0.0048 0.5747 0.4205;
        ("s2") 0.5248 0.1180 0.3572;
}

probability( "v7" | "v212" ) {
        ("s0") 0.2351 0.6199 0.1450;
        ("s1") 0.0338 0.3258 0.6404;
        ("s2") 0.3128 0.0436 0.6436;
}

//Loglikelihood:  -707274.3734653553
//Score        :  -707562.1966019796
//LoglikelihoodOfPreviousModel:  -201390.77286651343
