// HNB model in the BIF format
// Produced by the HNB package

network "HLCM381322" {}

variable "v0" { 
      type discrete[3] { "s0" "s1" "s2" }
}

variable "v229" { 
      type discrete[3] { "s0" "s1" "s2" }
}

variable "v8" { 
      type discrete[3] { "s0" "s1" "s2" }
}

variable "v9" { 
      type discrete[3] { "s0" "s1" "s2" }
}

variable "v234" { 
      type discrete[3] { "s0" "s1" "s2" }
}

variable "v245" { 
      type discrete[2] { "s0" "s1" }
}

variable "v4" { 
      type discrete[3] { "s0" "s1" "s2" }
}

variable "v212" { 
      type discrete[3] { "s0" "s1" "s2" }
}

variable "v6" { 
      type discrete[3] { "s0" "s1" "s2" }
}

variable "v7" { 
      type discrete[3] { "s0" "s1" "s2" }
}

variable "v2" { 
      type discrete[3] { "s0" "s1" "s2" }
}

probability( "v0" ) {
      table  0.3240 0.4044 0.2716;
}

probability( "v229" | "v0" ) {
        ("s0") 0.5518 0.3931 0.0550;
        ("s1") 0.4430 0.0566 0.5005;
        ("s2") 0.5080 0.2205 0.2715;
}

probability( "v8" | "v229" ) {
        ("s0") 0.1915 0.2344 0.5741;
        ("s1") 0.5307 0.4279 0.0414;
        ("s2") 0.1098 0.2599 0.6304;
}

probability( "v9" | "v229" ) {
        ("s0") 0.5338 0.3189 0.1473;
        ("s1") 0.0679 0.7773 0.1549;
        ("s2") 0.4222 0.4842 0.0936;
}

probability( "v234" | "v0" ) {
        ("s0") 0.1297 0.8698 0.0005;
        ("s1") 0.7523 0.2215 0.0262;
        ("s2") 0.0093 0.0010 0.9897;
}

probability( "v245" | "v234" ) {
        ("s0") 0.6017 0.3983;
        ("s1") 0.6367 0.3633;
        ("s2") 0.1323 0.8677;
}

probability( "v4" | "v245" ) {
        ("s0") 0.3590 0.5597 0.0812;
        ("s1") 0.4609 0.0258 0.5133;
}

probability( "v212" | "v245" ) {
        ("s0") 0.4493 0.4153 0.1355;
        ("s1") 0.1984 0.3258 0.4758;
}

probability( "v6" | "v212" ) {
        ("s0") 0.1390 0.4624 0.3987;
        ("s1") 0.5595 0.0847 0.3558;
        ("s2") 0.0020 0.5719 0.4261;
}

probability( "v7" | "v212" ) {
        ("s0") 0.0089 0.2019 0.7892;
        ("s1") 0.3753 0.0106 0.6141;
        ("s2") 0.1918 0.5571 0.2511;
}

probability( "v2" | "v234" ) {
        ("s0") 0.2257 0.3261 0.4482;
        ("s1") 0.6344 0.3643 0.0013;
        ("s2") 0.0846 0.1954 0.7200;
}

//Loglikelihood:  -707188.540883174
//Score        :  -707505.1463334607
//LoglikelihoodOfPreviousModel:  -309028.7212712121
