// HNB model in the BIF format
// Produced by the HNB package

network "HLCM193403" {}

variable "v0" { 
      type discrete[3] { "s0" "s1" "s2" }
}

variable "v4" { 
      type discrete[3] { "s0" "s1" "s2" }
}

variable "v229" { 
      type discrete[3] { "s0" "s1" "s2" }
}

variable "v8" { 
      type discrete[3] { "s0" "s1" "s2" }
}

variable "v9" { 
      type discrete[3] { "s0" "s1" "s2" }
}

variable "v236" { 
      type discrete[4] { "s0" "s1" "s2" "s3" }
}

variable "v2" { 
      type discrete[3] { "s0" "s1" "s2" }
}

variable "v212" { 
      type discrete[3] { "s0" "s1" "s2" }
}

variable "v6" { 
      type discrete[3] { "s0" "s1" "s2" }
}

variable "v7" { 
      type discrete[3] { "s0" "s1" "s2" }
}

probability( "v0" ) {
      table  0.3240 0.4044 0.2716;
}

probability( "v4" | "v0" ) {
        ("s0") 0.3971 0.3676 0.2352;
        ("s1") 0.4015 0.3408 0.2578;
        ("s2") 0.4441 0.0995 0.4564;
}

probability( "v229" | "v0" ) {
        ("s0") 0.3187 0.2960 0.3853;
        ("s1") 0.7832 0.1679 0.0490;
        ("s2") 0.5475 0.2393 0.2132;
}

probability( "v8" | "v229" ) {
        ("s0") 0.1375 0.2576 0.6049;
        ("s1") 0.2065 0.2086 0.5848;
        ("s2") 0.5593 0.4361 0.0045;
}

probability( "v9" | "v229" ) {
        ("s0") 0.4489 0.4463 0.1048;
        ("s1") 0.5691 0.2462 0.1847;
        ("s2") 0.0868 0.7590 0.1542;
}

probability( "v236" | "v0" ) {
        ("s0") 0.5582 0.0230 0.3690 0.0498;
        ("s1") 0.2226 0.1794 0.1852 0.4128;
        ("s2") 0.0149 0.9432 0.0053 0.0366;
}

probability( "v2" | "v236" ) {
        ("s0") 0.6368 0.3510 0.0122;
        ("s1") 0.0735 0.1874 0.7391;
        ("s2") 0.5898 0.3837 0.0265;
        ("s3") 0.1182 0.3579 0.5238;
}

probability( "v212" | "v236" ) {
        ("s0") 0.3129 0.1700 0.5171;
        ("s1") 0.5154 0.1585 0.3261;
        ("s2") 0.3195 0.5410 0.1395;
        ("s3") 0.2327 0.3729 0.3944;
}

probability( "v6" | "v212" ) {
        ("s0") 0.0025 0.5704 0.4272;
        ("s1") 0.1212 0.4832 0.3956;
        ("s2") 0.6107 0.0381 0.3512;
}

probability( "v7" | "v212" ) {
        ("s0") 0.1716 0.5057 0.3226;
        ("s1") 0.0485 0.1720 0.7795;
        ("s2") 0.3509 0.0241 0.6251;
}

//Loglikelihood:  -707889.0456580833
//Score        :  -708251.7028102299
//LoglikelihoodOfPreviousModel:  -212893.7973434664
