// HNB model in the BIF format
// Produced by the HNB package

network "HLCM617176" {}

variable "v0" { 
      type discrete[3] { "s0" "s1" "s2" }
}

variable "v234" { 
      type discrete[2] { "s0" "s1" }
}

variable "v4" { 
      type discrete[3] { "s0" "s1" "s2" }
}

variable "v212" { 
      type discrete[3] { "s0" "s1" "s2" }
}

variable "v6" { 
      type discrete[3] { "s0" "s1" "s2" }
}

variable "v7" { 
      type discrete[3] { "s0" "s1" "s2" }
}

variable "v250" { 
      type discrete[3] { "s0" "s1" "s2" }
}

variable "v2" { 
      type discrete[3] { "s0" "s1" "s2" }
}

variable "v229" { 
      type discrete[3] { "s0" "s1" "s2" }
}

variable "v8" { 
      type discrete[3] { "s0" "s1" "s2" }
}

variable "v9" { 
      type discrete[3] { "s0" "s1" "s2" }
}

probability( "v0" ) {
      table  0.3240 0.4044 0.2716;
}

probability( "v234" | "v0" ) {
        ("s0") 0.3159 0.6841;
        ("s1") 0.3638 0.6362;
        ("s2") 0.8157 0.1843;
}

probability( "v4" | "v234" ) {
        ("s0") 0.4648 0.0002 0.5350;
        ("s1") 0.3643 0.5366 0.0991;
}

probability( "v212" | "v234" ) {
        ("s0") 0.2012 0.3151 0.4838;
        ("s1") 0.4583 0.4075 0.1342;
}

probability( "v6" | "v212" ) {
        ("s0") 0.1258 0.4738 0.4004;
        ("s1") 0.5706 0.0749 0.3544;
        ("s2") 0.0047 0.5691 0.4262;
}

probability( "v7" | "v212" ) {
        ("s0") 0.0240 0.2183 0.7578;
        ("s1") 0.3695 0.0070 0.6235;
        ("s2") 0.1958 0.5545 0.2497;
}

probability( "v250" | "v0" ) {
        ("s0") 0.0160 0.9820 0.0021;
        ("s1") 0.8427 0.0665 0.0908;
        ("s2") 0.0827 0.0510 0.8663;
}

probability( "v2" | "v250" ) {
        ("s0") 0.3211 0.3460 0.3330;
        ("s1") 0.5864 0.3599 0.0537;
        ("s2") 0.0345 0.1729 0.7926;
}

probability( "v229" | "v250" ) {
        ("s0") 0.0107 0.8918 0.0975;
        ("s1") 0.4679 0.0871 0.4450;
        ("s2") 0.2504 0.6495 0.1001;
}

probability( "v8" | "v229" ) {
        ("s0") 0.5358 0.4331 0.0312;
        ("s1") 0.1471 0.2524 0.6005;
        ("s2") 0.1395 0.1930 0.6675;
}

probability( "v9" | "v229" ) {
        ("s0") 0.1422 0.7010 0.1569;
        ("s1") 0.4683 0.4152 0.1164;
        ("s2") 0.5270 0.3254 0.1476;
}

//Loglikelihood:  -707199.3974850832
//Score        :  -707516.0029353698
//LoglikelihoodOfPreviousModel:  -413819.8847564378
