// HNB model in the BIF format
// Produced by the HNB package

network "HLCM643871" {}

variable "v0" { 
      type discrete[3] { "s0" "s1" "s2" }
}

variable "v2" { 
      type discrete[3] { "s0" "s1" "s2" }
}

variable "v229" { 
      type discrete[2] { "s0" "s1" }
}

variable "v253" { 
      type discrete[2] { "s0" "s1" }
}

variable "v8" { 
      type discrete[3] { "s0" "s1" "s2" }
}

variable "v9" { 
      type discrete[3] { "s0" "s1" "s2" }
}

variable "v234" { 
      type discrete[2] { "s0" "s1" }
}

variable "v4" { 
      type discrete[3] { "s0" "s1" "s2" }
}

variable "v212" { 
      type discrete[3] { "s0" "s1" "s2" }
}

variable "v6" { 
      type discrete[3] { "s0" "s1" "s2" }
}

variable "v7" { 
      type discrete[3] { "s0" "s1" "s2" }
}

probability( "v0" ) {
      table  0.3240 0.4044 0.2716;
}

probability( "v2" | "v0" ) {
        ("s0") 0.5812 0.3592 0.0597;
        ("s1") 0.3126 0.3313 0.3561;
        ("s2") 0.0863 0.1967 0.7170;
}

probability( "v229" | "v0" ) {
        ("s0") 0.3321 0.6679;
        ("s1") 0.9600 0.0400;
        ("s2") 0.6534 0.3466;
}

probability( "v253" | "v229" ) {
        ("s0") 0.0423 0.9577;
        ("s1") 0.5865 0.4135;
}

probability( "v8" | "v253" ) {
        ("s0") 0.5709 0.4271 0.0021;
        ("s1") 0.1450 0.2418 0.6132;
}

probability( "v9" | "v253" ) {
        ("s0") 0.1279 0.7109 0.1612;
        ("s1") 0.4807 0.3941 0.1251;
}

probability( "v234" | "v0" ) {
        ("s0") 0.6221 0.3779;
        ("s1") 0.5741 0.4259;
        ("s2") 0.1272 0.8728;
}

probability( "v4" | "v234" ) {
        ("s0") 0.3568 0.5723 0.0708;
        ("s1") 0.4599 0.0299 0.5102;
}

probability( "v212" | "v234" ) {
        ("s0") 0.4730 0.0821 0.4448;
        ("s1") 0.3627 0.4587 0.1786;
}

probability( "v6" | "v212" ) {
        ("s0") 0.5355 0.1070 0.3575;
        ("s1") 0.0027 0.5712 0.4260;
        ("s2") 0.0951 0.4994 0.4054;
}

probability( "v7" | "v212" ) {
        ("s0") 0.3497 0.0159 0.6344;
        ("s1") 0.1848 0.5518 0.2634;
        ("s2") 0.0132 0.2620 0.7248;
}

//Loglikelihood:  -707262.7968796673
//Score        :  -707516.0812398967
//LoglikelihoodOfPreviousModel:  -201390.77286651343
