// HNB model in the BIF format
// Produced by the HNB package

network "HLCM4087530" {}

variable "class" { 
      type discrete[2] { "s0" "s1" }
}

variable "v368" { 
      type discrete[7] { "s0" "s1" "s2" "s3" "s4" "s5" "s6" }
}

variable "a1" { 
      type discrete[3] { "s0" "s1" "s2" }
}

variable "v349" { 
      type discrete[5] { "s0" "s1" "s2" "s3" "s4" }
}

variable "a4" { 
      type discrete[3] { "s0" "s1" "s2" }
}

variable "a6" { 
      type discrete[2] { "s0" "s1" }
}

variable "a2" { 
      type discrete[3] { "s0" "s1" "s2" }
}

variable "v410" { 
      type discrete[5] { "s0" "s1" "s2" "s3" "s4" }
}

variable "a5" { 
      type discrete[4] { "s0" "s1" "s2" "s3" }
}

variable "a3" { 
      type discrete[2] { "s0" "s1" }
}

probability( "class" ) {
      table  0.6658 0.3342;
}

probability( "v368" | "class" ) {
        ("s0") 0.1468 0.0000 0.0000 0.4452 0.4060 0.0021 0.0000;
        ("s1") 0.0000 0.2266 0.3594 0.0000 0.0000 0.2344 0.1797;
}

probability( "a1" | "v368" ) {
        ("s0") 0.0000 0.5405 0.4595;
        ("s1") 0.0000 0.5172 0.4828;
        ("s2") 0.0000 0.4783 0.5217;
        ("s3") 0.6041 0.1978 0.1981;
        ("s4") 0.2625 0.3594 0.3781;
        ("s5") 0.4668 0.1999 0.3333;
        ("s6") 1.0000 0.0000 0.0000;
}

probability( "v349" | "v368" ) {
        ("s0") 0.7056 0.0000 0.0001 0.2942 0.0000;
        ("s1") 0.0000 0.4138 0.0000 0.0000 0.5862;
        ("s2") 0.6522 0.0000 0.0000 0.3478 0.0000;
        ("s3") 0.1814 0.2731 0.0255 0.0000 0.5200;
        ("s4") 0.0000 0.0000 0.8362 0.0000 0.1638;
        ("s5") 0.0000 0.0000 1.0000 0.0000 0.0000;
        ("s6") 0.4783 0.0000 0.2609 0.2609 0.0000;
}

probability( "a4" | "v349" ) {
        ("s0") 0.0000 0.5000 0.5000;
        ("s1") 1.0000 0.0000 0.0000;
        ("s2") 0.3016 0.3571 0.3413;
        ("s3") 0.0000 0.5201 0.4799;
        ("s4") 0.4517 0.3208 0.2275;
}

probability( "a6" | "v349" ) {
        ("s0") 1.0000 0.0000;
        ("s1") 1.0000 0.0000;
        ("s2") 0.0000 1.0000;
        ("s3") 0.0000 1.0000;
        ("s4") 0.6668 0.3332;
}

probability( "a2" | "v349" ) {
        ("s0") 0.0000 0.4886 0.5114;
        ("s1") 0.0000 0.4651 0.5349;
        ("s2") 0.0000 0.5079 0.4921;
        ("s3") 1.0000 0.0000 0.0000;
        ("s4") 1.0000 0.0000 0.0000;
}

probability( "v410" | "v368" ) {
        ("s0") 0.5051 0.0000 0.1983 0.0000 0.2966;
        ("s1") 0.8849 0.0000 0.0000 0.0000 0.1151;
        ("s2") 0.0000 0.7391 0.0000 0.2609 0.0000;
        ("s3") 0.1040 0.5172 0.1824 0.1506 0.0458;
        ("s4") 0.0309 0.2706 0.0938 0.1045 0.5003;
        ("s5") 0.0000 0.5660 0.2345 0.1995 0.0000;
        ("s6") 0.5296 0.0000 0.0000 0.0000 0.4704;
}

probability( "a5" | "v410" ) {
        ("s0") 0.0000 0.3198 0.3598 0.3203;
        ("s1") 0.0000 0.3333 0.3406 0.3261;
        ("s2") 1.0000 0.0000 0.0000 0.0000;
        ("s3") 1.0000 0.0000 0.0000 0.0000;
        ("s4") 0.0000 0.3289 0.3427 0.3285;
}

probability( "a3" | "v410" ) {
        ("s0") 0.0000 1.0000;
        ("s1") 1.0000 0.0000;
        ("s2") 1.0000 0.0000;
        ("s3") 0.0000 1.0000;
        ("s4") 0.0000 1.0000;
}

//Loglikelihood:  0.0
//Score        :  0.7959183673469388
//LoglikelihoodOfPreviousModel:  -65384.78990628529
