// HNB model in the BIF format
// Produced by the HNB package

network "HLCM2580143" {}

variable "class" { 
      type discrete[2] { "s0" "s1" }
}

variable "v235" { 
      type discrete[5] { "s0" "s1" "s2" "s3" "s4" }
}

variable "a2" { 
      type discrete[3] { "s0" "s1" "s2" }
}

variable "a1" { 
      type discrete[3] { "s0" "s1" "s2" }
}

variable "v258" { 
      type discrete[4] { "s0" "s1" "s2" "s3" }
}

variable "v216" { 
      type discrete[5] { "s0" "s1" "s2" "s3" "s4" }
}

variable "a3" { 
      type discrete[2] { "s0" "s1" }
}

variable "a6" { 
      type discrete[2] { "s0" "s1" }
}

variable "a4" { 
      type discrete[3] { "s0" "s1" "s2" }
}

variable "a5" { 
      type discrete[4] { "s0" "s1" "s2" "s3" }
}

probability( "class" ) {
      table  0.6744 0.3256;
}

probability( "v235" | "class" ) {
        ("s0") 0.7728 0.0000 0.0000 0.2272 0.0000;
        ("s1") 0.0000 0.4882 0.2598 0.0000 0.2520;
}

probability( "a2" | "v235" ) {
        ("s0") 0.4674 0.2758 0.2568;
        ("s1") 0.0000 0.5000 0.5000;
        ("s2") 1.0000 0.0000 0.0000;
        ("s3") 0.0000 0.5011 0.4989;
        ("s4") 0.1563 0.4375 0.4062;
}

probability( "a1" | "v235" ) {
        ("s0") 0.4576 0.2758 0.2667;
        ("s1") 0.0000 0.5000 0.5000;
        ("s2") 0.0000 0.5152 0.4848;
        ("s3") 0.0000 0.4846 0.5154;
        ("s4") 1.0000 0.0000 0.0000;
}

probability( "v258" | "v235" ) {
        ("s0") 0.1627 0.0000 0.7848 0.0526;
        ("s1") 0.0000 0.0000 1.0000 0.0000;
        ("s2") 0.4296 0.5457 0.0000 0.0247;
        ("s3") 0.2955 0.4309 0.0000 0.2736;
        ("s4") 0.3613 0.4345 0.0000 0.2042;
}

probability( "v216" | "v258" ) {
        ("s0") 0.0000 0.0000 0.0000 0.0000 1.0000;
        ("s1") 0.3233 0.0000 0.0000 0.6754 0.0013;
        ("s2") 0.0000 0.3825 0.5199 0.0976 0.0000;
        ("s3") 0.0000 0.0000 0.0000 0.0175 0.9825;
}

probability( "a3" | "v216" ) {
        ("s0") 0.0000 1.0000;
        ("s1") 0.9521 0.0479;
        ("s2") 0.5913 0.4087;
        ("s3") 0.0000 1.0000;
        ("s4") 0.4373 0.5627;
}

probability( "a6" | "v216" ) {
        ("s0") 0.0000 1.0000;
        ("s1") 0.8117 0.1883;
        ("s2") 0.5824 0.4176;
        ("s3") 1.0000 0.0000;
        ("s4") 0.0000 1.0000;
}

probability( "a4" | "v216" ) {
        ("s0") 1.0000 0.0000 0.0000;
        ("s1") 0.0001 0.4807 0.5192;
        ("s2") 0.9843 0.0037 0.0120;
        ("s3") 0.0000 0.4945 0.5055;
        ("s4") 0.0000 0.5040 0.4960;
}

probability( "a5" | "v258" ) {
        ("s0") 0.2784 0.2007 0.2529 0.2679;
        ("s1") 0.0000 0.3259 0.3308 0.3433;
        ("s2") 0.3508 0.2158 0.2142 0.2192;
        ("s3") 0.0000 0.3799 0.2372 0.3829;
}

//Loglikelihood:  0.0
//Score        :  0.8333333333333334
//LoglikelihoodOfPreviousModel:  -68101.98324661695
