// HNB model in the BIF format
// Produced by the HNB package

network "HLCM1589608" {}

variable "class" { 
      type discrete[2] { "s0" "s1" }
}

variable "v100" { 
      type discrete[7] { "s0" "s1" "s2" "s3" "s4" "s5" "s6" }
}

variable "v81" { 
      type discrete[6] { "s0" "s1" "s2" "s3" "s4" "s5" }
}

variable "a1" { 
      type discrete[3] { "s0" "s1" "s2" }
}

variable "v126" { 
      type discrete[5] { "s0" "s1" "s2" "s3" "s4" }
}

variable "a3" { 
      type discrete[2] { "s0" "s1" }
}

variable "a6" { 
      type discrete[2] { "s0" "s1" }
}

variable "v114" { 
      type discrete[4] { "s0" "s1" "s2" "s3" }
}

variable "a4" { 
      type discrete[3] { "s0" "s1" "s2" }
}

variable "a2" { 
      type discrete[3] { "s0" "s1" "s2" }
}

variable "a5" { 
      type discrete[4] { "s0" "s1" "s2" "s3" }
}

probability( "class" ) {
      table  0.6701 0.3299;
}

probability( "v100" | "class" ) {
        ("s0") 0.1877 0.0000 0.0962 0.4853 0.0000 0.2308 0.0000;
        ("s1") 0.0000 0.3438 0.0000 0.0000 0.1953 0.0000 0.4609;
}

probability( "v81" | "v100" ) {
        ("s0") 0.0000 0.0000 0.2492 0.0000 0.7508 0.0000;
        ("s1") 0.5000 0.0000 0.0000 0.0000 0.0000 0.5000;
        ("s2") 0.3200 0.0000 0.1600 0.0000 0.2000 0.3200;
        ("s3") 0.3011 0.0846 0.1071 0.2219 0.0000 0.2853;
        ("s4") 0.0000 0.2143 0.0000 0.5600 0.2257 0.0000;
        ("s5") 0.0000 0.2361 0.0720 0.6833 0.0085 0.0000;
        ("s6") 0.0000 0.2256 0.0000 0.7627 0.0116 0.0000;
}

probability( "a1" | "v81" ) {
        ("s0") 1.0000 0.0000 0.0000;
        ("s1") 0.7583 0.0403 0.2014;
        ("s2") 1.0000 0.0000 0.0000;
        ("s3") 0.0000 0.5156 0.4844;
        ("s4") 0.0000 0.5208 0.4792;
        ("s5") 0.0000 0.4848 0.5152;
}

probability( "v126" | "v81" ) {
        ("s0") 0.5147 0.0000 0.4405 0.0000 0.0448;
        ("s1") 0.0000 0.0000 0.0000 1.0000 0.0000;
        ("s2") 0.0000 1.0000 0.0000 0.0000 0.0000;
        ("s3") 0.5078 0.0000 0.4047 0.0000 0.0875;
        ("s4") 0.0000 0.0000 0.0000 1.0000 0.0000;
        ("s5") 0.0000 1.0000 0.0000 0.0000 0.0000;
}

probability( "a3" | "v126" ) {
        ("s0") 1.0000 0.0000;
        ("s1") 1.0000 0.0000;
        ("s2") 0.0000 1.0000;
        ("s3") 0.0000 1.0000;
        ("s4") 0.0000 1.0000;
}

probability( "a6" | "v126" ) {
        ("s0") 0.0000 1.0000;
        ("s1") 1.0000 0.0000;
        ("s2") 1.0000 0.0000;
        ("s3") 0.0000 1.0000;
        ("s4") 1.0000 0.0000;
}

probability( "v114" | "v100" ) {
        ("s0") 0.2693 0.2594 0.2123 0.2589;
        ("s1") 0.0000 0.0000 0.5286 0.4714;
        ("s2") 0.0000 0.0000 0.5765 0.4235;
        ("s3") 0.6724 0.3276 0.0000 0.0000;
        ("s4") 0.1600 0.1200 0.4771 0.2429;
        ("s5") 0.0001 0.0000 0.5783 0.4216;
        ("s6") 0.5254 0.4746 0.0000 0.0000;
}

probability( "a4" | "v114" ) {
        ("s0") 0.3308 0.3459 0.3233;
        ("s1") 1.0000 0.0000 0.0000;
        ("s2") 0.0000 0.3046 0.6954;
        ("s3") 0.0000 0.7190 0.2810;
}

probability( "a2" | "v114" ) {
        ("s0") 1.0000 0.0000 0.0000;
        ("s1") 0.0000 0.5059 0.4941;
        ("s2") 0.0000 0.5047 0.4953;
        ("s3") 0.0000 0.5074 0.4926;
}

probability( "a5" | "v100" ) {
        ("s0") 0.0000 0.3178 0.3320 0.3502;
        ("s1") 0.0000 0.3409 0.3409 0.3182;
        ("s2") 1.0000 0.0000 0.0000 0.0000;
        ("s3") 0.3725 0.2100 0.2173 0.2002;
        ("s4") 1.0000 0.0000 0.0000 0.0000;
        ("s5") 0.0000 0.3499 0.3228 0.3273;
        ("s6") 0.0000 0.3220 0.3390 0.3390;
}

//Loglikelihood:  0.0
//Score        :  0.8863636363636364
//LoglikelihoodOfPreviousModel:  -65336.140379584074
