// HNB model in the BIF format
// Produced by the HNB package

network "HLCM832848" {}

variable "class" { 
      type discrete[2] { "s0" "s1" }
}

variable "a3" { 
      type discrete[2] { "s0" "s1" }
}

variable "a6" { 
      type discrete[2] { "s0" "s1" }
}

variable "v312" { 
      type discrete[6] { "s0" "s1" "s2" "s3" "s4" "s5" }
}

variable "a2" { 
      type discrete[3] { "s0" "s1" "s2" }
}

variable "a5" { 
      type discrete[4] { "s0" "s1" "s2" "s3" }
}

variable "a4" { 
      type discrete[3] { "s0" "s1" "s2" }
}

variable "a1" { 
      type discrete[3] { "s0" "s1" "s2" }
}

probability( "class" ) {
      table  0.4820 0.5180;
}

probability( "a3" | "class" ) {
        ("s0") 0.5021 0.4979;
        ("s1") 0.5019 0.4981;
}

probability( "a6" | "class" ) {
        ("s0") 0.5145 0.4855;
        ("s1") 0.4903 0.5097;
}

probability( "v312" | "class" ) {
        ("s0") 0.5057 0.0000 0.3536 0.1407 0.0000 0.0000;
        ("s1") 0.0000 0.5502 0.0000 0.0000 0.4074 0.0425;
}

probability( "a2" | "v312" ) {
        ("s0") 0.0000 0.0000 1.0000;
        ("s1") 0.5109 0.4891 0.0000;
        ("s2") 0.5281 0.4716 0.0003;
        ("s3") 0.0000 0.0829 0.9171;
        ("s4") 0.4473 0.5527 0.0000;
        ("s5") 0.0000 0.0000 1.0000;
}

probability( "a5" | "v312" ) {
        ("s0") 0.3611 0.3198 0.0000 0.3191;
        ("s1") 0.3734 0.2994 0.3272 0.0000;
        ("s2") 0.0000 0.0000 0.0172 0.9828;
        ("s3") 0.0000 0.0008 0.9003 0.0989;
        ("s4") 0.3109 0.4202 0.2689 0.0000;
        ("s5") 0.0000 0.0000 0.9091 0.0909;
}

probability( "a4" | "v312" ) {
        ("s0") 0.3528 0.3214 0.3258;
        ("s1") 0.3731 0.3357 0.2912;
        ("s2") 0.3404 0.3407 0.3189;
        ("s3") 0.0000 0.5541 0.4459;
        ("s4") 0.2733 0.3333 0.3933;
        ("s5") 1.0000 0.0000 0.0000;
}

probability( "a1" | "v312" ) {
        ("s0") 0.3292 0.3520 0.3188;
        ("s1") 0.1294 0.4974 0.3732;
        ("s2") 0.3648 0.3193 0.3159;
        ("s3") 0.3183 0.3508 0.3309;
        ("s4") 0.6971 0.0676 0.2353;
        ("s5") 0.1818 0.4545 0.3636;
}

//Loglikelihood:  0.0
//Score        :  0.9814814814814815
//LoglikelihoodOfPreviousModel:  -18706.115844130407
