// HNB model in the BIF format
// Produced by the HNB package

network "HLCM1006157" {}

variable "class" { 
      type discrete[2] { "s0" "s1" }
}

variable "a1" { 
      type discrete[3] { "s0" "s1" "s2" }
}

variable "a3" { 
      type discrete[2] { "s0" "s1" }
}

variable "a6" { 
      type discrete[2] { "s0" "s1" }
}

variable "v426" { 
      type discrete[5] { "s0" "s1" "s2" "s3" "s4" }
}

variable "a2" { 
      type discrete[3] { "s0" "s1" "s2" }
}

variable "a5" { 
      type discrete[4] { "s0" "s1" "s2" "s3" }
}

variable "a4" { 
      type discrete[3] { "s0" "s1" "s2" }
}

probability( "class" ) {
      table  0.4822 0.5178;
}

probability( "a1" | "class" ) {
        ("s0") 0.3361 0.3361 0.3279;
        ("s1") 0.3282 0.3397 0.3321;
}

probability( "a3" | "class" ) {
        ("s0") 0.5164 0.4836;
        ("s1") 0.5153 0.4847;
}

probability( "a6" | "class" ) {
        ("s0") 0.5123 0.4877;
        ("s1") 0.4962 0.5038;
}

probability( "v426" | "class" ) {
        ("s0") 0.4283 0.1984 0.0000 0.0000 0.3733;
        ("s1") 0.0000 0.0000 0.9427 0.0573 0.0000;
}

probability( "a2" | "v426" ) {
        ("s0") 0.4114 0.3629 0.2256;
        ("s1") 0.0000 0.0840 0.9160;
        ("s2") 0.5101 0.4899 0.0000;
        ("s3") 0.0000 0.0000 1.0000;
        ("s4") 0.0000 0.0000 1.0000;
}

probability( "a5" | "v426" ) {
        ("s0") 0.0000 0.0000 0.0154 0.9846;
        ("s1") 0.0000 0.1863 0.7105 0.1032;
        ("s2") 0.3563 0.3441 0.2996 0.0000;
        ("s3") 0.0000 0.0000 0.9333 0.0667;
        ("s4") 0.4941 0.3621 0.0000 0.1438;
}

probability( "a4" | "v426" ) {
        ("s0") 0.3454 0.3057 0.3488;
        ("s1") 0.0000 0.5332 0.4668;
        ("s2") 0.3077 0.3320 0.3603;
        ("s3") 1.0000 0.0000 0.0000;
        ("s4") 0.3722 0.2881 0.3398;
}

//Loglikelihood:  0.0
//Score        :  1.0
//LoglikelihoodOfPreviousModel:  -24469.207828937066
