// HNB model in the BIF format
// Produced by the HNB package

network "HLCM100010" {}

variable "v0" { 
      type discrete[3] { "s0" "s1" "s2" }
}

variable "v4" { 
      type discrete[3] { "s0" "s1" "s2" }
}

variable "v6" { 
      type discrete[3] { "s0" "s1" "s2" }
}

variable "v7" { 
      type discrete[3] { "s0" "s1" "s2" }
}

variable "v2" { 
      type discrete[3] { "s0" "s1" "s2" }
}

variable "v221" { 
      type discrete[3] { "s0" "s1" "s2" }
}

variable "v232" { 
      type discrete[3] { "s0" "s1" "s2" }
}

variable "v8" { 
      type discrete[3] { "s0" "s1" "s2" }
}

variable "v9" { 
      type discrete[3] { "s0" "s1" "s2" }
}

probability( "v0" ) {
      table  0.2767 0.3503 0.3730;
}

probability( "v4" | "v0" ) {
        ("s0") 0.1142 0.8720 0.0138;
        ("s1") 0.1763 0.8063 0.0174;
        ("s2") 0.1526 0.0950 0.7524;
}

probability( "v6" | "v0" ) {
        ("s0") 0.2354 0.7272 0.0374;
        ("s1") 0.2761 0.6826 0.0413;
        ("s2") 0.2219 0.7376 0.0405;
}

probability( "v7" | "v0" ) {
        ("s0") 0.6959 0.0283 0.2757;
        ("s1") 0.6582 0.0271 0.3147;
        ("s2") 0.7310 0.0264 0.2426;
}

probability( "v2" | "v0" ) {
        ("s0") 0.0630 0.1043 0.8327;
        ("s1") 0.8158 0.1380 0.0462;
        ("s2") 0.0063 0.8700 0.1237;
}

probability( "v221" | "v0" ) {
        ("s0") 0.0110 0.0818 0.9072;
        ("s1") 0.0085 0.9730 0.0185;
        ("s2") 0.9363 0.0632 0.0004;
}

probability( "v232" | "v221" ) {
        ("s0") 0.9413 0.0051 0.0536;
        ("s1") 0.0093 0.1536 0.8372;
        ("s2") 0.0024 0.9949 0.0028;
}

probability( "v8" | "v232" ) {
        ("s0") 0.0086 0.9730 0.0184;
        ("s1") 0.0537 0.0010 0.9453;
        ("s2") 0.8118 0.0623 0.1259;
}

probability( "v9" | "v232" ) {
        ("s0") 0.1360 0.8319 0.0321;
        ("s1") 0.1248 0.8669 0.0083;
        ("s2") 0.0407 0.0614 0.8979;
}

//Loglikelihood:  -236871.01365376601
//Score        :  -237141.50811087628
//LoglikelihoodOfPreviousModel:  -83587.56238311804
