// HNB model in the BIF format
// Produced by the HNB package

network "HLCM69403" {}

variable "v0" { 
      type discrete[3] { "s0" "s1" "s2" }
}

variable "v4" { 
      type discrete[3] { "s0" "s1" "s2" }
}

variable "v7" { 
      type discrete[3] { "s0" "s1" "s2" }
}

variable "v221" { 
      type discrete[3] { "s0" "s1" "s2" }
}

variable "v8" { 
      type discrete[3] { "s0" "s1" "s2" }
}

variable "v9" { 
      type discrete[3] { "s0" "s1" "s2" }
}

variable "v227" { 
      type discrete[3] { "s0" "s1" "s2" }
}

variable "v6" { 
      type discrete[3] { "s0" "s1" "s2" }
}

variable "v2" { 
      type discrete[3] { "s0" "s1" "s2" }
}

probability( "v0" ) {
      table  0.2658 0.3528 0.3814;
}

probability( "v4" | "v0" ) {
        ("s0") 0.1136 0.8706 0.0158;
        ("s1") 0.1825 0.8010 0.0164;
        ("s2") 0.1494 0.0970 0.7535;
}

probability( "v7" | "v0" ) {
        ("s0") 0.7043 0.0263 0.2694;
        ("s1") 0.6667 0.0255 0.3078;
        ("s2") 0.7315 0.0257 0.2428;
}

probability( "v221" | "v0" ) {
        ("s0") 0.0632 0.0016 0.9352;
        ("s1") 0.8174 0.0116 0.1710;
        ("s2") 0.1164 0.8625 0.0211;
}

probability( "v8" | "v221" ) {
        ("s0") 0.8197 0.0696 0.1107;
        ("s1") 0.0050 0.9832 0.0118;
        ("s2") 0.0649 0.0134 0.9218;
}

probability( "v9" | "v221" ) {
        ("s0") 0.0334 0.0650 0.9015;
        ("s1") 0.1185 0.8474 0.0341;
        ("s2") 0.1432 0.8484 0.0084;
}

probability( "v227" | "v0" ) {
        ("s0") 0.0798 0.0261 0.8941;
        ("s1") 0.9684 0.0284 0.0032;
        ("s2") 0.0045 0.8722 0.1233;
}

probability( "v6" | "v227" ) {
        ("s0") 0.2893 0.6681 0.0426;
        ("s1") 0.2216 0.7358 0.0426;
        ("s2") 0.2486 0.6996 0.0517;
}

probability( "v2" | "v227" ) {
        ("s0") 0.8435 0.1071 0.0494;
        ("s1") 0.0000 0.9723 0.0276;
        ("s2") 0.0079 0.0799 0.9122;
}

//Loglikelihood:  -23866.36424345579
//Score        :  -24079.2940732412
//LoglikelihoodOfPreviousModel:  -8373.0473553871
