// HNB model in the BIF format
// Produced by the HNB package

network "HLCM1514900" {}

variable "class" { 
      type discrete[2] { "s0" "s1" }
}

variable "a1" { 
      type discrete[3] { "s0" "s1" "s2" }
}

variable "a3" { 
      type discrete[2] { "s0" "s1" }
}

variable "a6" { 
      type discrete[2] { "s0" "s1" }
}

variable "v1038" { 
      type discrete[5] { "s0" "s1" "s2" "s3" "s4" }
}

variable "a2" { 
      type discrete[3] { "s0" "s1" "s2" }
}

variable "a5" { 
      type discrete[4] { "s0" "s1" "s2" "s3" }
}

variable "a4" { 
      type discrete[3] { "s0" "s1" "s2" }
}

probability( "class" ) {
      table  0.4672 0.5328;
}

probability( "a1" | "class" ) {
        ("s0") 0.3377 0.3421 0.3202;
        ("s1") 0.3769 0.3000 0.3231;
}

probability( "a3" | "class" ) {
        ("s0") 0.4868 0.5132;
        ("s1") 0.5038 0.4962;
}

probability( "a6" | "class" ) {
        ("s0") 0.5132 0.4868;
        ("s1") 0.4769 0.5231;
}

probability( "v1038" | "class" ) {
        ("s0") 0.3024 0.0000 0.2304 0.4672 0.0000;
        ("s1") 0.0000 0.9462 0.0000 0.0000 0.0538;
}

probability( "a2" | "v1038" ) {
        ("s0") 0.0000 0.0000 1.0000;
        ("s1") 0.4919 0.5081 0.0000;
        ("s2") 0.0000 0.0534 0.9466;
        ("s3") 0.3943 0.3492 0.2566;
        ("s4") 0.0000 0.0000 1.0000;
}

probability( "a5" | "v1038" ) {
        ("s0") 0.4093 0.4312 0.0000 0.1594;
        ("s1") 0.3577 0.3171 0.3252 0.0000;
        ("s2") 0.1671 0.1955 0.5782 0.0592;
        ("s3") 0.0000 0.0000 0.0153 0.9847;
        ("s4") 0.0000 0.0000 0.9286 0.0714;
}

probability( "a4" | "v1038" ) {
        ("s0") 0.4496 0.2333 0.3171;
        ("s1") 0.3333 0.3252 0.3415;
        ("s2") 0.0000 0.5308 0.4692;
        ("s3") 0.3661 0.3195 0.3144;
        ("s4") 1.0000 0.0000 0.0000;
}

//Loglikelihood:  0.0
//Score        :  0.9848484848484849
//LoglikelihoodOfPreviousModel:  -2616.1060811809166
