// HNB model in the BIF format
// Produced by the HNB package

network "HLCM1375595" {}

variable "class" { 
      type discrete[2] { "s0" "s1" }
}

variable "a1" { 
      type discrete[3] { "s0" "s1" "s2" }
}

variable "a3" { 
      type discrete[2] { "s0" "s1" }
}

variable "a6" { 
      type discrete[2] { "s0" "s1" }
}

variable "v933" { 
      type discrete[4] { "s0" "s1" "s2" "s3" }
}

variable "a2" { 
      type discrete[3] { "s0" "s1" "s2" }
}

variable "a5" { 
      type discrete[4] { "s0" "s1" "s2" "s3" }
}

variable "a4" { 
      type discrete[3] { "s0" "s1" "s2" }
}

probability( "class" ) {
      table  0.4802 0.5198;
}

probability( "a1" | "class" ) {
        ("s0") 0.3306 0.3512 0.3182;
        ("s1") 0.3473 0.3359 0.3168;
}

probability( "a3" | "class" ) {
        ("s0") 0.5041 0.4959;
        ("s1") 0.5267 0.4733;
}

probability( "a6" | "class" ) {
        ("s0") 0.5083 0.4917;
        ("s1") 0.4809 0.5191;
}

probability( "v933" | "class" ) {
        ("s0") 0.5444 0.0000 0.0000 0.4556;
        ("s1") 0.0000 0.9314 0.0686 0.0000;
}

probability( "a2" | "v933" ) {
        ("s0") 0.0000 0.0138 0.9862;
        ("s1") 0.4918 0.5082 0.0000;
        ("s2") 0.0000 0.2215 0.7785;
        ("s3") 0.3991 0.3735 0.2274;
}

probability( "a5" | "v933" ) {
        ("s0") 0.3416 0.3340 0.2028 0.1216;
        ("s1") 0.3442 0.3565 0.2992 0.0000;
        ("s2") 0.0000 0.0000 1.0000 0.0000;
        ("s3") 0.0000 0.0000 0.0388 0.9612;
}

probability( "a4" | "v933" ) {
        ("s0") 0.2593 0.3657 0.3750;
        ("s1") 0.3238 0.3360 0.3401;
        ("s2") 1.0000 0.0000 0.0000;
        ("s3") 0.3250 0.3250 0.3500;
}

//Loglikelihood:  0.0
//Score        :  0.98
//LoglikelihoodOfPreviousModel:  -2706.7809265062465
