// HNB model in the BIF format
// Produced by the HNB package

network "HLCM155502" {}

variable "v0" { 
      type discrete[3] { "s0" "s1" "s2" }
}

variable "v29" { 
      type discrete[2] { "s0" "s1" }
}

variable "v8" { 
      type discrete[3] { "s0" "s1" "s2" }
}

variable "v9" { 
      type discrete[3] { "s0" "s1" "s2" }
}

variable "v42" { 
      type discrete[3] { "s0" "s1" "s2" }
}

variable "v2" { 
      type discrete[3] { "s0" "s1" "s2" }
}

variable "v34" { 
      type discrete[2] { "s0" "s1" }
}

variable "v4" { 
      type discrete[3] { "s0" "s1" "s2" }
}

variable "v12" { 
      type discrete[2] { "s0" "s1" }
}

variable "v6" { 
      type discrete[3] { "s0" "s1" "s2" }
}

variable "v7" { 
      type discrete[3] { "s0" "s1" "s2" }
}

probability( "v0" ) {
      table  0.3160 0.4340 0.2500;
}

probability( "v29" | "v0" ) {
        ("s0") 0.3975 0.6025;
        ("s1") 0.1877 0.8123;
        ("s2") 0.4337 0.5663;
}

probability( "v8" | "v29" ) {
        ("s0") 0.4713 0.4588 0.0699;
        ("s1") 0.1071 0.2283 0.6646;
}

probability( "v9" | "v29" ) {
        ("s0") 0.1777 0.6203 0.2020;
        ("s1") 0.4981 0.3934 0.1085;
}

probability( "v42" | "v0" ) {
        ("s0") 0.9153 0.0554 0.0292;
        ("s1") 0.4636 0.5023 0.0342;
        ("s2") 0.0000 0.0105 0.9895;
}

probability( "v2" | "v42" ) {
        ("s0") 0.6039 0.3959 0.0001;
        ("s1") 0.0818 0.2094 0.7089;
        ("s2") 0.1044 0.1841 0.7116;
}

probability( "v34" | "v42" ) {
        ("s0") 0.4872 0.5128;
        ("s1") 0.3117 0.6883;
        ("s2") 0.9021 0.0979;
}

probability( "v4" | "v34" ) {
        ("s0") 0.4230 0.0644 0.5127;
        ("s1") 0.3823 0.5794 0.0383;
}

probability( "v12" | "v34" ) {
        ("s0") 0.6065 0.3935;
        ("s1") 0.8285 0.1715;
}

probability( "v6" | "v12" ) {
        ("s0") 0.3475 0.2728 0.3797;
        ("s1") 0.0140 0.5275 0.4585;
}

probability( "v7" | "v12" ) {
        ("s0") 0.2793 0.0148 0.7060;
        ("s1") 0.0075 0.8044 0.1881;
}

//Loglikelihood:  -7088.627166388024
//Score        :  -7233.690027246649
//LoglikelihoodOfPreviousModel:  -3090.72056366022
