// HNB model in the BIF format
// Produced by the HNB package

network "HLCM303717" {}

variable "v0" { 
      type discrete[3] { "s0" "s1" "s2" }
}

variable "v2" { 
      type discrete[3] { "s0" "s1" "s2" }
}

variable "v221" { 
      type discrete[3] { "s0" "s1" "s2" }
}

variable "v8" { 
      type discrete[3] { "s0" "s1" "s2" }
}

variable "v9" { 
      type discrete[3] { "s0" "s1" "s2" }
}

variable "v235" { 
      type discrete[3] { "s0" "s1" "s2" }
}

variable "v245" { 
      type discrete[3] { "s0" "s1" "s2" }
}

variable "v4" { 
      type discrete[3] { "s0" "s1" "s2" }
}

variable "v226" { 
      type discrete[2] { "s0" "s1" }
}

variable "v6" { 
      type discrete[3] { "s0" "s1" "s2" }
}

variable "v7" { 
      type discrete[3] { "s0" "s1" "s2" }
}

probability( "v0" ) {
      table  0.2767 0.3503 0.3730;
}

probability( "v2" | "v0" ) {
        ("s0") 0.0630 0.1043 0.8327;
        ("s1") 0.8158 0.1380 0.0462;
        ("s2") 0.0063 0.8700 0.1237;
}

probability( "v221" | "v0" ) {
        ("s0") 0.0069 0.9213 0.0718;
        ("s1") 0.0159 0.1690 0.8151;
        ("s2") 0.8856 0.0114 0.1030;
}

probability( "v8" | "v221" ) {
        ("s0") 0.0088 0.9689 0.0223;
        ("s1") 0.0534 0.0076 0.9390;
        ("s2") 0.8118 0.0624 0.1259;
}

probability( "v9" | "v221" ) {
        ("s0") 0.1363 0.8316 0.0321;
        ("s1") 0.1246 0.8672 0.0082;
        ("s2") 0.0407 0.0614 0.8979;
}

probability( "v235" | "v0" ) {
        ("s0") 0.0413 0.0097 0.9491;
        ("s1") 0.1872 0.0086 0.8042;
        ("s2") 0.0349 0.9646 0.0005;
}

probability( "v245" | "v235" ) {
        ("s0") 0.5954 0.3942 0.0104;
        ("s1") 0.0370 0.0787 0.8843;
        ("s2") 0.0775 0.9221 0.0004;
}

probability( "v4" | "v245" ) {
        ("s0") 0.8772 0.0765 0.0464;
        ("s1") 0.0288 0.9703 0.0010;
        ("s2") 0.1175 0.0041 0.8785;
}

probability( "v226" | "v245" ) {
        ("s0") 0.2245 0.7755;
        ("s1") 0.8988 0.1012;
        ("s2") 0.9157 0.0843;
}

probability( "v6" | "v226" ) {
        ("s0") 0.1292 0.8350 0.0358;
        ("s1") 0.8107 0.1293 0.0600;
}

probability( "v7" | "v226" ) {
        ("s0") 0.8068 0.0213 0.1720;
        ("s1") 0.1516 0.0562 0.7922;
}

//Loglikelihood:  -232241.5574751545
//Score        :  -232539.10137797578
//LoglikelihoodOfPreviousModel:  -80181.42437167752
