// HNB model in the BIF format
// Produced by the HNB package

network "HLCM243551" {}

variable "v0" { 
      type discrete[3] { "s0" "s1" "s2" }
}

variable "v2" { 
      type discrete[3] { "s0" "s1" "s2" }
}

variable "v221" { 
      type discrete[3] { "s0" "s1" "s2" }
}

variable "v8" { 
      type discrete[3] { "s0" "s1" "s2" }
}

variable "v9" { 
      type discrete[3] { "s0" "s1" "s2" }
}

variable "v235" { 
      type discrete[3] { "s0" "s1" "s2" }
}

variable "v226" { 
      type discrete[4] { "s0" "s1" "s2" "s3" }
}

variable "v6" { 
      type discrete[3] { "s0" "s1" "s2" }
}

variable "v7" { 
      type discrete[3] { "s0" "s1" "s2" }
}

variable "v4" { 
      type discrete[3] { "s0" "s1" "s2" }
}

probability( "v0" ) {
      table  0.2767 0.3503 0.3730;
}

probability( "v2" | "v0" ) {
        ("s0") 0.0630 0.1043 0.8327;
        ("s1") 0.8158 0.1380 0.0462;
        ("s2") 0.0063 0.8700 0.1237;
}

probability( "v221" | "v0" ) {
        ("s0") 0.0717 0.0100 0.9183;
        ("s1") 0.8151 0.0166 0.1683;
        ("s2") 0.1028 0.8914 0.0057;
}

probability( "v8" | "v221" ) {
        ("s0") 0.8120 0.0623 0.1257;
        ("s1") 0.0091 0.9627 0.0282;
        ("s2") 0.0535 0.0045 0.9420;
}

probability( "v9" | "v221" ) {
        ("s0") 0.0407 0.0614 0.8979;
        ("s1") 0.1363 0.8316 0.0321;
        ("s2") 0.1245 0.8673 0.0082;
}

probability( "v235" | "v0" ) {
        ("s0") 0.8043 0.0126 0.1831;
        ("s1") 0.5712 0.0153 0.4135;
        ("s2") 0.0004 0.9972 0.0024;
}

probability( "v226" | "v235" ) {
        ("s0") 0.0991 0.9008 0.0001 0.0000;
        ("s1") 0.0227 0.0185 0.1222 0.8365;
        ("s2") 0.4212 0.5776 0.0002 0.0010;
}

probability( "v6" | "v226" ) {
        ("s0") 0.8098 0.1316 0.0586;
        ("s1") 0.1203 0.8451 0.0346;
        ("s2") 0.7237 0.2098 0.0665;
        ("s3") 0.1339 0.8295 0.0366;
}

probability( "v7" | "v226" ) {
        ("s0") 0.1553 0.0540 0.7907;
        ("s1") 0.8048 0.0210 0.1742;
        ("s2") 0.2244 0.0588 0.7168;
        ("s3") 0.8192 0.0211 0.1597;
}

probability( "v4" | "v226" ) {
        ("s0") 0.4988 0.4768 0.0244;
        ("s1") 0.0609 0.9391 0.0000;
        ("s2") 0.3374 0.0000 0.6625;
        ("s3") 0.1178 0.0778 0.8044;
}

//Loglikelihood:  -232271.96388051784
//Score        :  -232623.60667476116
//LoglikelihoodOfPreviousModel:  -80181.42437167752
