// HNB model in the BIF format
// Produced by the HNB package

network "HLCM83491" {}

variable "v0" { 
      type discrete[3] { "s0" "s1" "s2" }
}

variable "v4" { 
      type discrete[3] { "s0" "s1" "s2" }
}

variable "v7" { 
      type discrete[3] { "s0" "s1" "s2" }
}

variable "v2" { 
      type discrete[3] { "s0" "s1" "s2" }
}

variable "v228" { 
      type discrete[3] { "s0" "s1" "s2" }
}

variable "v6" { 
      type discrete[3] { "s0" "s1" "s2" }
}

variable "v221" { 
      type discrete[3] { "s0" "s1" "s2" }
}

variable "v8" { 
      type discrete[3] { "s0" "s1" "s2" }
}

variable "v9" { 
      type discrete[3] { "s0" "s1" "s2" }
}

probability( "v0" ) {
      table  0.2767 0.3503 0.3730;
}

probability( "v4" | "v0" ) {
        ("s0") 0.1142 0.8720 0.0138;
        ("s1") 0.1763 0.8063 0.0174;
        ("s2") 0.1526 0.0950 0.7524;
}

probability( "v7" | "v0" ) {
        ("s0") 0.6959 0.0283 0.2757;
        ("s1") 0.6582 0.0271 0.3147;
        ("s2") 0.7310 0.0264 0.2426;
}

probability( "v2" | "v0" ) {
        ("s0") 0.0630 0.1043 0.8327;
        ("s1") 0.8158 0.1380 0.0462;
        ("s2") 0.0063 0.8700 0.1237;
}

probability( "v228" | "v0" ) {
        ("s0") 0.0012 0.0675 0.9314;
        ("s1") 0.0023 0.9853 0.0124;
        ("s2") 0.9580 0.0313 0.0107;
}

probability( "v6" | "v228" ) {
        ("s0") 0.2199 0.7399 0.0402;
        ("s1") 0.2760 0.6826 0.0413;
        ("s2") 0.2337 0.7288 0.0375;
}

probability( "v221" | "v228" ) {
        ("s0") 0.0001 0.0804 0.9195;
        ("s1") 0.1581 0.8268 0.0151;
        ("s2") 0.9702 0.0169 0.0129;
}

probability( "v8" | "v221" ) {
        ("s0") 0.0538 0.0001 0.9461;
        ("s1") 0.8118 0.0622 0.1260;
        ("s2") 0.0085 0.9735 0.0179;
}

probability( "v9" | "v221" ) {
        ("s0") 0.1249 0.8669 0.0082;
        ("s1") 0.0407 0.0614 0.8979;
        ("s2") 0.1360 0.8319 0.0321;
}

//Loglikelihood:  -236870.55672600385
//Score        :  -237141.05118311412
//LoglikelihoodOfPreviousModel:  -83587.56238311804
