// HNB model in the BIF format
// Produced by the HNB package

network "HLCM69232" {}

variable "v0" { 
      type discrete[3] { "s0" "s1" "s2" }
}

variable "v6" { 
      type discrete[3] { "s0" "s1" "s2" }
}

variable "v7" { 
      type discrete[3] { "s0" "s1" "s2" }
}

variable "v221" { 
      type discrete[3] { "s0" "s1" "s2" }
}

variable "v8" { 
      type discrete[3] { "s0" "s1" "s2" }
}

variable "v9" { 
      type discrete[3] { "s0" "s1" "s2" }
}

variable "v224" { 
      type discrete[3] { "s0" "s1" "s2" }
}

variable "v4" { 
      type discrete[3] { "s0" "s1" "s2" }
}

variable "v2" { 
      type discrete[3] { "s0" "s1" "s2" }
}

probability( "v0" ) {
      table  0.2767 0.3503 0.3730;
}

probability( "v6" | "v0" ) {
        ("s0") 0.2354 0.7272 0.0374;
        ("s1") 0.2761 0.6826 0.0413;
        ("s2") 0.2219 0.7376 0.0405;
}

probability( "v7" | "v0" ) {
        ("s0") 0.6959 0.0283 0.2757;
        ("s1") 0.6582 0.0271 0.3147;
        ("s2") 0.7310 0.0264 0.2426;
}

probability( "v221" | "v0" ) {
        ("s0") 0.0716 0.9157 0.0127;
        ("s1") 0.8150 0.1678 0.0171;
        ("s2") 0.1027 0.0032 0.8941;
}

probability( "v8" | "v221" ) {
        ("s0") 0.8121 0.0623 0.1256;
        ("s1") 0.0537 0.0018 0.9445;
        ("s2") 0.0092 0.9598 0.0309;
}

probability( "v9" | "v221" ) {
        ("s0") 0.0407 0.0614 0.8979;
        ("s1") 0.1244 0.8673 0.0083;
        ("s2") 0.1362 0.8317 0.0321;
}

probability( "v224" | "v0" ) {
        ("s0") 0.0012 0.9786 0.0203;
        ("s1") 0.0006 0.0195 0.9799;
        ("s2") 0.9999 0.0000 0.0001;
}

probability( "v4" | "v224" ) {
        ("s0") 0.1526 0.0949 0.7525;
        ("s1") 0.1132 0.8741 0.0127;
        ("s2") 0.1773 0.8056 0.0171;
}

probability( "v2" | "v224" ) {
        ("s0") 0.0062 0.8700 0.1238;
        ("s1") 0.0472 0.1027 0.8501;
        ("s2") 0.8316 0.1382 0.0302;
}

//Loglikelihood:  -236866.8480864189
//Score        :  -237137.34254352917
//LoglikelihoodOfPreviousModel:  -90090.66822948935
