// HNB model in the BIF format
// Produced by the HNB package

network "HLCM194051" {}

variable "v0" { 
      type discrete[3] { "s0" "s1" "s2" }
}

variable "v234" { 
      type discrete[2] { "s0" "s1" }
}

variable "v4" { 
      type discrete[3] { "s0" "s1" "s2" }
}

variable "v212" { 
      type discrete[3] { "s0" "s1" "s2" }
}

variable "v6" { 
      type discrete[3] { "s0" "s1" "s2" }
}

variable "v7" { 
      type discrete[3] { "s0" "s1" "s2" }
}

variable "v241" { 
      type discrete[3] { "s0" "s1" "s2" }
}

variable "v2" { 
      type discrete[3] { "s0" "s1" "s2" }
}

variable "v229" { 
      type discrete[2] { "s0" "s1" }
}

variable "v8" { 
      type discrete[3] { "s0" "s1" "s2" }
}

variable "v9" { 
      type discrete[3] { "s0" "s1" "s2" }
}

probability( "v0" ) {
      table  0.3200 0.4094 0.2706;
}

probability( "v234" | "v0" ) {
        ("s0") 0.3425 0.6575;
        ("s1") 0.4411 0.5589;
        ("s2") 0.8392 0.1608;
}

probability( "v4" | "v234" ) {
        ("s0") 0.4374 0.0133 0.5493;
        ("s1") 0.3541 0.5952 0.0507;
}

probability( "v212" | "v234" ) {
        ("s0") 0.3220 0.3479 0.3301;
        ("s1") 0.4703 0.0794 0.4503;
}

probability( "v6" | "v212" ) {
        ("s0") 0.0720 0.5426 0.3854;
        ("s1") 0.0125 0.5153 0.4722;
        ("s2") 0.5991 0.0530 0.3479;
}

probability( "v7" | "v212" ) {
        ("s0") 0.0164 0.2875 0.6961;
        ("s1") 0.2952 0.5741 0.1307;
        ("s2") 0.3393 0.0075 0.6531;
}

probability( "v241" | "v0" ) {
        ("s0") 0.0008 0.9992 0.0000;
        ("s1") 0.9475 0.0405 0.0120;
        ("s2") 0.0503 0.1158 0.8339;
}

probability( "v2" | "v241" ) {
        ("s0") 0.2913 0.3406 0.3681;
        ("s1") 0.5740 0.3619 0.0641;
        ("s2") 0.0005 0.1489 0.8506;
}

probability( "v229" | "v241" ) {
        ("s0") 0.9240 0.0760;
        ("s1") 0.5661 0.4339;
        ("s2") 0.7259 0.2741;
}

probability( "v8" | "v229" ) {
        ("s0") 0.1414 0.2213 0.6373;
        ("s1") 0.5015 0.4569 0.0416;
}

probability( "v9" | "v229" ) {
        ("s0") 0.4980 0.3746 0.1274;
        ("s1") 0.1284 0.7371 0.1346;
}

//Loglikelihood:  -35305.336169079295
//Score        :  -35509.748805673284
//LoglikelihoodOfPreviousModel:  -20708.846516772348
