// HNB model in the BIF format
// Produced by the HNB package

network "HLCM316730" {}

variable "v0" { 
      type discrete[3] { "s0" "s1" "s2" }
}

variable "v2" { 
      type discrete[3] { "s0" "s1" "s2" }
}

variable "v229" { 
      type discrete[2] { "s0" "s1" }
}

variable "v244" { 
      type discrete[2] { "s0" "s1" }
}

variable "v8" { 
      type discrete[3] { "s0" "s1" "s2" }
}

variable "v9" { 
      type discrete[3] { "s0" "s1" "s2" }
}

variable "v234" { 
      type discrete[2] { "s0" "s1" }
}

variable "v4" { 
      type discrete[3] { "s0" "s1" "s2" }
}

variable "v212" { 
      type discrete[3] { "s0" "s1" "s2" }
}

variable "v6" { 
      type discrete[3] { "s0" "s1" "s2" }
}

variable "v7" { 
      type discrete[3] { "s0" "s1" "s2" }
}

probability( "v0" ) {
      table  0.3226 0.4073 0.2700;
}

probability( "v2" | "v0" ) {
        ("s0") 0.5831 0.3579 0.0590;
        ("s1") 0.3091 0.3298 0.3611;
        ("s2") 0.0861 0.1943 0.7197;
}

probability( "v229" | "v0" ) {
        ("s0") 0.9861 0.0139;
        ("s1") 0.1787 0.8213;
        ("s2") 0.5419 0.4581;
}

probability( "v244" | "v229" ) {
        ("s0") 0.5596 0.4404;
        ("s1") 0.9847 0.0153;
}

probability( "v8" | "v244" ) {
        ("s0") 0.1297 0.2363 0.6339;
        ("s1") 0.5574 0.4313 0.0113;
}

probability( "v9" | "v244" ) {
        ("s0") 0.4869 0.3894 0.1237;
        ("s1") 0.1501 0.6967 0.1532;
}

probability( "v234" | "v0" ) {
        ("s0") 0.3465 0.6535;
        ("s1") 0.3979 0.6021;
        ("s2") 0.8470 0.1530;
}

probability( "v4" | "v234" ) {
        ("s0") 0.4580 0.0210 0.5210;
        ("s1") 0.3612 0.5509 0.0879;
}

probability( "v212" | "v234" ) {
        ("s0") 0.1670 0.3299 0.5031;
        ("s1") 0.4286 0.4097 0.1617;
}

probability( "v6" | "v212" ) {
        ("s0") 0.1409 0.4601 0.3990;
        ("s1") 0.5650 0.0791 0.3559;
        ("s2") 0.0000 0.5717 0.4283;
}

probability( "v7" | "v212" ) {
        ("s0") 0.0144 0.1802 0.8054;
        ("s1") 0.3691 0.0201 0.6108;
        ("s2") 0.1709 0.5542 0.2750;
}

//Loglikelihood:  -353268.2702600396
//Score        :  -353506.3053822966
//LoglikelihoodOfPreviousModel:  -100593.13984068825
