// HNB model in the BIF format
// Produced by the HNB package

network "HLCM316725" {}

variable "class" { 
      type discrete[2] { "s0" "s1" }
}

variable "a1" { 
      type discrete[3] { "s0" "s1" "s2" }
}

variable "a3" { 
      type discrete[2] { "s0" "s1" }
}

variable "a4" { 
      type discrete[3] { "s0" "s1" "s2" }
}

variable "a6" { 
      type discrete[2] { "s0" "s1" }
}

variable "v365" { 
      type discrete[3] { "s0" "s1" "s2" }
}

variable "a2" { 
      type discrete[3] { "s0" "s1" "s2" }
}

variable "a5" { 
      type discrete[4] { "s0" "s1" "s2" "s3" }
}

probability( "class" ) {
      table  0.4791 0.5209;
}

probability( "a1" | "class" ) {
        ("s0") 0.3385 0.3282 0.3333;
        ("s1") 0.3255 0.3349 0.3396;
}

probability( "a3" | "class" ) {
        ("s0") 0.5026 0.4974;
        ("s1") 0.4811 0.5189;
}

probability( "a4" | "class" ) {
        ("s0") 0.2821 0.3590 0.3590;
        ("s1") 0.3585 0.3208 0.3208;
}

probability( "a6" | "class" ) {
        ("s0") 0.4974 0.5026;
        ("s1") 0.4906 0.5094;
}

probability( "v365" | "class" ) {
        ("s0") 0.5173 0.0000 0.4827;
        ("s1") 0.0000 1.0000 0.0000;
}

probability( "a2" | "v365" ) {
        ("s0") 0.0000 0.0000 1.0000;
        ("s1") 0.4717 0.4764 0.0519;
        ("s2") 0.3612 0.3825 0.2563;
}

probability( "a5" | "v365" ) {
        ("s0") 0.3172 0.3371 0.2379 0.1078;
        ("s1") 0.3208 0.3113 0.3679 0.0000;
        ("s2") 0.0000 0.0000 0.0000 1.0000;
}

//Loglikelihood:  0.0
//Score        :  0.96
//LoglikelihoodOfPreviousModel:  -728.8424829668564
