// HNB model in the BIF format
// Produced by the HNB package

network "HLCM67471" {}

variable "v0" { 
      type discrete[3] { "s0" "s1" "s2" }
}

variable "v6" { 
      type discrete[3] { "s0" "s1" "s2" }
}

variable "v2" { 
      type discrete[3] { "s0" "s1" "s2" }
}

variable "v221" { 
      type discrete[3] { "s0" "s1" "s2" }
}

variable "v8" { 
      type discrete[3] { "s0" "s1" "s2" }
}

variable "v9" { 
      type discrete[3] { "s0" "s1" "s2" }
}

variable "v223" { 
      type discrete[3] { "s0" "s1" "s2" }
}

variable "v4" { 
      type discrete[3] { "s0" "s1" "s2" }
}

variable "v7" { 
      type discrete[3] { "s0" "s1" "s2" }
}

probability( "v0" ) {
      table  0.2700 0.3576 0.3724;
}

probability( "v6" | "v0" ) {
        ("s0") 0.2374 0.7241 0.0385;
        ("s1") 0.2746 0.6860 0.0394;
        ("s2") 0.2182 0.7420 0.0398;
}

probability( "v2" | "v0" ) {
        ("s0") 0.0704 0.1081 0.8214;
        ("s1") 0.8166 0.1339 0.0496;
        ("s2") 0.0070 0.8680 0.1250;
}

probability( "v221" | "v0" ) {
        ("s0") 0.9198 0.0158 0.0644;
        ("s1") 0.1627 0.0162 0.8210;
        ("s2") 0.0005 0.8910 0.1085;
}

probability( "v8" | "v221" ) {
        ("s0") 0.0536 0.0005 0.9459;
        ("s1") 0.0071 0.9586 0.0343;
        ("s2") 0.8116 0.0633 0.1250;
}

probability( "v9" | "v221" ) {
        ("s0") 0.1302 0.8585 0.0113;
        ("s1") 0.1415 0.8252 0.0333;
        ("s2") 0.0420 0.0636 0.8943;
}

probability( "v223" | "v0" ) {
        ("s0") 0.0125 0.0969 0.8907;
        ("s1") 0.0111 0.1751 0.8138;
        ("s2") 0.9349 0.0593 0.0057;
}

probability( "v4" | "v223" ) {
        ("s0") 0.1127 0.0893 0.7980;
        ("s1") 0.8240 0.1320 0.0440;
        ("s2") 0.0311 0.9689 0.0000;
}

probability( "v7" | "v223" ) {
        ("s0") 0.7545 0.0274 0.2181;
        ("s1") 0.2949 0.0399 0.6652;
        ("s2") 0.7447 0.0265 0.2288;
}

//Loglikelihood:  -473015.2338179756
//Score        :  -473303.05695459986
//LoglikelihoodOfPreviousModel:  -179722.10044309928
