// HNB model in the BIF format
// Produced by the HNB package

network "HLCM252812" {}

variable "v0" { 
      type discrete[3] { "s0" "s1" "s2" }
}

variable "v2" { 
      type discrete[3] { "s0" "s1" "s2" }
}

variable "v221" { 
      type discrete[3] { "s0" "s1" "s2" }
}

variable "v8" { 
      type discrete[3] { "s0" "s1" "s2" }
}

variable "v9" { 
      type discrete[3] { "s0" "s1" "s2" }
}

variable "v235" { 
      type discrete[3] { "s0" "s1" "s2" }
}

variable "v226" { 
      type discrete[5] { "s0" "s1" "s2" "s3" "s4" }
}

variable "v6" { 
      type discrete[3] { "s0" "s1" "s2" }
}

variable "v7" { 
      type discrete[3] { "s0" "s1" "s2" }
}

variable "v4" { 
      type discrete[3] { "s0" "s1" "s2" }
}

probability( "v0" ) {
      table  0.2700 0.3576 0.3724;
}

probability( "v2" | "v0" ) {
        ("s0") 0.0704 0.1081 0.8214;
        ("s1") 0.8166 0.1339 0.0496;
        ("s2") 0.0070 0.8680 0.1250;
}

probability( "v221" | "v0" ) {
        ("s0") 0.9197 0.0643 0.0160;
        ("s1") 0.1627 0.8210 0.0163;
        ("s2") 0.0008 0.1085 0.8907;
}

probability( "v8" | "v221" ) {
        ("s0") 0.0536 0.0003 0.9461;
        ("s1") 0.8116 0.0633 0.1250;
        ("s2") 0.0071 0.9590 0.0340;
}

probability( "v9" | "v221" ) {
        ("s0") 0.1302 0.8585 0.0113;
        ("s1") 0.0420 0.0636 0.8943;
        ("s2") 0.1416 0.8252 0.0333;
}

probability( "v235" | "v0" ) {
        ("s0") 0.0074 0.9175 0.0751;
        ("s1") 0.0011 0.6691 0.3298;
        ("s2") 0.9119 0.0345 0.0536;
}

probability( "v226" | "v235" ) {
        ("s0") 0.0031 0.0002 0.0256 0.8736 0.0975;
        ("s1") 0.1298 0.0030 0.8637 0.0006 0.0029;
        ("s2") 0.1185 0.2454 0.5939 0.0261 0.0160;
}

probability( "v6" | "v226" ) {
        ("s0") 0.8943 0.0473 0.0584;
        ("s1") 0.7439 0.1923 0.0638;
        ("s2") 0.1205 0.8451 0.0344;
        ("s3") 0.1406 0.8220 0.0374;
        ("s4") 0.8246 0.1197 0.0557;
}

probability( "v7" | "v226" ) {
        ("s0") 0.1387 0.0722 0.7891;
        ("s1") 0.1870 0.0219 0.7912;
        ("s2") 0.8046 0.0216 0.1739;
        ("s3") 0.8090 0.0207 0.1703;
        ("s4") 0.0991 0.0946 0.8063;
}

probability( "v4" | "v226" ) {
        ("s0") 0.3168 0.6733 0.0098;
        ("s1") 0.9444 0.0555 0.0001;
        ("s2") 0.0594 0.9381 0.0025;
        ("s3") 0.1301 0.0070 0.8629;
        ("s4") 0.3176 0.0174 0.6651;
}

//Loglikelihood:  -466000.1942242998
//Score        :  -466426.1724665037
//LoglikelihoodOfPreviousModel:  -161225.11457488535
