// HNB model in the BIF format
// Produced by the HNB package

network "HLCM70973" {}

variable "v0" { 
      type discrete[3] { "s0" "s1" "s2" }
}

variable "v6" { 
      type discrete[3] { "s0" "s1" "s2" }
}

variable "v7" { 
      type discrete[3] { "s0" "s1" "s2" }
}

variable "v221" { 
      type discrete[3] { "s0" "s1" "s2" }
}

variable "v8" { 
      type discrete[3] { "s0" "s1" "s2" }
}

variable "v9" { 
      type discrete[3] { "s0" "s1" "s2" }
}

variable "v224" { 
      type discrete[3] { "s0" "s1" "s2" }
}

variable "v4" { 
      type discrete[3] { "s0" "s1" "s2" }
}

variable "v2" { 
      type discrete[3] { "s0" "s1" "s2" }
}

probability( "v0" ) {
      table  0.2700 0.3576 0.3724;
}

probability( "v6" | "v0" ) {
        ("s0") 0.2374 0.7241 0.0385;
        ("s1") 0.2746 0.6860 0.0394;
        ("s2") 0.2182 0.7420 0.0398;
}

probability( "v7" | "v0" ) {
        ("s0") 0.7032 0.0281 0.2687;
        ("s1") 0.6644 0.0289 0.3067;
        ("s2") 0.7273 0.0280 0.2448;
}

probability( "v221" | "v0" ) {
        ("s0") 0.0647 0.0034 0.9319;
        ("s1") 0.8212 0.0137 0.1651;
        ("s2") 0.1090 0.8737 0.0173;
}

probability( "v8" | "v221" ) {
        ("s0") 0.8110 0.0637 0.1254;
        ("s1") 0.0061 0.9773 0.0166;
        ("s2") 0.0530 0.0129 0.9341;
}

probability( "v9" | "v221" ) {
        ("s0") 0.0421 0.0637 0.8942;
        ("s1") 0.1418 0.8250 0.0332;
        ("s2") 0.1303 0.8584 0.0113;
}

probability( "v224" | "v0" ) {
        ("s0") 0.9799 0.0201 0.0000;
        ("s1") 0.0137 0.9863 0.0000;
        ("s2") 0.0000 0.0002 0.9998;
}

probability( "v4" | "v224" ) {
        ("s0") 0.1087 0.8772 0.0141;
        ("s1") 0.1708 0.8125 0.0166;
        ("s2") 0.1545 0.0967 0.7488;
}

probability( "v2" | "v224" ) {
        ("s0") 0.0549 0.1076 0.8375;
        ("s1") 0.8272 0.1342 0.0386;
        ("s2") 0.0068 0.8681 0.1250;
}

//Loglikelihood:  -475364.77759047743
//Score        :  -475652.6007271017
//LoglikelihoodOfPreviousModel:  -179722.10044309928
