// HNB model in the BIF format
// Produced by the HNB package

network "HLCM316496" {}

variable "v0" { 
      type discrete[3] { "s0" "s1" "s2" }
}

variable "v2" { 
      type discrete[3] { "s0" "s1" "s2" }
}

variable "v221" { 
      type discrete[3] { "s0" "s1" "s2" }
}

variable "v8" { 
      type discrete[3] { "s0" "s1" "s2" }
}

variable "v9" { 
      type discrete[3] { "s0" "s1" "s2" }
}

variable "v235" { 
      type discrete[3] { "s0" "s1" "s2" }
}

variable "v245" { 
      type discrete[3] { "s0" "s1" "s2" }
}

variable "v4" { 
      type discrete[3] { "s0" "s1" "s2" }
}

variable "v226" { 
      type discrete[2] { "s0" "s1" }
}

variable "v6" { 
      type discrete[3] { "s0" "s1" "s2" }
}

variable "v7" { 
      type discrete[3] { "s0" "s1" "s2" }
}

probability( "v0" ) {
      table  0.2700 0.3576 0.3724;
}

probability( "v2" | "v0" ) {
        ("s0") 0.0704 0.1081 0.8214;
        ("s1") 0.8166 0.1339 0.0496;
        ("s2") 0.0070 0.8680 0.1250;
}

probability( "v221" | "v0" ) {
        ("s0") 0.0163 0.9193 0.0643;
        ("s1") 0.0163 0.1627 0.8210;
        ("s2") 0.8915 0.0000 0.1085;
}

probability( "v8" | "v221" ) {
        ("s0") 0.0071 0.9581 0.0348;
        ("s1") 0.0536 0.0000 0.9464;
        ("s2") 0.8117 0.0633 0.1250;
}

probability( "v9" | "v221" ) {
        ("s0") 0.1415 0.8252 0.0333;
        ("s1") 0.1302 0.8585 0.0113;
        ("s2") 0.0420 0.0636 0.8943;
}

probability( "v235" | "v0" ) {
        ("s0") 0.0116 0.0096 0.9789;
        ("s1") 0.0001 0.1660 0.8339;
        ("s2") 0.9077 0.0843 0.0080;
}

probability( "v245" | "v235" ) {
        ("s0") 0.9629 0.0312 0.0060;
        ("s1") 0.0683 0.4043 0.5274;
        ("s2") 0.0000 0.9228 0.0772;
}

probability( "v4" | "v245" ) {
        ("s0") 0.1220 0.0296 0.8484;
        ("s1") 0.0423 0.9575 0.0001;
        ("s2") 0.8744 0.0794 0.0462;
}

probability( "v226" | "v245" ) {
        ("s0") 0.0908 0.9092;
        ("s1") 0.1085 0.8915;
        ("s2") 0.8596 0.1404;
}

probability( "v6" | "v226" ) {
        ("s0") 0.8086 0.1328 0.0586;
        ("s1") 0.1246 0.8401 0.0353;
}

probability( "v7" | "v226" ) {
        ("s0") 0.1561 0.0615 0.7824;
        ("s1") 0.8124 0.0213 0.1663;
}

//Loglikelihood:  -466042.30805476225
//Score        :  -466358.91350504896
//LoglikelihoodOfPreviousModel:  -161225.11457488535
