// HNB model in the BIF format
// Produced by the HNB package

network "HLCM104447" {}

variable "v0" { 
      type discrete[3] { "s0" "s1" "s2" }
}

variable "v4" { 
      type discrete[3] { "s0" "s1" "s2" }
}

variable "v6" { 
      type discrete[3] { "s0" "s1" "s2" }
}

variable "v7" { 
      type discrete[3] { "s0" "s1" "s2" }
}

variable "v2" { 
      type discrete[3] { "s0" "s1" "s2" }
}

variable "v221" { 
      type discrete[3] { "s0" "s1" "s2" }
}

variable "v232" { 
      type discrete[3] { "s0" "s1" "s2" }
}

variable "v8" { 
      type discrete[3] { "s0" "s1" "s2" }
}

variable "v9" { 
      type discrete[3] { "s0" "s1" "s2" }
}

probability( "v0" ) {
      table  0.2700 0.3576 0.3724;
}

probability( "v4" | "v0" ) {
        ("s0") 0.1097 0.8762 0.0142;
        ("s1") 0.1702 0.8132 0.0166;
        ("s2") 0.1545 0.0968 0.7487;
}

probability( "v6" | "v0" ) {
        ("s0") 0.2374 0.7241 0.0385;
        ("s1") 0.2746 0.6860 0.0394;
        ("s2") 0.2182 0.7420 0.0398;
}

probability( "v7" | "v0" ) {
        ("s0") 0.7032 0.0281 0.2687;
        ("s1") 0.6644 0.0289 0.3067;
        ("s2") 0.7273 0.0280 0.2448;
}

probability( "v2" | "v0" ) {
        ("s0") 0.0704 0.1081 0.8214;
        ("s1") 0.8166 0.1339 0.0496;
        ("s2") 0.0070 0.8680 0.1250;
}

probability( "v221" | "v0" ) {
        ("s0") 0.9233 0.0702 0.0066;
        ("s1") 0.0120 0.9800 0.0079;
        ("s2") 0.0050 0.0806 0.9144;
}

probability( "v232" | "v221" ) {
        ("s0") 0.0063 0.9878 0.0059;
        ("s1") 0.0079 0.1547 0.8374;
        ("s2") 0.9483 0.0062 0.0455;
}

probability( "v8" | "v232" ) {
        ("s0") 0.0058 0.9841 0.0101;
        ("s1") 0.0535 0.0034 0.9431;
        ("s2") 0.8110 0.0634 0.1256;
}

probability( "v9" | "v232" ) {
        ("s0") 0.1417 0.8251 0.0332;
        ("s1") 0.1304 0.8583 0.0113;
        ("s2") 0.0421 0.0637 0.8942;
}

//Loglikelihood:  -475364.72090645373
//Score        :  -475652.54404307797
//LoglikelihoodOfPreviousModel:  -166669.079020657
