// HNB model in the BIF format
// Produced by the HNB package

network "HLCM99872" {}

variable "v0" { 
      type discrete[3] { "s0" "s1" "s2" }
}

variable "v4" { 
      type discrete[3] { "s0" "s1" "s2" }
}

variable "v6" { 
      type discrete[3] { "s0" "s1" "s2" }
}

variable "v7" { 
      type discrete[3] { "s0" "s1" "s2" }
}

variable "v231" { 
      type discrete[3] { "s0" "s1" "s2" }
}

variable "v2" { 
      type discrete[3] { "s0" "s1" "s2" }
}

variable "v221" { 
      type discrete[3] { "s0" "s1" "s2" }
}

variable "v8" { 
      type discrete[3] { "s0" "s1" "s2" }
}

variable "v9" { 
      type discrete[3] { "s0" "s1" "s2" }
}

probability( "v0" ) {
      table  0.2700 0.3576 0.3724;
}

probability( "v4" | "v0" ) {
        ("s0") 0.1097 0.8762 0.0142;
        ("s1") 0.1702 0.8132 0.0166;
        ("s2") 0.1545 0.0968 0.7487;
}

probability( "v6" | "v0" ) {
        ("s0") 0.2374 0.7241 0.0385;
        ("s1") 0.2746 0.6860 0.0394;
        ("s2") 0.2182 0.7420 0.0398;
}

probability( "v7" | "v0" ) {
        ("s0") 0.7032 0.0281 0.2687;
        ("s1") 0.6644 0.0289 0.3067;
        ("s2") 0.7273 0.0280 0.2448;
}

probability( "v231" | "v0" ) {
        ("s0") 0.0004 0.9996 0.0000;
        ("s1") 0.9996 0.0003 0.0001;
        ("s2") 0.0002 0.0005 0.9993;
}

probability( "v2" | "v231" ) {
        ("s0") 0.8168 0.1338 0.0493;
        ("s1") 0.0701 0.1081 0.8217;
        ("s2") 0.0068 0.8685 0.1246;
}

probability( "v221" | "v231" ) {
        ("s0") 0.0157 0.1629 0.8213;
        ("s1") 0.0134 0.9225 0.0641;
        ("s2") 0.8884 0.0031 0.1085;
}

probability( "v8" | "v221" ) {
        ("s0") 0.0069 0.9620 0.0310;
        ("s1") 0.0535 0.0029 0.9436;
        ("s2") 0.8115 0.0634 0.1251;
}

probability( "v9" | "v221" ) {
        ("s0") 0.1416 0.8251 0.0332;
        ("s1") 0.1302 0.8585 0.0113;
        ("s2") 0.0420 0.0637 0.8943;
}

//Loglikelihood:  -475363.2398037674
//Score        :  -475651.06294039165
//LoglikelihoodOfPreviousModel:  -166669.079020657
