// HNB model in the BIF format
// Produced by the HNB package

network "HLCM62" {}

variable "class" { 
      type discrete[2] { "s0" "s1" }
}

variable "a1" { 
      type discrete[3] { "s0" "s1" "s2" }
}

variable "a2" { 
      type discrete[3] { "s0" "s1" "s2" }
}

variable "a3" { 
      type discrete[2] { "s0" "s1" }
}

variable "a4" { 
      type discrete[3] { "s0" "s1" "s2" }
}

variable "a5" { 
      type discrete[4] { "s0" "s1" "s2" "s3" }
}

variable "a6" { 
      type discrete[2] { "s0" "s1" }
}

probability( "class" ) {
      table  0.4924 0.5076;
}

probability( "a1" | "class" ) {
        ("s0") 0.3557 0.3299 0.3144;
        ("s1") 0.3300 0.3300 0.3400;
}

probability( "a2" | "class" ) {
        ("s0") 0.3299 0.3402 0.3299;
        ("s1") 0.3400 0.3150 0.3450;
}

probability( "a3" | "class" ) {
        ("s0") 0.4948 0.5052;
        ("s1") 0.5150 0.4850;
}

probability( "a4" | "class" ) {
        ("s0") 0.3247 0.3454 0.3299;
        ("s1") 0.3350 0.3350 0.3300;
}

probability( "a5" | "class" ) {
        ("s0") 0.0000 0.3299 0.3351 0.3351;
        ("s1") 0.4950 0.1750 0.1700 0.1600;
}

probability( "a6" | "class" ) {
        ("s0") 0.5000 0.5000;
        ("s1") 0.5000 0.5000;
}

//Loglikelihood:  -2579.828901108109
//Score        :  0.8157894736842105
//LoglikelihoodOfPreviousModel:  -705.6361364971206
