// HNB model in the BIF format
// Produced by the HNB package

network "HLCM4736446" {}

variable "class" { 
      type discrete[2] { "s0" "s1" }
}

variable "a4" { 
      type discrete[3] { "s0" "s1" "s2" }
}

variable "v528" { 
      type discrete[8] { "s0" "s1" "s2" "s3" "s4" "s5" "s6" "s7" }
}

variable "a5" { 
      type discrete[4] { "s0" "s1" "s2" "s3" }
}

variable "v496" { 
      type discrete[7] { "s0" "s1" "s2" "s3" "s4" "s5" "s6" }
}

variable "a2" { 
      type discrete[3] { "s0" "s1" "s2" }
}

variable "a6" { 
      type discrete[2] { "s0" "s1" }
}

variable "a1" { 
      type discrete[3] { "s0" "s1" "s2" }
}

variable "a3" { 
      type discrete[2] { "s0" "s1" }
}

probability( "class" ) {
      table  0.6728 0.3272;
}

probability( "a4" | "class" ) {
        ("s0") 0.3580 0.3268 0.3152;
        ("s1") 0.3040 0.3440 0.3520;
}

probability( "v528" | "class" ) {
        ("s0") 0.0013 0.2812 0.2459 0.0000 0.2946 0.0000 0.0000 0.1770;
        ("s1") 0.1901 0.0000 0.0000 0.2739 0.0000 0.1520 0.3840 0.0000;
}

probability( "a5" | "v528" ) {
        ("s0") 0.3361 0.2087 0.2042 0.2510;
        ("s1") 0.3339 0.2563 0.2618 0.1479;
        ("s2") 0.4564 0.1712 0.1315 0.2410;
        ("s3") 0.0000 0.3226 0.3549 0.3226;
        ("s4") 0.2199 0.2371 0.2544 0.2886;
        ("s5") 1.0000 0.0000 0.0000 0.0000;
        ("s6") 0.0000 0.2917 0.3333 0.3750;
        ("s7") 0.0721 0.3656 0.2515 0.3107;
}

probability( "v496" | "v528" ) {
        ("s0") 0.0000 0.0000 0.0000 0.0000 0.0000 0.0000 1.0000;
        ("s1") 0.4119 0.0000 0.2027 0.0182 0.0129 0.3473 0.0070;
        ("s2") 0.1394 0.0385 0.5270 0.0191 0.2165 0.0388 0.0208;
        ("s3") 0.0000 0.0000 0.0000 0.6426 0.2629 0.0000 0.0945;
        ("s4") 0.0003 0.0000 0.0038 0.0104 0.0000 0.1477 0.8377;
        ("s5") 0.0000 0.0513 0.0000 0.3684 0.2105 0.0000 0.3697;
        ("s6") 0.2794 0.1875 0.3880 0.0201 0.1250 0.0000 0.0000;
        ("s7") 0.0000 0.0000 0.0000 0.3280 0.1876 0.0530 0.4314;
}

probability( "a2" | "v496" ) {
        ("s0") 0.0000 0.5450 0.4550;
        ("s1") 1.0000 0.0000 0.0000;
        ("s2") 0.5893 0.2251 0.1856;
        ("s3") 0.0000 0.4546 0.5454;
        ("s4") 0.0000 0.5118 0.4882;
        ("s5") 0.9462 0.0277 0.0261;
        ("s6") 0.2538 0.3857 0.3605;
}

probability( "a6" | "v496" ) {
        ("s0") 1.0000 0.0000;
        ("s1") 0.0000 1.0000;
        ("s2") 1.0000 0.0000;
        ("s3") 1.0000 0.0000;
        ("s4") 0.0000 1.0000;
        ("s5") 0.6061 0.3939;
        ("s6") 0.0000 1.0000;
}

probability( "a1" | "v496" ) {
        ("s0") 0.8211 0.0947 0.0842;
        ("s1") 0.4098 0.3399 0.2502;
        ("s2") 0.0000 0.5088 0.4912;
        ("s3") 0.0000 0.4783 0.5217;
        ("s4") 1.0000 0.0000 0.0000;
        ("s5") 0.9739 0.0001 0.0260;
        ("s6") 0.0000 0.4846 0.5154;
}

probability( "a3" | "v528" ) {
        ("s0") 1.0000 0.0000;
        ("s1") 0.6271 0.3729;
        ("s2") 0.7503 0.2497;
        ("s3") 1.0000 0.0000;
        ("s4") 0.4542 0.5458;
        ("s5") 0.0000 1.0000;
        ("s6") 0.0000 1.0000;
        ("s7") 0.0559 0.9441;
}

//Loglikelihood:  0.0
//Score        :  0.76
//LoglikelihoodOfPreviousModel:  -17834.65851143875
