// HNB model in the BIF format
// Produced by the HNB package

network "HLCM2870757" {}

variable "class" { 
      type discrete[2] { "s0" "s1" }
}

variable "v530" { 
      type discrete[6] { "s0" "s1" "s2" "s3" "s4" "s5" }
}

variable "a6" { 
      type discrete[2] { "s0" "s1" }
}

variable "a2" { 
      type discrete[3] { "s0" "s1" "s2" }
}

variable "v598" { 
      type discrete[5] { "s0" "s1" "s2" "s3" "s4" }
}

variable "a1" { 
      type discrete[3] { "s0" "s1" "s2" }
}

variable "v588" { 
      type discrete[3] { "s0" "s1" "s2" }
}

variable "a4" { 
      type discrete[3] { "s0" "s1" "s2" }
}

variable "a5" { 
      type discrete[4] { "s0" "s1" "s2" "s3" }
}

variable "a3" { 
      type discrete[2] { "s0" "s1" }
}

probability( "class" ) {
      table  0.6581 0.3419;
}

probability( "v530" | "class" ) {
        ("s0") 0.0000 0.5311 0.1254 0.3436 0.0000 0.0000;
        ("s1") 0.4385 0.0000 0.0000 0.0000 0.2193 0.3422;
}

probability( "a6" | "v530" ) {
        ("s0") 1.0000 0.0000;
        ("s1") 0.7349 0.2651;
        ("s2") 0.0000 1.0000;
        ("s3") 0.3518 0.6482;
        ("s4") 0.0000 1.0000;
        ("s5") 0.0000 1.0000;
}

probability( "a2" | "v530" ) {
        ("s0") 0.1585 0.4390 0.4024;
        ("s1") 0.4896 0.2608 0.2496;
        ("s2") 0.0000 0.5346 0.4654;
        ("s3") 0.2539 0.3882 0.3579;
        ("s4") 1.0000 0.0000 0.0000;
        ("s5") 0.0000 0.5000 0.5000;
}

probability( "v598" | "v530" ) {
        ("s0") 0.3171 0.0000 0.3537 0.0000 0.3293;
        ("s1") 0.0000 0.2477 0.0592 0.6930 0.0000;
        ("s2") 0.4892 0.0000 0.4279 0.0000 0.0829;
        ("s3") 0.0000 0.0000 0.0000 0.2137 0.7863;
        ("s4") 0.4634 0.0000 0.3659 0.0000 0.1707;
        ("s5") 0.0000 0.2812 0.0000 0.7188 0.0000;
}

probability( "a1" | "v598" ) {
        ("s0") 0.0000 0.4722 0.5278;
        ("s1") 0.6732 0.1623 0.1646;
        ("s2") 0.0000 0.5010 0.4990;
        ("s3") 0.4636 0.2700 0.2664;
        ("s4") 0.3259 0.3556 0.3185;
}

probability( "v588" | "v598" ) {
        ("s0") 1.0000 0.0000 0.0000;
        ("s1") 0.0000 0.7256 0.2744;
        ("s2") 0.0000 0.6101 0.3899;
        ("s3") 0.3558 0.4145 0.2296;
        ("s4") 1.0000 0.0000 0.0000;
}

probability( "a4" | "v588" ) {
        ("s0") 0.0000 0.4836 0.5164;
        ("s1") 1.0000 0.0000 0.0000;
        ("s2") 0.0011 0.4782 0.5207;
}

probability( "a5" | "v588" ) {
        ("s0") 0.0000 0.3345 0.3527 0.3127;
        ("s1") 0.2524 0.2361 0.2698 0.2417;
        ("s2") 1.0000 0.0000 0.0000 0.0000;
}

probability( "a3" | "v598" ) {
        ("s0") 1.0000 0.0000;
        ("s1") 0.0000 1.0000;
        ("s2") 0.0000 1.0000;
        ("s3") 1.0000 0.0000;
        ("s4") 0.0000 1.0000;
}

//Loglikelihood:  0.0
//Score        :  0.8333333333333334
//LoglikelihoodOfPreviousModel:  -10545.62895808881
