// HNB model in the BIF format
// Produced by the HNB package

network "HLCM97456" {}

variable "v0" { 
      type discrete[3] { "s0" "s1" "s2" }
}

variable "v4" { 
      type discrete[3] { "s0" "s1" "s2" }
}

variable "v221" { 
      type discrete[3] { "s0" "s1" "s2" }
}

variable "v8" { 
      type discrete[3] { "s0" "s1" "s2" }
}

variable "v9" { 
      type discrete[3] { "s0" "s1" "s2" }
}

variable "v226" { 
      type discrete[3] { "s0" "s1" "s2" }
}

variable "v6" { 
      type discrete[3] { "s0" "s1" "s2" }
}

variable "v7" { 
      type discrete[3] { "s0" "s1" "s2" }
}

variable "v2" { 
      type discrete[3] { "s0" "s1" "s2" }
}

probability( "v0" ) {
      table  0.2780 0.3280 0.3940;
}

probability( "v4" | "v0" ) {
        ("s0") 0.0863 0.9065 0.0072;
        ("s1") 0.1494 0.8384 0.0122;
        ("s2") 0.1650 0.1091 0.7259;
}

probability( "v221" | "v0" ) {
        ("s0") 0.0081 0.0844 0.9074;
        ("s1") 0.0051 0.8339 0.1610;
        ("s2") 0.8714 0.1252 0.0034;
}

probability( "v8" | "v221" ) {
        ("s0") 0.0168 0.9516 0.0317;
        ("s1") 0.8270 0.0476 0.1254;
        ("s2") 0.0646 0.0002 0.9352;
}

probability( "v9" | "v221" ) {
        ("s0") 0.1458 0.8072 0.0470;
        ("s1") 0.0471 0.0576 0.8953;
        ("s2") 0.1405 0.8541 0.0054;
}

probability( "v226" | "v0" ) {
        ("s0") 0.0623 0.9121 0.0256;
        ("s1") 0.9994 0.0001 0.0005;
        ("s2") 0.0000 0.0048 0.9952;
}

probability( "v6" | "v226" ) {
        ("s0") 0.2562 0.7059 0.0379;
        ("s1") 0.2293 0.7134 0.0573;
        ("s2") 0.2328 0.7439 0.0233;
}

probability( "v7" | "v226" ) {
        ("s0") 0.6566 0.0175 0.3259;
        ("s1") 0.7536 0.0264 0.2200;
        ("s2") 0.7182 0.0281 0.2537;
}

probability( "v2" | "v226" ) {
        ("s0") 0.8695 0.1001 0.0304;
        ("s1") 0.0036 0.0909 0.9055;
        ("s2") 0.0000 0.8845 0.1155;
}

//Loglikelihood:  -4646.921294701249
//Score        :  -4819.615176675803
//LoglikelihoodOfPreviousModel:  -1645.1427033170628
