// HNB model in the BIF format
// Produced by the HNB package

network "HLCM1328003" {}

variable "class" { 
      type discrete[2] { "tested_negative" "tested_positive" }
}

variable "preg" { 
      type discrete[2] { "s1" "s2" }
}

variable "plas" { 
      type discrete[2] { "s1" "s2" }
}

variable "pedi" { 
      type discrete[2] { "s1" "s2" }
}

variable "age" { 
      type discrete[2] { "s1" "s2" }
}

variable "v665" { 
      type discrete[2] { "s0" "s1" }
}

variable "pres" { 
      type discrete[2] { "s1" "s2" }
}

variable "mass" { 
      type discrete[2] { "s1" "s2" }
}

variable "skin" { 
      type discrete[2] { "s1" "s2" }
}

variable "insu" { 
      type discrete[2] { "s1" "s2" }
}

probability( "class" ) {
      table  0.6520 0.3480;
}

probability( "preg" | "class" ) {
        ("tested_negative") 0.9237 0.0763;
        ("tested_positive") 0.8163 0.1837;
}

probability( "plas" | "class" ) {
        ("tested_negative") 0.3638 0.6362;
        ("tested_positive") 0.0612 0.9388;
}

probability( "pedi" | "class" ) {
        ("tested_negative") 0.9782 0.0218;
        ("tested_positive") 0.9551 0.0449;
}

probability( "age" | "class" ) {
        ("tested_negative") 0.9237 0.0763;
        ("tested_positive") 0.8816 0.1184;
}

probability( "v665" | "class" ) {
        ("tested_negative") 0.3611 0.6389;
        ("tested_positive") 0.7579 0.2421;
}

probability( "pres" | "v665" ) {
        ("s0") 0.0993 0.9007;
        ("s1") 0.3179 0.6821;
}

probability( "mass" | "v665" ) {
        ("s0") 0.2857 0.7143;
        ("s1") 0.8866 0.1134;
}

probability( "skin" | "v665" ) {
        ("s0") 0.9687 0.0313;
        ("s1") 1.0000 0.0000;
}

probability( "insu" | "v665" ) {
        ("s0") 0.9602 0.0398;
        ("s1") 1.0000 0.0000;
}

//Loglikelihood:  0.0
//Score        :  0.6875
//LoglikelihoodOfPreviousModel:  -695.4845102155106
