// HNB model in the BIF format
// Produced by the HNB package

network "HLCM577248" {}

variable "class" { 
      type discrete[2] { "s0" "s1" }
}

variable "a3" { 
      type discrete[2] { "s0" "s1" }
}

variable "a6" { 
      type discrete[2] { "s0" "s1" }
}

variable "a1" { 
      type discrete[3] { "s0" "s1" "s2" }
}

variable "v287" { 
      type discrete[5] { "s0" "s1" "s2" "s3" "s4" }
}

variable "a2" { 
      type discrete[3] { "s0" "s1" "s2" }
}

variable "a5" { 
      type discrete[4] { "s0" "s1" "s2" "s3" }
}

variable "a4" { 
      type discrete[3] { "s0" "s1" "s2" }
}

probability( "class" ) {
      table  0.4820 0.5180;
}

probability( "a3" | "class" ) {
        ("s0") 0.5021 0.4979;
        ("s1") 0.5019 0.4981;
}

probability( "a6" | "class" ) {
        ("s0") 0.5145 0.4855;
        ("s1") 0.4903 0.5097;
}

probability( "a1" | "class" ) {
        ("s0") 0.3402 0.3402 0.3195;
        ("s1") 0.3629 0.3205 0.3166;
}

probability( "v287" | "class" ) {
        ("s0") 0.5403 0.0000 0.0000 0.4597 0.0000;
        ("s1") 0.0000 0.0552 0.5296 0.0000 0.4152;
}

probability( "a2" | "v287" ) {
        ("s0") 0.3456 0.3302 0.3242;
        ("s1") 0.0000 0.2306 0.7694;
        ("s2") 0.5472 0.4528 0.0000;
        ("s3") 0.0000 0.0000 1.0000;
        ("s4") 0.4180 0.5820 0.0000;
}

probability( "a5" | "v287" ) {
        ("s0") 0.0000 0.0000 0.0437 0.9563;
        ("s1") 0.0000 0.0000 0.9301 0.0699;
        ("s2") 0.3303 0.3950 0.2747 0.0000;
        ("s3") 0.3972 0.3520 0.2375 0.0133;
        ("s4") 0.3784 0.3052 0.3164 0.0000;
}

probability( "a4" | "v287" ) {
        ("s0") 0.3271 0.3487 0.3241;
        ("s1") 1.0000 0.0000 0.0000;
        ("s2") 0.5541 0.2712 0.1747;
        ("s3") 0.2654 0.3754 0.3592;
        ("s4") 0.0251 0.4259 0.5491;
}

//Loglikelihood:  0.0
//Score        :  0.9814814814814815
//LoglikelihoodOfPreviousModel:  -6235.37194804347
