// HNB model in the BIF format
// Produced by the HNB package

network "HLCM454" {}

variable "Class" { 
      type discrete[2] { "s2" "s4" }
}

variable "ClumpThickness" { 
      type discrete[10] { "s1" "s2" "s3" "s4" "s5" "s6" "s7" "s8" "s9" "s10" }
}

variable "UniformityofCellSize" { 
      type discrete[10] { "s1" "s2" "s3" "s4" "s5" "s6" "s7" "s8" "s9" "s10" }
}

variable "UniformityofCellShape" { 
      type discrete[10] { "s1" "s2" "s3" "s4" "s5" "s6" "s7" "s8" "s9" "s10" }
}

variable "MarginalAdhesion" { 
      type discrete[10] { "s1" "s2" "s3" "s4" "s5" "s6" "s7" "s8" "s9" "s10" }
}

variable "SingleEpithelialCellSize" { 
      type discrete[10] { "s1" "s2" "s3" "s4" "s5" "s6" "s7" "s8" "s9" "s10" }
}

variable "BareNuclei" { 
      type discrete[10] { "s1" "s2" "s3" "s4" "s5" "s6" "s7" "s8" "s9" "s10" }
}

variable "BlandChromatin" { 
      type discrete[10] { "s1" "s2" "s3" "s4" "s5" "s6" "s7" "s8" "s9" "s10" }
}

variable "NormalNucleoli" { 
      type discrete[10] { "s1" "s2" "s3" "s4" "s5" "s6" "s7" "s8" "s9" "s10" }
}

variable "Mitoses" { 
      type discrete[10] { "s1" "s2" "s3" "s4" "s5" "s6" "s7" "s8" "s9" "s10" }
}

probability( "Class" ) {
      table  0.6436 0.3564;
}

probability( "ClumpThickness" | "Class" ) {
        ("s2") 0.2949 0.0949 0.2128 0.1590 0.1897 0.0359 0.0026 0.0103 0.0000 0.0000;
        ("s4") 0.0093 0.0185 0.0556 0.0370 0.1852 0.0741 0.0972 0.1713 0.0602 0.2917;
}

probability( "UniformityofCellSize" | "Class" ) {
        ("s2") 0.8333 0.0872 0.0538 0.0205 0.0000 0.0000 0.0026 0.0026 0.0000 0.0000;
        ("s4") 0.0185 0.0324 0.1019 0.1250 0.1204 0.1111 0.0648 0.1157 0.0185 0.2917;
}

probability( "UniformityofCellShape" | "Class" ) {
        ("s2") 0.7718 0.1179 0.0692 0.0282 0.0051 0.0026 0.0026 0.0026 0.0000 0.0000;
        ("s4") 0.0093 0.0278 0.0926 0.1343 0.1065 0.1157 0.1250 0.1111 0.0278 0.2500;
}

probability( "MarginalAdhesion" | "Class" ) {
        ("s2") 0.8128 0.0795 0.0769 0.0128 0.0077 0.0077 0.0000 0.0000 0.0000 0.0026;
        ("s4") 0.1250 0.0926 0.1157 0.1111 0.0787 0.0787 0.0509 0.1019 0.0185 0.2269;
}

probability( "SingleEpithelialCellSize" | "Class" ) {
        ("s2") 0.0949 0.8051 0.0641 0.0128 0.0077 0.0026 0.0051 0.0051 0.0000 0.0026;
        ("s4") 0.0046 0.0833 0.1852 0.1667 0.1389 0.1713 0.0370 0.0880 0.0046 0.1204;
}

probability( "BareNuclei" | "Class" ) {
        ("s2") 0.8821 0.0385 0.0333 0.0154 0.0179 0.0000 0.0026 0.0026 0.0000 0.0077;
        ("s4") 0.0648 0.0417 0.0556 0.0509 0.0880 0.0093 0.0231 0.0833 0.0370 0.5463;
}

probability( "BlandChromatin" | "Class" ) {
        ("s2") 0.3308 0.3538 0.2821 0.0128 0.0051 0.0026 0.0128 0.0000 0.0000 0.0000;
        ("s4") 0.0093 0.0278 0.1481 0.1435 0.1065 0.0324 0.2824 0.1250 0.0463 0.0787;
}

probability( "NormalNucleoli" | "Class" ) {
        ("s2") 0.8846 0.0615 0.0256 0.0026 0.0051 0.0077 0.0051 0.0077 0.0000 0.0000;
        ("s4") 0.1806 0.0278 0.1343 0.0648 0.0648 0.0694 0.0556 0.0926 0.0602 0.2500;
}

probability( "Mitoses" | "Class" ) {
        ("s2") 0.9718 0.0179 0.0051 0.0000 0.0000 0.0000 0.0026 0.0026 0.0000 0.0000;
        ("s4") 0.5463 0.1157 0.1343 0.0463 0.0231 0.0139 0.0324 0.0278 0.0000 0.0602;
}

//Loglikelihood:  -6947.50222107629
//Score        :  0.974025974025974
//LoglikelihoodOfPreviousModel:  -1482.4559697256966
