// HNB model in the BIF format
// Produced by the HNB package

network "HLCM1760935" {}

variable "class" { 
      type discrete[2] { "s0" "s1" }
}

variable "a1" { 
      type discrete[3] { "s0" "s1" "s2" }
}

variable "a3" { 
      type discrete[2] { "s0" "s1" }
}

variable "a6" { 
      type discrete[2] { "s0" "s1" }
}

variable "v861" { 
      type discrete[5] { "s0" "s1" "s2" "s3" "s4" }
}

variable "a4" { 
      type discrete[3] { "s0" "s1" "s2" }
}

variable "a2" { 
      type discrete[3] { "s0" "s1" "s2" }
}

variable "a5" { 
      type discrete[4] { "s0" "s1" "s2" "s3" }
}

probability( "class" ) {
      table  0.4805 0.5195;
}

probability( "a1" | "class" ) {
        ("s0") 0.3459 0.3189 0.3351;
        ("s1") 0.3300 0.3400 0.3300;
}

probability( "a3" | "class" ) {
        ("s0") 0.5081 0.4919;
        ("s1") 0.5000 0.5000;
}

probability( "a6" | "class" ) {
        ("s0") 0.5027 0.4973;
        ("s1") 0.4850 0.5150;
}

probability( "v861" | "class" ) {
        ("s0") 0.0000 0.4013 0.2000 0.0000 0.3987;
        ("s1") 0.9378 0.0000 0.0000 0.0622 0.0000;
}

probability( "a4" | "v861" ) {
        ("s0") 0.3282 0.3359 0.3359;
        ("s1") 0.0000 0.4524 0.5476;
        ("s2") 0.7103 0.1829 0.1068;
        ("s3") 1.0000 0.0000 0.0000;
        ("s4") 0.3486 0.3477 0.3036;
}

probability( "a2" | "v861" ) {
        ("s0") 0.5119 0.4881 0.0000;
        ("s1") 0.0000 0.0000 1.0000;
        ("s2") 0.0000 0.0000 1.0000;
        ("s3") 0.1602 0.0364 0.8034;
        ("s4") 0.4474 0.4474 0.1052;
}

probability( "a5" | "v861" ) {
        ("s0") 0.3466 0.3359 0.3175 0.0000;
        ("s1") 0.2499 0.2406 0.2963 0.2131;
        ("s2") 0.4174 0.3820 0.0000 0.2006;
        ("s3") 0.0000 0.0000 1.0000 0.0000;
        ("s4") 0.0000 0.0000 0.0000 1.0000;
}

//Loglikelihood:  0.0
//Score        :  1.0
//LoglikelihoodOfPreviousModel:  -18614.128735883198
