// HNB model in the BIF format
// Produced by the HNB package

network "HLCM2029697" {}

variable "class" { 
      type discrete[2] { "s0" "s1" }
}

variable "a3" { 
      type discrete[2] { "s0" "s1" }
}

variable "v957" { 
      type discrete[5] { "s0" "s1" "s2" "s3" "s4" }
}

variable "a2" { 
      type discrete[3] { "s0" "s1" "s2" }
}

variable "a5" { 
      type discrete[4] { "s0" "s1" "s2" "s3" }
}

variable "a4" { 
      type discrete[3] { "s0" "s1" "s2" }
}

variable "a1" { 
      type discrete[3] { "s0" "s1" "s2" }
}

variable "a6" { 
      type discrete[2] { "s0" "s1" }
}

probability( "class" ) {
      table  0.4729 0.5271;
}

probability( "a3" | "class" ) {
        ("s0") 0.5137 0.4863;
        ("s1") 0.5196 0.4804;
}

probability( "v957" | "class" ) {
        ("s0") 0.4355 0.3632 0.2013 0.0000 0.0000;
        ("s1") 0.0000 0.0000 0.0000 0.0494 0.9506;
}

probability( "a2" | "v957" ) {
        ("s0") 0.4392 0.4015 0.1593;
        ("s1") 0.0000 0.0000 1.0000;
        ("s2") 0.0000 0.0000 1.0000;
        ("s3") 0.0073 0.0000 0.9927;
        ("s4") 0.5050 0.4950 0.0000;
}

probability( "a5" | "v957" ) {
        ("s0") 0.0000 0.0000 0.0000 1.0000;
        ("s1") 0.3753 0.3701 0.0000 0.2546;
        ("s2") 0.1102 0.2010 0.5700 0.1189;
        ("s3") 0.0000 0.0000 1.0000 0.0000;
        ("s4") 0.3197 0.3300 0.3503 0.0000;
}

probability( "a4" | "v957" ) {
        ("s0") 0.3284 0.3432 0.3285;
        ("s1") 0.4037 0.2690 0.3272;
        ("s2") 0.0000 0.4823 0.5177;
        ("s3") 1.0000 0.0000 0.0000;
        ("s4") 0.3503 0.3403 0.3094;
}

probability( "a1" | "class" ) {
        ("s0") 0.3060 0.3388 0.3552;
        ("s1") 0.3333 0.3382 0.3284;
}

probability( "a6" | "class" ) {
        ("s0") 0.5082 0.4918;
        ("s1") 0.5000 0.5000;
}

//Loglikelihood:  0.0
//Score        :  1.0
//LoglikelihoodOfPreviousModel:  -14463.917627689518
