// HNB model in the BIF format
// Produced by the HNB package

network "HLCM3347735" {}

variable "class" { 
      type discrete[2] { "s0" "s1" }
}

variable "a3" { 
      type discrete[2] { "s0" "s1" }
}

variable "v601" { 
      type discrete[9] { "s0" "s1" "s2" "s3" "s4" "s5" "s6" "s7" "s8" }
}

variable "a1" { 
      type discrete[3] { "s0" "s1" "s2" }
}

variable "a2" { 
      type discrete[3] { "s0" "s1" "s2" }
}

variable "a5" { 
      type discrete[4] { "s0" "s1" "s2" "s3" }
}

variable "a4" { 
      type discrete[3] { "s0" "s1" "s2" }
}

variable "a6" { 
      type discrete[2] { "s0" "s1" }
}

probability( "class" ) {
      table  0.5112 0.4888;
}

probability( "a3" | "class" ) {
        ("s0") 0.4940 0.5060;
        ("s1") 0.4750 0.5250;
}

probability( "v601" | "class" ) {
        ("s0") 0.0000 0.3267 0.0000 0.1708 0.2468 0.0000 0.1458 0.0000 0.1099;
        ("s1") 0.4778 0.0000 0.1713 0.0000 0.0000 0.1759 0.0000 0.1750 0.0000;
}

probability( "a1" | "v601" ) {
        ("s0") 0.3042 0.3314 0.3644;
        ("s1") 0.0000 1.0000 0.0000;
        ("s2") 1.0000 0.0000 0.0000;
        ("s3") 1.0000 0.0000 0.0000;
        ("s4") 0.0000 0.0000 1.0000;
        ("s5") 0.0000 0.0000 1.0000;
        ("s6") 0.6706 0.0000 0.3294;
        ("s7") 0.0000 1.0000 0.0000;
        ("s8") 0.9277 0.0723 0.0000;
}

probability( "a2" | "v601" ) {
        ("s0") 0.2868 0.3488 0.3644;
        ("s1") 0.5487 0.0000 0.4513;
        ("s2") 1.0000 0.0000 0.0000;
        ("s3") 0.0000 0.5239 0.4761;
        ("s4") 0.5812 0.4188 0.0000;
        ("s5") 0.0000 0.0000 1.0000;
        ("s6") 0.0000 1.0000 0.0000;
        ("s7") 0.0000 1.0000 0.0000;
        ("s8") 0.0000 0.0000 1.0000;
}

probability( "a5" | "v601" ) {
        ("s0") 1.0000 0.0000 0.0000 0.0000;
        ("s1") 0.0000 0.3114 0.3498 0.3387;
        ("s2") 0.0514 0.3162 0.3405 0.2919;
        ("s3") 0.0000 0.5765 0.3413 0.0822;
        ("s4") 0.0000 0.4197 0.3518 0.2284;
        ("s5") 0.0052 0.3079 0.3316 0.3553;
        ("s6") 0.0000 0.0000 0.3710 0.6289;
        ("s7") 0.0000 0.3333 0.3095 0.3571;
        ("s8") 0.0000 0.2084 0.1561 0.6354;
}

probability( "a4" | "v601" ) {
        ("s0") 0.3437 0.3160 0.3403;
        ("s1") 0.3492 0.3215 0.3293;
        ("s2") 0.3286 0.3340 0.3374;
        ("s3") 0.4352 0.2826 0.2821;
        ("s4") 0.3296 0.3278 0.3426;
        ("s5") 0.3334 0.2613 0.4052;
        ("s6") 0.2681 0.4285 0.3034;
        ("s7") 0.3571 0.3095 0.3333;
        ("s8") 0.1988 0.3454 0.4558;
}

probability( "a6" | "v601" ) {
        ("s0") 0.5064 0.4936;
        ("s1") 0.5001 0.4999;
        ("s2") 0.4827 0.5173;
        ("s3") 0.5050 0.4950;
        ("s4") 0.5059 0.4941;
        ("s5") 0.4048 0.5952;
        ("s6") 0.3993 0.6007;
        ("s7") 0.5000 0.5000;
        ("s8") 0.5217 0.4783;
}

//Loglikelihood:  0.0
//Score        :  1.0
//LoglikelihoodOfPreviousModel:  -55098.569188357804
