// HNB model in the BIF format
// Produced by the HNB package

network "HLCM4533699" {}

variable "class" { 
      type discrete[2] { "s0" "s1" }
}

variable "v726" { 
      type discrete[12] { "s0" "s1" "s2" "s3" "s4" "s5" "s6" "s7" "s8" "s9" "s10" "s11" }
}

variable "a1" { 
      type discrete[3] { "s0" "s1" "s2" }
}

variable "a2" { 
      type discrete[3] { "s0" "s1" "s2" }
}

variable "a5" { 
      type discrete[4] { "s0" "s1" "s2" "s3" }
}

variable "v799" { 
      type discrete[6] { "s0" "s1" "s2" "s3" "s4" "s5" }
}

variable "a3" { 
      type discrete[2] { "s0" "s1" }
}

variable "a4" { 
      type discrete[3] { "s0" "s1" "s2" }
}

variable "a6" { 
      type discrete[2] { "s0" "s1" }
}

probability( "class" ) {
      table  0.5000 0.5000;
}

probability( "v726" | "class" ) {
        ("s0") 0.0000 0.0000 0.2465 0.0858 0.0617 0.2188 0.1536 0.0000 0.2335 0.0000 0.0000 0.0000;
        ("s1") 0.0925 0.1538 0.0000 0.0000 0.0000 0.0000 0.0000 0.2047 0.0000 0.1912 0.1877 0.1701;
}

probability( "a1" | "v726" ) {
        ("s0") 0.0714 0.0004 0.9282;
        ("s1") 1.0000 0.0000 0.0000;
        ("s2") 0.0000 0.3924 0.6076;
        ("s3") 0.0000 1.0000 0.0000;
        ("s4") 1.0000 0.0000 0.0000;
        ("s5") 0.3339 0.0000 0.6661;
        ("s6") 0.0533 0.9467 0.0000;
        ("s7") 0.3250 0.3797 0.2953;
        ("s8") 1.0000 0.0000 0.0000;
        ("s9") 0.4221 0.4401 0.1378;
        ("s10") 0.0000 0.0000 1.0000;
        ("s11") 0.0000 1.0000 0.0000;
}

probability( "a2" | "v726" ) {
        ("s0") 0.2477 0.4683 0.2840;
        ("s1") 1.0000 0.0000 0.0000;
        ("s2") 1.0000 0.0000 0.0000;
        ("s3") 0.9488 0.0000 0.0512;
        ("s4") 0.0000 0.0618 0.9382;
        ("s5") 0.0000 1.0000 0.0000;
        ("s6") 0.0000 0.0000 1.0000;
        ("s7") 0.6278 0.0036 0.3686;
        ("s8") 0.0000 0.5030 0.4970;
        ("s9") 0.0338 0.6165 0.3497;
        ("s10") 0.0000 0.0000 1.0000;
        ("s11") 0.0000 1.0000 0.0000;
}

probability( "a5" | "v726" ) {
        ("s0") 1.0000 0.0000 0.0000 0.0000;
        ("s1") 0.0000 0.3421 0.3684 0.2895;
        ("s2") 0.0000 0.4485 0.2659 0.2856;
        ("s3") 0.0000 0.0846 0.4870 0.4284;
        ("s4") 0.0000 0.4072 0.0502 0.5426;
        ("s5") 0.0000 0.3000 0.3306 0.3693;
        ("s6") 0.0000 0.3315 0.3759 0.2926;
        ("s7") 1.0000 0.0000 0.0000 0.0000;
        ("s8") 0.0000 0.3102 0.3917 0.2981;
        ("s9") 1.0000 0.0000 0.0000 0.0000;
        ("s10") 0.0077 0.3236 0.3236 0.3452;
        ("s11") 0.0002 0.3095 0.3571 0.3333;
}

probability( "v799" | "v726" ) {
        ("s0") 0.5166 0.1343 0.0000 0.1237 0.0001 0.2254;
        ("s1") 0.1678 0.4325 0.0834 0.1419 0.0417 0.1326;
        ("s2") 0.1003 0.2310 0.1472 0.0205 0.2537 0.2473;
        ("s3") 0.0033 0.4153 0.3073 0.2605 0.0136 0.0000;
        ("s4") 0.1139 0.0000 0.3597 0.2755 0.0440 0.2070;
        ("s5") 0.0137 0.5360 0.0698 0.1939 0.1035 0.0832;
        ("s6") 0.0739 0.3945 0.1342 0.1469 0.2045 0.0460;
        ("s7") 0.1003 0.3689 0.2258 0.0614 0.0966 0.1470;
        ("s8") 0.2792 0.0147 0.1498 0.0001 0.3211 0.2351;
        ("s9") 0.2052 0.0125 0.1595 0.1746 0.4481 0.0000;
        ("s10") 0.1230 0.3768 0.0911 0.0852 0.2645 0.0594;
        ("s11") 0.2381 0.1428 0.0865 0.1296 0.3258 0.0773;
}

probability( "a3" | "v799" ) {
        ("s0") 0.6054 0.3946;
        ("s1") 0.5041 0.4959;
        ("s2") 0.9290 0.0710;
        ("s3") 0.0135 0.9865;
        ("s4") 0.6908 0.3092;
        ("s5") 0.0273 0.9727;
}

probability( "a4" | "v799" ) {
        ("s0") 0.7616 0.0045 0.2339;
        ("s1") 0.5367 0.1792 0.2841;
        ("s2") 0.0138 0.6422 0.3440;
        ("s3") 0.1552 0.4432 0.4016;
        ("s4") 0.1547 0.3551 0.4901;
        ("s5") 0.2573 0.5102 0.2325;
}

probability( "a6" | "v799" ) {
        ("s0") 0.8142 0.1858;
        ("s1") 0.3361 0.6639;
        ("s2") 0.8016 0.1984;
        ("s3") 0.9747 0.0253;
        ("s4") 0.1476 0.8524;
        ("s5") 0.2245 0.7755;
}

//Loglikelihood:  -241378.62929427926
//Score        :  -242390.64133044193
//LoglikelihoodOfPreviousModel:  -241379.12690974047
