// HNB model in the BIF format
// Produced by the HNB package

network "HLCM6357386" {}

variable "class" { 
      type discrete[2] { "s0" "s1" }
}

variable "v1157" { 
      type discrete[14] { "s0" "s1" "s2" "s3" "s4" "s5" "s6" "s7" "s8" "s9" "s10" "s11" "s12" "s13" }
}

variable "a1" { 
      type discrete[3] { "s0" "s1" "s2" }
}

variable "a2" { 
      type discrete[3] { "s0" "s1" "s2" }
}

variable "a5" { 
      type discrete[4] { "s0" "s1" "s2" "s3" }
}

variable "a6" { 
      type discrete[2] { "s0" "s1" }
}

variable "a4" { 
      type discrete[3] { "s0" "s1" "s2" }
}

variable "a3" { 
      type discrete[2] { "s0" "s1" }
}

probability( "class" ) {
      table  0.5010 0.4990;
}

probability( "v1157" | "class" ) {
        ("s0") 0.0000 0.0000 0.0000 0.1342 0.0000 0.0000 0.1766 0.1378 0.0000 0.1060 0.2158 0.0000 0.2088 0.0208;
        ("s1") 0.1316 0.0976 0.1866 0.0000 0.0875 0.1347 0.0000 0.0000 0.1887 0.0000 0.0000 0.1734 0.0000 0.0000;
}

probability( "a1" | "v1157" ) {
        ("s0") 0.3293 0.2811 0.3896;
        ("s1") 1.0000 0.0000 0.0000;
        ("s2") 0.0000 0.0000 1.0000;
        ("s3") 1.0000 0.0000 0.0000;
        ("s4") 1.0000 0.0000 0.0000;
        ("s5") 0.4073 0.5801 0.0126;
        ("s6") 0.1651 0.8349 0.0000;
        ("s7") 0.0000 0.3925 0.6075;
        ("s8") 0.1733 0.2942 0.5325;
        ("s9") 1.0000 0.0000 0.0000;
        ("s10") 0.4374 0.0000 0.5626;
        ("s11") 0.0000 1.0000 0.0000;
        ("s12") 0.0000 0.5996 0.4004;
        ("s13") 0.1337 0.0000 0.8663;
}

probability( "a2" | "v1157" ) {
        ("s0") 0.0285 0.5487 0.4228;
        ("s1") 1.0000 0.0000 0.0000;
        ("s2") 0.0000 0.0000 1.0000;
        ("s3") 0.0000 0.4592 0.5408;
        ("s4") 1.0000 0.0000 0.0000;
        ("s5") 0.2218 0.2855 0.4926;
        ("s6") 0.0000 0.0000 1.0000;
        ("s7") 1.0000 0.0000 0.0000;
        ("s8") 0.4944 0.3178 0.1878;
        ("s9") 0.0000 0.0805 0.9195;
        ("s10") 0.0000 1.0000 0.0000;
        ("s11") 0.0000 1.0000 0.0000;
        ("s12") 1.0000 0.0000 0.0000;
        ("s13") 0.0000 1.0000 0.0000;
}

probability( "a5" | "v1157" ) {
        ("s0") 1.0000 0.0000 0.0000 0.0000;
        ("s1") 0.1751 0.2747 0.2733 0.2768;
        ("s2") 0.0566 0.2787 0.3002 0.3645;
        ("s3") 0.0000 0.4420 0.5472 0.0108;
        ("s4") 0.0000 0.3336 0.3808 0.2856;
        ("s5") 1.0000 0.0000 0.0000 0.0000;
        ("s6") 0.0000 0.2981 0.4315 0.2704;
        ("s7") 0.0000 0.6191 0.1855 0.1954;
        ("s8") 1.0000 0.0000 0.0000 0.0000;
        ("s9") 0.0000 0.2710 0.0003 0.7287;
        ("s10") 0.0000 0.2628 0.3250 0.4122;
        ("s11") 0.0078 0.3230 0.3692 0.3000;
        ("s12") 0.0000 0.2019 0.3928 0.4053;
        ("s13") 0.0000 0.4700 0.1604 0.3696;
}

probability( "a6" | "v1157" ) {
        ("s0") 0.5585 0.4415;
        ("s1") 0.5492 0.4508;
        ("s2") 0.4266 0.5734;
        ("s3") 0.4610 0.5390;
        ("s4") 0.4769 0.5231;
        ("s5") 0.5875 0.4125;
        ("s6") 0.5384 0.4616;
        ("s7") 0.2625 0.7375;
        ("s8") 0.4865 0.5135;
        ("s9") 0.5392 0.4608;
        ("s10") 0.3734 0.6266;
        ("s11") 0.4883 0.5117;
        ("s12") 0.6091 0.3909;
        ("s13") 0.9642 0.0358;
}

probability( "a4" | "v1157" ) {
        ("s0") 0.5638 0.0000 0.4362;
        ("s1") 0.3289 0.3611 0.3101;
        ("s2") 0.3635 0.2959 0.3407;
        ("s3") 0.2920 0.4084 0.2996;
        ("s4") 0.3336 0.2864 0.3800;
        ("s5") 0.1542 0.5467 0.2991;
        ("s6") 0.2993 0.2971 0.4035;
        ("s7") 0.3043 0.3346 0.3611;
        ("s8") 0.3361 0.4375 0.2264;
        ("s9") 0.2505 0.3409 0.4085;
        ("s10") 0.3736 0.3139 0.3124;
        ("s11") 0.3951 0.3019 0.3030;
        ("s12") 0.3143 0.4088 0.2768;
        ("s13") 0.0000 0.0000 1.0000;
}

probability( "a3" | "v1157" ) {
        ("s0") 0.4236 0.5764;
        ("s1") 0.0006 0.9994;
        ("s2") 0.4984 0.5016;
        ("s3") 0.4733 0.5267;
        ("s4") 0.9591 0.0409;
        ("s5") 0.4978 0.5022;
        ("s6") 0.4861 0.5139;
        ("s7") 0.4444 0.5556;
        ("s8") 0.7180 0.2820;
        ("s9") 0.4961 0.5039;
        ("s10") 0.5172 0.4828;
        ("s11") 0.5581 0.4419;
        ("s12") 0.4890 0.5110;
        ("s13") 0.2493 0.7507;
}

//Loglikelihood:  -244795.6091094226
//Score        :  -245755.90961006863
//LoglikelihoodOfPreviousModel:  -244796.00585427377
