// HNB model in the BIF format
// Produced by the HNB package

network "HLCM153144" {}

variable "v0" { 
      type discrete[3] { "s0" "s1" "s2" }
}

variable "v34" { 
      type discrete[2] { "s0" "s1" }
}

variable "v4" { 
      type discrete[3] { "s0" "s1" "s2" }
}

variable "v12" { 
      type discrete[2] { "s0" "s1" }
}

variable "v6" { 
      type discrete[3] { "s0" "s1" "s2" }
}

variable "v7" { 
      type discrete[3] { "s0" "s1" "s2" }
}

variable "v41" { 
      type discrete[2] { "s0" "s1" }
}

variable "v2" { 
      type discrete[3] { "s0" "s1" "s2" }
}

variable "v29" { 
      type discrete[2] { "s0" "s1" }
}

variable "v8" { 
      type discrete[3] { "s0" "s1" "s2" }
}

variable "v9" { 
      type discrete[3] { "s0" "s1" "s2" }
}

probability( "v0" ) {
      table  0.3160 0.4340 0.2500;
}

probability( "v34" | "v0" ) {
        ("s0") 0.4690 0.5310;
        ("s1") 0.5087 0.4913;
        ("s2") 0.0227 0.9773;
}

probability( "v4" | "v34" ) {
        ("s0") 0.3867 0.5994 0.0140;
        ("s1") 0.4160 0.1079 0.4762;
}

probability( "v12" | "v34" ) {
        ("s0") 0.8898 0.1102;
        ("s1") 0.6885 0.3115;
}

probability( "v6" | "v12" ) {
        ("s0") 0.3259 0.2907 0.3833;
        ("s1") 0.0001 0.5333 0.4666;
}

probability( "v7" | "v12" ) {
        ("s0") 0.2605 0.0278 0.7118;
        ("s1") 0.0002 0.9605 0.0393;
}

probability( "v41" | "v0" ) {
        ("s0") 0.0012 0.9988;
        ("s1") 0.4202 0.5798;
        ("s2") 0.8386 0.1614;
}

probability( "v2" | "v41" ) {
        ("s0") 0.0183 0.1493 0.8324;
        ("s1") 0.5543 0.3875 0.0582;
}

probability( "v29" | "v41" ) {
        ("s0") 0.6583 0.3417;
        ("s1") 0.5758 0.4242;
}

probability( "v8" | "v29" ) {
        ("s0") 0.1215 0.2362 0.6423;
        ("s1") 0.3779 0.4016 0.2204;
}

probability( "v9" | "v29" ) {
        ("s0") 0.5564 0.3549 0.0887;
        ("s1") 0.1495 0.6360 0.2145;
}

//Loglikelihood:  -7101.42641408432
//Score        :  -7225.766009105998
//LoglikelihoodOfPreviousModel:  -4128.885750440269
