// HNB model in the BIF format
// Produced by the HNB package

network "HLCM3982210" {}

variable "class" { 
      type discrete[2] { "s0" "s1" }
}

variable "v679" { 
      type discrete[4] { "s0" "s1" "s2" "s3" }
}

variable "a5" { 
      type discrete[4] { "s0" "s1" "s2" "s3" }
}

variable "v671" { 
      type discrete[5] { "s0" "s1" "s2" "s3" "s4" }
}

variable "a1" { 
      type discrete[3] { "s0" "s1" "s2" }
}

variable "v640" { 
      type discrete[7] { "s0" "s1" "s2" "s3" "s4" "s5" "s6" }
}

variable "a2" { 
      type discrete[3] { "s0" "s1" "s2" }
}

variable "a3" { 
      type discrete[2] { "s0" "s1" }
}

variable "a6" { 
      type discrete[2] { "s0" "s1" }
}

variable "a4" { 
      type discrete[3] { "s0" "s1" "s2" }
}

probability( "class" ) {
      table  0.6624 0.3376;
}

probability( "v679" | "class" ) {
        ("s0") 0.0000 0.0118 0.2658 0.7223;
        ("s1") 0.7970 0.2030 0.0000 0.0000;
}

probability( "a5" | "v679" ) {
        ("s0") 0.0000 0.3396 0.3208 0.3396;
        ("s1") 1.0000 0.0000 0.0000 0.0000;
        ("s2") 1.0000 0.0000 0.0000 0.0000;
        ("s3") 0.0081 0.3236 0.3395 0.3289;
}

probability( "v671" | "v679" ) {
        ("s0") 0.0000 0.5249 0.3208 0.1543 0.0000;
        ("s1") 0.8577 0.0000 0.1423 0.0000 0.0000;
        ("s2") 0.0323 0.1884 0.0832 0.0052 0.6908;
        ("s3") 0.4076 0.0000 0.0482 0.0000 0.5442;
}

probability( "a1" | "v671" ) {
        ("s0") 0.0068 0.4914 0.5018;
        ("s1") 0.0000 0.5262 0.4738;
        ("s2") 1.0000 0.0000 0.0000;
        ("s3") 0.0000 0.4895 0.5105;
        ("s4") 0.4992 0.2333 0.2676;
}

probability( "v640" | "v671" ) {
        ("s0") 0.0000 0.0000 0.1305 0.0000 0.0000 0.0000 0.8695;
        ("s1") 0.3275 0.2120 0.0923 0.1776 0.0000 0.1906 0.0000;
        ("s2") 0.0000 0.0000 0.1353 0.0000 0.0000 0.0000 0.8647;
        ("s3") 0.1721 0.0000 0.6621 0.0768 0.0000 0.0891 0.0000;
        ("s4") 0.0006 0.0168 0.0001 0.0000 0.8619 0.0097 0.1110;
}

probability( "a2" | "v640" ) {
        ("s0") 0.0000 0.5507 0.4493;
        ("s1") 0.0000 0.4993 0.5007;
        ("s2") 1.0000 0.0000 0.0000;
        ("s3") 1.0000 0.0000 0.0000;
        ("s4") 0.6104 0.1972 0.1924;
        ("s5") 0.0000 0.4932 0.5068;
        ("s6") 0.0000 0.5001 0.4999;
}

probability( "a3" | "v640" ) {
        ("s0") 1.0000 0.0000;
        ("s1") 1.0000 0.0000;
        ("s2") 0.3818 0.6182;
        ("s3") 0.0000 1.0000;
        ("s4") 0.6876 0.3124;
        ("s5") 0.0000 1.0000;
        ("s6") 0.3159 0.6841;
}

probability( "a6" | "v640" ) {
        ("s0") 1.0000 0.0000;
        ("s1") 0.0000 1.0000;
        ("s2") 0.0000 1.0000;
        ("s3") 1.0000 0.0000;
        ("s4") 0.6920 0.3080;
        ("s5") 1.0000 0.0000;
        ("s6") 0.3069 0.6931;
}

probability( "a4" | "v640" ) {
        ("s0") 0.0000 0.4659 0.5341;
        ("s1") 1.0000 0.0000 0.0000;
        ("s2") 0.1920 0.4585 0.3496;
        ("s3") 0.0000 0.4597 0.5403;
        ("s4") 0.4885 0.2585 0.2530;
        ("s5") 1.0000 0.0000 0.0000;
        ("s6") 0.1764 0.4019 0.4218;
}

//Loglikelihood:  0.0
//Score        :  0.868421052631579
//LoglikelihoodOfPreviousModel:  -22780.612649116698
