// HNB model in the BIF format
// Produced by the HNB package

network "HLCM6816335" {}

variable "class" { 
      type discrete[2] { "s0" "s1" }
}

variable "a5" { 
      type discrete[4] { "s0" "s1" "s2" "s3" }
}

variable "v1323" { 
      type discrete[4] { "s0" "s1" "s2" "s3" }
}

variable "a2" { 
      type discrete[3] { "s0" "s1" "s2" }
}

variable "v1300" { 
      type discrete[7] { "s0" "s1" "s2" "s3" "s4" "s5" "s6" }
}

variable "a4" { 
      type discrete[3] { "s0" "s1" "s2" }
}

variable "a6" { 
      type discrete[2] { "s0" "s1" }
}

variable "v1337" { 
      type discrete[5] { "s0" "s1" "s2" "s3" "s4" }
}

variable "a3" { 
      type discrete[2] { "s0" "s1" }
}

variable "a1" { 
      type discrete[3] { "s0" "s1" "s2" }
}

probability( "class" ) {
      table  0.6693 0.3307;
}

probability( "a5" | "class" ) {
        ("s0") 0.2857 0.2394 0.2239 0.2510;
        ("s1") 0.1953 0.2812 0.2578 0.2656;
}

probability( "v1323" | "class" ) {
        ("s0") 0.0000 0.2990 0.7010 0.0000;
        ("s1") 0.7031 0.0000 0.0000 0.2969;
}

probability( "a2" | "v1323" ) {
        ("s0") 0.0000 0.4889 0.5111;
        ("s1") 0.0005 0.4402 0.5592;
        ("s2") 0.5285 0.2418 0.2296;
        ("s3") 1.0000 0.0000 0.0000;
}

probability( "v1300" | "v1323" ) {
        ("s0") 0.2333 0.0000 0.0000 0.4333 0.0000 0.0000 0.3333;
        ("s1") 0.0000 0.4857 0.1644 0.0000 0.2959 0.0540 0.0000;
        ("s2") 0.0069 0.0428 0.7914 0.0001 0.0000 0.0810 0.0777;
        ("s3") 0.0000 0.5517 0.0000 0.0000 0.4483 0.0000 0.0000;
}

probability( "a4" | "v1300" ) {
        ("s0") 0.0000 0.5255 0.4745;
        ("s1") 0.2263 0.3655 0.4082;
        ("s2") 0.4590 0.2465 0.2945;
        ("s3") 0.0000 0.5128 0.4872;
        ("s4") 0.0000 0.4816 0.5184;
        ("s5") 0.0036 0.4897 0.5067;
        ("s6") 1.0000 0.0000 0.0000;
}

probability( "a6" | "v1300" ) {
        ("s0") 0.0000 1.0000;
        ("s1") 0.4976 0.5024;
        ("s2") 0.6878 0.3122;
        ("s3") 1.0000 0.0000;
        ("s4") 0.0000 1.0000;
        ("s5") 0.0170 0.9830;
        ("s6") 0.3187 0.6813;
}

probability( "v1337" | "v1300" ) {
        ("s0") 0.2830 0.0000 0.7170 0.0000 0.0000;
        ("s1") 0.0000 0.4148 0.0000 0.5852 0.0000;
        ("s2") 0.3898 0.0442 0.4339 0.0766 0.0554;
        ("s3") 0.5128 0.0562 0.0000 0.1195 0.3115;
        ("s4") 0.6597 0.0000 0.0000 0.0000 0.3403;
        ("s5") 0.0059 0.3879 0.0000 0.6029 0.0033;
        ("s6") 0.3679 0.1440 0.0000 0.2796 0.2085;
}

probability( "a3" | "v1337" ) {
        ("s0") 1.0000 0.0000;
        ("s1") 0.0000 1.0000;
        ("s2") 0.7040 0.2960;
        ("s3") 0.0000 1.0000;
        ("s4") 0.0000 1.0000;
}

probability( "a1" | "v1337" ) {
        ("s0") 0.0000 0.4924 0.5076;
        ("s1") 0.0000 0.0034 0.9966;
        ("s2") 0.9997 0.0000 0.0002;
        ("s3") 0.0000 0.8252 0.1748;
        ("s4") 0.9888 0.0108 0.0003;
}

//Loglikelihood:  0.0
//Score        :  0.8
//LoglikelihoodOfPreviousModel:  -7019.340799556199
