// HNB model in the BIF format
// Produced by the HNB package

network "HLCM246052" {}

variable "v0" { 
      type discrete[3] { "s0" "s1" "s2" }
}

variable "v2" { 
      type discrete[3] { "s0" "s1" "s2" }
}

variable "v243" { 
      type discrete[3] { "s0" "s1" "s2" }
}

variable "v221" { 
      type discrete[3] { "s0" "s1" "s2" }
}

variable "v8" { 
      type discrete[3] { "s0" "s1" "s2" }
}

variable "v9" { 
      type discrete[3] { "s0" "s1" "s2" }
}

variable "v235" { 
      type discrete[3] { "s0" "s1" "s2" }
}

variable "v4" { 
      type discrete[3] { "s0" "s1" "s2" }
}

variable "v226" { 
      type discrete[2] { "s0" "s1" }
}

variable "v6" { 
      type discrete[3] { "s0" "s1" "s2" }
}

variable "v7" { 
      type discrete[3] { "s0" "s1" "s2" }
}

probability( "v0" ) {
      table  0.2707 0.3551 0.3742;
}

probability( "v2" | "v0" ) {
        ("s0") 0.0694 0.1075 0.8231;
        ("s1") 0.8172 0.1405 0.0422;
        ("s2") 0.0075 0.8704 0.1221;
}

probability( "v243" | "v0" ) {
        ("s0") 0.0178 0.0000 0.9822;
        ("s1") 0.9639 0.0001 0.0361;
        ("s2") 0.0024 0.9976 0.0000;
}

probability( "v221" | "v243" ) {
        ("s0") 0.0131 0.1387 0.8481;
        ("s1") 0.8954 0.0003 0.1043;
        ("s2") 0.0179 0.9268 0.0553;
}

probability( "v8" | "v221" ) {
        ("s0") 0.0063 0.9562 0.0374;
        ("s1") 0.0526 0.0000 0.9474;
        ("s2") 0.8017 0.0595 0.1388;
}

probability( "v9" | "v221" ) {
        ("s0") 0.1349 0.8306 0.0346;
        ("s1") 0.1245 0.8660 0.0096;
        ("s2") 0.0411 0.0603 0.8986;
}

probability( "v235" | "v243" ) {
        ("s0") 0.0140 0.1846 0.8014;
        ("s1") 0.9426 0.0541 0.0032;
        ("s2") 0.0165 0.0982 0.8853;
}

probability( "v4" | "v235" ) {
        ("s0") 0.1237 0.0917 0.7846;
        ("s1") 0.7544 0.1909 0.0547;
        ("s2") 0.0409 0.9590 0.0001;
}

probability( "v226" | "v235" ) {
        ("s0") 0.0830 0.9170;
        ("s1") 0.8005 0.1995;
        ("s2") 0.0893 0.9107;
}

probability( "v6" | "v226" ) {
        ("s0") 0.8180 0.1293 0.0527;
        ("s1") 0.1286 0.8340 0.0373;
}

probability( "v7" | "v226" ) {
        ("s0") 0.1368 0.0608 0.8024;
        ("s1") 0.8192 0.0217 0.1591;
}

//Loglikelihood:  -46656.22980414095
//Score        :  -46909.514164370295
//LoglikelihoodOfPreviousModel:  -16066.165729412218
