// HNB model in the BIF format
// Produced by the HNB package

network "HLCM256753" {}

variable "v0" { 
      type discrete[3] { "s0" "s1" "s2" }
}

variable "v2" { 
      type discrete[3] { "s0" "s1" "s2" }
}

variable "v221" { 
      type discrete[3] { "s0" "s1" "s2" }
}

variable "v244" { 
      type discrete[3] { "s0" "s1" "s2" }
}

variable "v8" { 
      type discrete[3] { "s0" "s1" "s2" }
}

variable "v9" { 
      type discrete[3] { "s0" "s1" "s2" }
}

variable "v235" { 
      type discrete[3] { "s0" "s1" "s2" }
}

variable "v4" { 
      type discrete[3] { "s0" "s1" "s2" }
}

variable "v226" { 
      type discrete[2] { "s0" "s1" }
}

variable "v6" { 
      type discrete[3] { "s0" "s1" "s2" }
}

variable "v7" { 
      type discrete[3] { "s0" "s1" "s2" }
}

probability( "v0" ) {
      table  0.2707 0.3551 0.3742;
}

probability( "v2" | "v0" ) {
        ("s0") 0.0694 0.1075 0.8231;
        ("s1") 0.8172 0.1405 0.0422;
        ("s2") 0.0075 0.8704 0.1221;
}

probability( "v221" | "v0" ) {
        ("s0") 0.9557 0.0345 0.0098;
        ("s1") 0.1427 0.8492 0.0081;
        ("s2") 0.0124 0.0480 0.9396;
}

probability( "v244" | "v221" ) {
        ("s0") 0.0375 0.9545 0.0080;
        ("s1") 0.9581 0.0368 0.0051;
        ("s2") 0.0644 0.0099 0.9257;
}

probability( "v8" | "v244" ) {
        ("s0") 0.8011 0.0596 0.1393;
        ("s1") 0.0525 0.0005 0.9470;
        ("s2") 0.0050 0.9815 0.0135;
}

probability( "v9" | "v244" ) {
        ("s0") 0.0412 0.0604 0.8984;
        ("s1") 0.1245 0.8660 0.0096;
        ("s2") 0.1351 0.8303 0.0345;
}

probability( "v235" | "v0" ) {
        ("s0") 0.8652 0.0054 0.1294;
        ("s1") 0.7802 0.0035 0.2163;
        ("s2") 0.0868 0.8482 0.0650;
}

probability( "v4" | "v235" ) {
        ("s0") 0.0204 0.9714 0.0083;
        ("s1") 0.1277 0.0039 0.8684;
        ("s2") 0.7246 0.2224 0.0530;
}

probability( "v226" | "v235" ) {
        ("s0") 0.0828 0.9172;
        ("s1") 0.0820 0.9180;
        ("s2") 0.6944 0.3056;
}

probability( "v6" | "v226" ) {
        ("s0") 0.8205 0.1266 0.0529;
        ("s1") 0.1287 0.8340 0.0373;
}

probability( "v7" | "v226" ) {
        ("s0") 0.1366 0.0608 0.8026;
        ("s1") 0.8187 0.0217 0.1596;
}

//Loglikelihood:  -46657.01012383197
//Score        :  -46910.29448406131
//LoglikelihoodOfPreviousModel:  -16066.165729412218
