// HNB model in the BIF format
// Produced by the HNB package

network "HLCM6994142" {}

variable "class" { 
      type discrete[2] { "s0" "s1" }
}

variable "a3" { 
      type discrete[2] { "s0" "s1" }
}

variable "a4" { 
      type discrete[3] { "s0" "s1" "s2" }
}

variable "v1297" { 
      type discrete[8] { "s0" "s1" "s2" "s3" "s4" "s5" "s6" "s7" }
}

variable "a1" { 
      type discrete[3] { "s0" "s1" "s2" }
}

variable "a2" { 
      type discrete[3] { "s0" "s1" "s2" }
}

variable "a5" { 
      type discrete[4] { "s0" "s1" "s2" "s3" }
}

variable "a6" { 
      type discrete[2] { "s0" "s1" }
}

probability( "class" ) {
      table  0.5069 0.4931;
}

probability( "a3" | "class" ) {
        ("s0") 0.5078 0.4922;
        ("s1") 0.5181 0.4819;
}

probability( "a4" | "class" ) {
        ("s0") 0.3203 0.3438 0.3359;
        ("s1") 0.3534 0.3133 0.3333;
}

probability( "v1297" | "class" ) {
        ("s0") 0.0000 0.0000 0.1483 0.0000 0.1759 0.0000 0.3438 0.3320;
        ("s1") 0.4882 0.1544 0.0000 0.1807 0.0000 0.1767 0.0000 0.0000;
}

probability( "a1" | "v1297" ) {
        ("s0") 0.2843 0.3290 0.3866;
        ("s1") 1.0000 0.0000 0.0000;
        ("s2") 0.0000 0.4596 0.5404;
        ("s3") 0.0000 0.0000 1.0000;
        ("s4") 0.0000 0.6340 0.3660;
        ("s5") 0.0000 1.0000 0.0000;
        ("s6") 0.5682 0.4318 0.0000;
        ("s7") 0.5647 0.0000 0.4353;
}

probability( "a2" | "v1297" ) {
        ("s0") 0.3337 0.3290 0.3373;
        ("s1") 1.0000 0.0000 0.0000;
        ("s2") 1.0000 0.0000 0.0000;
        ("s3") 0.0000 0.0000 1.0000;
        ("s4") 1.0000 0.0000 0.0000;
        ("s5") 0.0000 1.0000 0.0000;
        ("s6") 0.0000 0.0000 1.0000;
        ("s7") 0.0000 1.0000 0.0000;
}

probability( "a5" | "v1297" ) {
        ("s0") 1.0000 0.0000 0.0000 0.0000;
        ("s1") 0.0114 0.3642 0.3642 0.2602;
        ("s2") 0.0000 0.5624 0.1725 0.2651;
        ("s3") 0.0000 0.3556 0.2889 0.3556;
        ("s4") 0.0000 0.1476 0.4541 0.3983;
        ("s5") 0.0000 0.3409 0.3182 0.3409;
        ("s6") 0.0000 0.3295 0.2955 0.3750;
        ("s7") 0.0000 0.3294 0.3176 0.3529;
}

probability( "a6" | "v1297" ) {
        ("s0") 0.5246 0.4754;
        ("s1") 0.5523 0.4477;
        ("s2") 0.2684 0.7316;
        ("s3") 0.4667 0.5333;
        ("s4") 0.6397 0.3603;
        ("s5") 0.4773 0.5227;
        ("s6") 0.5227 0.4773;
        ("s7") 0.4824 0.5176;
}

//Loglikelihood:  0.0
//Score        :  1.0
//LoglikelihoodOfPreviousModel:  -56686.73209084793
