// HNB model in the BIF format
// Produced by the HNB package

network "HLCM2060972" {}

variable "class" { 
      type discrete[2] { "s0" "s1" }
}

variable "v400" { 
      type discrete[5] { "s0" "s1" "s2" "s3" "s4" }
}

variable "a3" { 
      type discrete[2] { "s0" "s1" }
}

variable "v390" { 
      type discrete[3] { "s0" "s1" "s2" }
}

variable "a4" { 
      type discrete[3] { "s0" "s1" "s2" }
}

variable "a6" { 
      type discrete[2] { "s0" "s1" }
}

variable "a5" { 
      type discrete[4] { "s0" "s1" "s2" "s3" }
}

variable "a2" { 
      type discrete[3] { "s0" "s1" "s2" }
}

variable "a1" { 
      type discrete[3] { "s0" "s1" "s2" }
}

probability( "class" ) {
      table  0.6562 0.3438;
}

probability( "v400" | "class" ) {
        ("s0") 0.0043 0.2607 0.2589 0.0026 0.4736;
        ("s1") 0.4839 0.0000 0.0000 0.5161 0.0000;
}

probability( "a3" | "v400" ) {
        ("s0") 1.0000 0.0000;
        ("s1") 0.6130 0.3870;
        ("s2") 0.9648 0.0352;
        ("s3") 0.0000 1.0000;
        ("s4") 0.1850 0.8150;
}

probability( "v390" | "v400" ) {
        ("s0") 1.0000 0.0000 0.0000;
        ("s1") 0.0000 0.6193 0.3807;
        ("s2") 0.0004 0.6768 0.3229;
        ("s3") 0.0000 0.6046 0.3954;
        ("s4") 0.7707 0.2293 0.0000;
}

probability( "a4" | "v390" ) {
        ("s0") 0.1672 0.3939 0.4390;
        ("s1") 0.4249 0.2994 0.2757;
        ("s2") 0.5230 0.2135 0.2636;
}

probability( "a6" | "v390" ) {
        ("s0") 0.2731 0.7269;
        ("s1") 0.9996 0.0004;
        ("s2") 0.0003 0.9997;
}

probability( "a5" | "v390" ) {
        ("s0") 0.0969 0.2808 0.3458 0.2765;
        ("s1") 0.3237 0.1977 0.2310 0.2475;
        ("s2") 0.4789 0.1749 0.1888 0.1574;
}

probability( "a2" | "v390" ) {
        ("s0") 0.1663 0.4451 0.3885;
        ("s1") 0.3847 0.3248 0.2905;
        ("s2") 0.5316 0.2344 0.2340;
}

probability( "a1" | "v400" ) {
        ("s0") 0.2215 0.3786 0.3999;
        ("s1") 0.8999 0.0982 0.0019;
        ("s2") 0.2368 0.3312 0.4320;
        ("s3") 0.3542 0.3334 0.3123;
        ("s4") 0.1448 0.4610 0.3941;
}

//Loglikelihood:  0.0
//Score        :  0.7
//LoglikelihoodOfPreviousModel:  -10683.30492104283
