// HNB model in the BIF format
// Produced by the HNB package

network "HLCM224885" {}

variable "v0" { 
      type discrete[3] { "s0" "s1" "s2" }
}

variable "v221" { 
      type discrete[3] { "s0" "s1" "s2" }
}

variable "v8" { 
      type discrete[3] { "s0" "s1" "s2" }
}

variable "v9" { 
      type discrete[3] { "s0" "s1" "s2" }
}

variable "v242" { 
      type discrete[3] { "s0" "s1" "s2" }
}

variable "v2" { 
      type discrete[3] { "s0" "s1" "s2" }
}

variable "v235" { 
      type discrete[3] { "s0" "s1" "s2" }
}

variable "v4" { 
      type discrete[3] { "s0" "s1" "s2" }
}

variable "v226" { 
      type discrete[2] { "s0" "s1" }
}

variable "v6" { 
      type discrete[3] { "s0" "s1" "s2" }
}

variable "v7" { 
      type discrete[3] { "s0" "s1" "s2" }
}

probability( "v0" ) {
      table  0.2658 0.3528 0.3814;
}

probability( "v221" | "v0" ) {
        ("s0") 0.0631 0.9314 0.0056;
        ("s1") 0.8174 0.1702 0.0125;
        ("s2") 0.1161 0.0113 0.8726;
}

probability( "v8" | "v221" ) {
        ("s0") 0.8201 0.0695 0.1104;
        ("s1") 0.0651 0.0094 0.9255;
        ("s2") 0.0057 0.9720 0.0223;
}

probability( "v9" | "v221" ) {
        ("s0") 0.0335 0.0650 0.9015;
        ("s1") 0.1432 0.8484 0.0084;
        ("s2") 0.1188 0.8471 0.0341;
}

probability( "v242" | "v0" ) {
        ("s0") 0.9819 0.0021 0.0160;
        ("s1") 0.0093 0.0000 0.9907;
        ("s2") 0.0000 1.0000 0.0000;
}

probability( "v2" | "v242" ) {
        ("s0") 0.0625 0.1032 0.8343;
        ("s1") 0.0047 0.8584 0.1369;
        ("s2") 0.8239 0.1318 0.0442;
}

probability( "v235" | "v242" ) {
        ("s0") 0.0075 0.1348 0.8577;
        ("s1") 0.8582 0.0840 0.0578;
        ("s2") 0.0035 0.2243 0.7722;
}

probability( "v4" | "v235" ) {
        ("s0") 0.0952 0.0312 0.8736;
        ("s1") 0.8049 0.1525 0.0426;
        ("s2") 0.0033 0.9929 0.0038;
}

probability( "v226" | "v235" ) {
        ("s0") 0.9051 0.0949;
        ("s1") 0.3140 0.6860;
        ("s2") 0.8923 0.1077;
}

probability( "v6" | "v226" ) {
        ("s0") 0.1283 0.8319 0.0398;
        ("s1") 0.7951 0.1363 0.0686;
}

probability( "v7" | "v226" ) {
        ("s0") 0.8267 0.0194 0.1539;
        ("s1") 0.1619 0.0534 0.7848;
}

//Loglikelihood:  -23362.951855761934
//Score        :  -23597.17466852588
//LoglikelihoodOfPreviousModel:  -11140.217789698898
