// HNB model in the BIF format
// Produced by the HNB package

network "HLCM63130" {}

variable "v0" { 
      type discrete[3] { "s0" "s1" "s2" }
}

variable "v6" { 
      type discrete[3] { "s0" "s1" "s2" }
}

variable "v7" { 
      type discrete[3] { "s0" "s1" "s2" }
}

variable "v2" { 
      type discrete[3] { "s0" "s1" "s2" }
}

variable "v225" { 
      type discrete[3] { "s0" "s1" "s2" }
}

variable "v4" { 
      type discrete[3] { "s0" "s1" "s2" }
}

variable "v221" { 
      type discrete[3] { "s0" "s1" "s2" }
}

variable "v8" { 
      type discrete[3] { "s0" "s1" "s2" }
}

variable "v9" { 
      type discrete[3] { "s0" "s1" "s2" }
}

probability( "v0" ) {
      table  0.2658 0.3528 0.3814;
}

probability( "v6" | "v0" ) {
        ("s0") 0.2521 0.6975 0.0504;
        ("s1") 0.2863 0.6729 0.0408;
        ("s2") 0.2255 0.7289 0.0456;
}

probability( "v7" | "v0" ) {
        ("s0") 0.7043 0.0263 0.2694;
        ("s1") 0.6667 0.0255 0.3078;
        ("s2") 0.7315 0.0257 0.2428;
}

probability( "v2" | "v0" ) {
        ("s0") 0.0745 0.1053 0.8202;
        ("s1") 0.8169 0.1315 0.0516;
        ("s2") 0.0047 0.8584 0.1369;
}

probability( "v225" | "v0" ) {
        ("s0") 0.9504 0.0485 0.0011;
        ("s1") 0.0607 0.9393 0.0000;
        ("s2") 0.0003 0.0004 0.9993;
}

probability( "v4" | "v225" ) {
        ("s0") 0.1100 0.8742 0.0157;
        ("s1") 0.1871 0.7970 0.0159;
        ("s2") 0.1494 0.0965 0.7541;
}

probability( "v221" | "v225" ) {
        ("s0") 0.0217 0.0059 0.9725;
        ("s1") 0.8689 0.0132 0.1179;
        ("s2") 0.1158 0.8709 0.0133;
}

probability( "v8" | "v221" ) {
        ("s0") 0.8201 0.0692 0.1107;
        ("s1") 0.0056 0.9746 0.0198;
        ("s2") 0.0652 0.0078 0.9269;
}

probability( "v9" | "v221" ) {
        ("s0") 0.0335 0.0650 0.9015;
        ("s1") 0.1188 0.8468 0.0343;
        ("s2") 0.1431 0.8486 0.0083;
}

//Loglikelihood:  -23866.230989162512
//Score        :  -24079.16081894792
//LoglikelihoodOfPreviousModel:  -9113.509332014155
