// HNB model in the BIF format
// Produced by the HNB package

network "HLCM246742" {}

variable "v0" { 
      type discrete[3] { "s0" "s1" "s2" }
}

variable "v2" { 
      type discrete[3] { "s0" "s1" "s2" }
}

variable "v221" { 
      type discrete[3] { "s0" "s1" "s2" }
}

variable "v8" { 
      type discrete[3] { "s0" "s1" "s2" }
}

variable "v9" { 
      type discrete[3] { "s0" "s1" "s2" }
}

variable "v235" { 
      type discrete[2] { "s0" "s1" }
}

variable "v245" { 
      type discrete[3] { "s0" "s1" "s2" }
}

variable "v4" { 
      type discrete[3] { "s0" "s1" "s2" }
}

variable "v226" { 
      type discrete[2] { "s0" "s1" }
}

variable "v6" { 
      type discrete[3] { "s0" "s1" "s2" }
}

variable "v7" { 
      type discrete[3] { "s0" "s1" "s2" }
}

probability( "v0" ) {
      table  0.2658 0.3528 0.3814;
}

probability( "v2" | "v0" ) {
        ("s0") 0.0745 0.1053 0.8202;
        ("s1") 0.8169 0.1315 0.0516;
        ("s2") 0.0047 0.8584 0.1369;
}

probability( "v221" | "v0" ) {
        ("s0") 0.9347 0.0021 0.0632;
        ("s1") 0.1709 0.0117 0.8174;
        ("s2") 0.0223 0.8613 0.1165;
}

probability( "v8" | "v221" ) {
        ("s0") 0.0649 0.0128 0.9223;
        ("s1") 0.0049 0.9845 0.0106;
        ("s2") 0.8197 0.0696 0.1107;
}

probability( "v9" | "v221" ) {
        ("s0") 0.1431 0.8485 0.0084;
        ("s1") 0.1186 0.8473 0.0341;
        ("s2") 0.0334 0.0651 0.9015;
}

probability( "v235" | "v0" ) {
        ("s0") 0.0139 0.9861;
        ("s1") 0.0113 0.9887;
        ("s2") 0.9987 0.0013;
}

probability( "v245" | "v235" ) {
        ("s0") 0.0855 0.8464 0.0681;
        ("s1") 0.8527 0.0000 0.1473;
}

probability( "v4" | "v245" ) {
        ("s0") 0.0316 0.9682 0.0002;
        ("s1") 0.1048 0.0073 0.8878;
        ("s2") 0.8545 0.0998 0.0457;
}

probability( "v226" | "v245" ) {
        ("s0") 0.8792 0.1208;
        ("s1") 0.9016 0.0984;
        ("s2") 0.1934 0.8066;
}

probability( "v6" | "v226" ) {
        ("s0") 0.1263 0.8340 0.0397;
        ("s1") 0.7867 0.1450 0.0683;
}

probability( "v7" | "v226" ) {
        ("s0") 0.8289 0.0193 0.1519;
        ("s1") 0.1697 0.0531 0.7772;
}

//Loglikelihood:  -23378.70920654166
//Score        :  -23591.639036327066
//LoglikelihoodOfPreviousModel:  -8074.243760940559
